36 64
33 -0.09120977 -0.033126958 -0.13859878 -0.29127163 0.20027827 0.20975755 -0.19548494 -0.24657507 -0.080377564 -0.2792881 -0.15214424 -0.1570568 0.051223677 0.09816514 0.22711714 0.08813206 -0.15097722 -0.123712294 -0.17067015 -0.13067196 -0.031254772 0.004609105 -0.06418529 0.015630355 0.2279101 0.14063615 -0.24688737 -0.25916323 0.20693192 -0.17859747 -0.20896016 -0.1903078 0.32526895 0.18209372 0.25644758 -0.115877084 -0.035826735 -0.053584453 -0.081202805 -0.19005916 0.022046437 -0.20591037 0.00078473345 -0.11318242 -0.15104605 -0.2735431 -0.259934 0.2967167 0.14860497 -0.24299645 0.28226197 0.14924839 -0.013925658 -0.0588913 -0.1877869 -0.029865032 0.13770707 0.37422615 0.11472999 -0.006196166 0.4003033 -0.3090772 0.16543177 -0.15288104
0 0.06784335 -0.11977492 -0.089310795 0.13881594 0.14021264 0.194816 -0.38082507 -0.106700964 0.33857727 -0.23328562 -0.23398013 -0.41031763 0.06865727 0.12220433 -0.08129545 0.0148367295 0.076383166 -0.25598133 0.027836917 -0.12516403 0.029336069 -0.08111175 0.069982216 -0.09499645 0.33367074 0.24682602 -0.40076065 -0.33348075 0.19344833 -0.32745996 -0.14211343 -0.18035904 0.25455236 -0.26367262 0.20005354 0.044316594 -0.054652505 -0.24166857 -0.12125907 0.06698037 0.20091772 -0.15654247 0.29885465 -0.2384953 0.0032392978 -0.30840752 -0.08296727 0.0831357 0.24989894 -0.05618281 0.102055214 0.24921003 -0.31780013 -0.12750612 -0.13548867 0.0719511 0.060512718 0.31920674 0.31274626 -0.22735965 0.24005243 -0.2413032 0.07420506 -0.001900644
32 -0.0011739744 0.01920548 -0.1485626 -0.3310075 0.20253055 0.2925977 -0.15024453 -0.23082142 -0.112973176 -0.37517914 -0.099477515 -0.08806206 0.051473588 0.07137683 0.29190433 -0.0113910055 -0.15173957 -0.16755976 -0.15759455 -0.14345601 -0.0060023814 -0.04629604 -0.15940973 0.012100465 0.26542786 0.07308535 -0.32669127 -0.2679039 0.108080365 -0.18249162 -0.1915861 -0.19573158 0.27562538 0.1965098 0.27934358 -0.009259857 -0.038822208 0.009976769 -0.00043735554 -0.25992608 0.0035998123 -0.08278774 0.036486816 -0.09488361 -0.145987 -0.37329057 -0.16850254 0.2766278 0.15690823 -0.33808216 0.29652593 0.0784067 0.030181982 -0.11850359 -0.08586157 -0.053352825 0.18742785 0.2486779 0.11530611 0.027183022 0.31311834 -0.37088525 0.22538571 -0.12151894
2 -0.011288787 -0.12869577 -0.16360827 -0.035700105 0.21369538 0.2514368 -0.2462857 -0.17734349 0.08569453 -0.2243718 -0.33072037 -0.29265416 0.0052525927 0.1155419 0.14552942 0.10458126 -0.073104724 -0.24216948 -0.06633166 -0.05537907 -0.010814488 -0.08919476 -0.00031946262 -0.06897228 0.28306568 0.2547351 -0.2977874 -0.24221835 0.28967628 -0.3122967 -0.2364303 -0.09583889 0.41442847 -0.057547327 0.20932133 -0.02057793 -0.03086919 -0.19719839 -0.008612697 -0.032495454 0.19160482 -0.16418336 0.15041573 -0.18064861 -0.15349719 -0.2554985 -0.1729231 0.23296306 0.18764225 -0.12356727 0.20004079 0.19764315 -0.10046946 -0.060068104 -0.1648733 0.028443275 0.12833023 0.3489159 0.18295437 -0.11186335 0.32992858 -0.1267677 0.17268676 -0.055688284
1 0.06579664 -0.12775975 -0.14772658 0.044471726 0.20046265 0.2925531 -0.24342099 -0.10511153 0.18401457 -0.265034 -0.3466631 -0.32467672 0.018066771 0.10937747 0.078389645 0.008198401 -0.028324896 -0.27698734 -0.038950045 -0.03707521 0.010332796 -0.16780701 -0.0038215204 -0.09085535 0.3700587 0.22879669 -0.39695382 -0.28089604 0.27418065 -0.38004223 -0.2086804 -0.09260898 0.42036596 -0.15039079 0.21760112 0.10668191 -0.07645953 -0.22984962 -0.006717698 0.0060086097 0.20830631 -0.12569758 0.22062665 -0.20895594 -0.12753126 -0.3088945 -0.09807674 0.15079968 0.23695897 -0.1238168 0.17489894 0.18905862 -0.13547155 -0.09393326 -0.105691455 0.06204191 0.15472007 0.28334957 0.23977119 -0.14877704 0.2508676 -0.14554633 0.19860294 0.013509393
3 0.0743541 -0.13093986 -0.14102452 0.09409351 0.18002401 0.2638154 -0.31129026 -0.1137846 0.2680785 -0.24205582 -0.3485104 -0.37766242 0.023123007 0.11018415 0.005365009 0.044840507 0.009498209 -0.29853502 0.015345835 -0.052236672 0.011970427 -0.15979224 0.028972855 -0.11312574 0.36054948 0.28064588 -0.3932407 -0.30552936 0.28027758 -0.38619 -0.19357795 -0.11989056 0.4215911 -0.22901964 0.22123766 0.077223495 -0.06390034 -0.29668266 -0.05342592 0.062621094 0.2646127 -0.14483024 0.27256075 -0.25890633 -0.09428522 -0.29197702 -0.09171353 0.14612566 0.25723878 -0.074865505 0.15840138 0.22539797 -0.20665067 -0.09947884 -0.13354596 0.08517332 0.107911855 0.31230843 0.28795525 -0.21554613 0.27358454 -0.13651639 0.16621244 0.034798227
31 -0.18410169 -0.078782365 -0.09194833 -0.24203832 0.1492874 0.04404175 -0.2303321 -0.23895013 -0.050738562 -0.13386802 -0.10240062 -0.17990923 0.061503436 0.14193475 0.11559656 0.18239716 -0.086478025 -0.034229487 -0.15697968 -0.1676482 -0.082179576 0.13447833 0.047161665 0.053423062 0.148519 0.16715235 -0.11803753 -0.2231312 0.2419854 -0.11638964 -0.18335201 -0.19801979 0.23393412 0.17886719 0.19814198 -0.25720683 -0.012469563 -0.059818793 -0.19609144 -0.14080633 -0.0006065143 -0.30303064 -0.043808244 -0.09636384 -0.10130921 -0.14070222 -0.3539406 0.26204965 0.093377136 -0.16247645 0.22046077 0.22912247 -0.09803654 0.0008174436 -0.27246 -0.034925405 0.056652833 0.50311726 0.085390955 -0.026592702 0.46300387 -0.2803498 0.031088443 -0.19626679
8 0.07242763 -0.023702571 -0.16397002 -0.13500756 0.206905 0.33647576 -0.20950522 -0.15119554 0.05357101 -0.3506836 -0.21711177 -0.19207121 0.02685011 0.06578886 0.20402147 -0.011850716 -0.08613301 -0.26494607 -0.078650154 -0.10128267 0.03362168 -0.1573737 -0.097769186 -0.059675775 0.33923867 0.13514751 -0.38777366 -0.2961012 0.17105673 -0.29396138 -0.18950178 -0.15300073 0.37561777 -0.03284293 0.26284266 0.08011624 -0.040603045 -0.12949039 0.025513586 -0.1125126 0.15851662 -0.07516866 0.17466363 -0.19224563 -0.14338632 -0.3724003 -0.06391673 0.23398136 0.23417425 -0.24755017 0.2661403 0.12552088 -0.06854014 -0.12178628 -0.077148974 0.0065194587 0.1722061 0.21686205 0.2145035 -0.10239671 0.25468874 -0.24987297 0.24501169 -0.008029654
13 0.039596837 -0.0759098 -0.13847609 0.017162746 0.1846385 0.23886286 -0.30327064 -0.13121158 0.21032508 -0.24783945 -0.27147692 -0.3183777 0.019577168 0.109419465 0.038182355 0.06176692 -0.003786686 -0.2649104 -0.014466763 -0.09170381 0.0047062244 -0.11398561 0.021806445 -0.08632516 0.3362841 0.24221213 -0.35111168 -0.31409526 0.25258112 -0.32931888 -0.1916605 -0.15111662 0.37944 -0.16953886 0.22946903 0.023577327 -0.038137924 -0.2456195 -0.07567832 0.021960402 0.23167737 -0.1691816 0.22910544 -0.24820456 -0.08289228 -0.2856645 -0.09865032 0.18057498 0.22796273 -0.092598274 0.187275 0.21458055 -0.19517171 -0.08749376 -0.15111388 0.04749213 0.09071279 0.31524494 0.26016757 -0.19967525 0.2784725 -0.16001253 0.14011735 0.0098710405
23 -0.13669796 -0.04819513 -0.101758726 -0.31625074 0.17357446 0.13958746 -0.18493484 -0.2650318 -0.12920961 -0.23910384 -0.08446515 -0.13471359 0.08017181 0.103889294 0.21365848 0.092418514 -0.14282772 -0.04820272 -0.19489747 -0.17546865 -0.04577134 0.08146492 -0.06351103 0.057046514 0.18070723 0.10569335 -0.19799405 -0.22559358 0.16776212 -0.11233845 -0.19014207 -0.20245443 0.22470534 0.25731543 0.2557374 -0.1647376 -0.028844943 0.00919499 -0.122957595 -0.21970858 -0.058244962 -0.21830589 -0.058157258 -0.06022947 -0.108775444 -0.23922306 -0.3228998 0.2617448 0.1087519 -0.27248567 0.26601663 0.17840791 -0.025919622 -0.057879154 -0.19265808 -0.06485322 0.13806717 0.4252804 0.08384019 0.040490147 0.4300219 -0.36700153 0.11867764 -0.21356808
78 -0.27638578 -0.9516154 0.48374635 0.84264684 -0.29937145 -0.33541185 0.12836228 -0.20702137 0.26679727 -0.04768275 -0.38118967 -0.9144567 0.58971196 -0.009552325 -0.28704554 -0.62603486 -0.11414407 0.5669531 -0.3462809 -0.23599577 0.40940627 0.59053725 -0.120851204 0.26044914 0.18887542 0.514499 -0.77398163 0.111034274 -0.20055598 -0.26736376 -0.26983428 -0.4741674 -0.36508158 0.7084466 0.31565642 0.4625111 -0.81749445 0.19619964 -0.19138716 -0.8102658 -0.8383676 0.342566 0.17591701 0.6851406 0.12725937 -1.3611321 -1.2101686 -0.56807077 0.05707433 -0.59057564 -0.37845072 0.4923898 -0.28584823 -0.2314856 0.36429453 0.1329675 0.7709554 0.7401451 0.0032773763 0.7897145 0.5708096 -1.5384029 -0.20458975 -1.0744632
34 -0.2728131 -0.97672004 0.4896577 0.8521742 -0.29904318 -0.33274502 0.12278052 -0.211258 0.2692497 -0.04013149 -0.40257826 -0.9504973 0.6015273 -0.008640595 -0.28375602 -0.6473385 -0.107384264 0.5846329 -0.36648223 -0.2277582 0.42767218 0.60602885 -0.12504925 0.26900092 0.17745133 0.54279214 -0.79360825 0.11412427 -0.19857198 -0.2788347 -0.26609725 -0.4958904 -0.3702236 0.74420446 0.32403564 0.479766 -0.8370791 0.19318882 -0.1943166 -0.8293217 -0.8604992 0.34474537 0.15840268 0.7072757 0.13976187 -1.4023203 -1.2455422 -0.5819417 0.04721825 -0.60234714 -0.37869632 0.5003919 -0.29467282 -0.2326331 0.3691182 0.14787133 0.8033769 0.76937747 0.0021866115 0.81492305 0.60144496 -1.5791179 -0.20319784 -1.1114503
7 0.0012288383 -0.152671 -0.15841897 0.052805465 0.22322132 0.24888319 -0.2992981 -0.1522618 0.19978926 -0.20688741 -0.37838337 -0.3716175 0.0032699255 0.14343688 0.06908721 0.11035172 -0.017428719 -0.27072498 -0.017930888 -0.048631176 -0.0152712185 -0.10554331 0.05982415 -0.1020963 0.32945132 0.31352952 -0.3341548 -0.27801672 0.33907878 -0.37201858 -0.2316534 -0.09711094 0.47576264 -0.17077456 0.22409125 -0.0022309802 -0.03609563 -0.28987956 -0.04918434 0.042301353 0.26442236 -0.20434768 0.21370305 -0.24674718 -0.14495957 -0.25649333 -0.1498949 0.2084302 0.22026078 -0.07532813 0.18210791 0.24225521 -0.17938362 -0.058569506 -0.18362837 0.06576254 0.11060292 0.37577495 0.23951018 -0.19136158 0.3311625 -0.09596518 0.15636013 -0.012287246
29 -0.035044055 0.027529573 -0.14349149 -0.37730122 0.17960377 0.26509666 -0.13563001 -0.25522006 -0.17207111 -0.3812937 -0.04208546 -0.070273615 0.073949106 0.050323922 0.30889276 0.01854494 -0.1761298 -0.13940822 -0.18857819 -0.1516424 0.027624529 -0.015095458 -0.14878455 0.046839837 0.20741184 0.01837771 -0.29218656 -0.26464328 0.11479738 -0.121688776 -0.16666819 -0.21834144 0.25694847 0.23213895 0.28523073 -0.06726818 -0.03394397 0.053838346 -0.010190571 -0.29329503 -0.03664149 -0.111592576 -0.0016746912 -0.059723917 -0.14453709 -0.35798478 -0.17606182 0.2907942 0.17417893 -0.3630249 0.32643697 0.08565413 0.020238502 -0.11562017 -0.12483035 -0.08499955 0.18293138 0.29402658 0.117854245 0.047396027 0.35456738 -0.424533 0.23286803 -0.14236419
30 0.06579063 -0.03223135 -0.14716868 -0.1491826 0.19001782 0.3159299 -0.17927475 -0.15519254 0.020010587 -0.35271114 -0.18939416 -0.18677758 0.041506868 0.041648287 0.18775345 -0.046551477 -0.08434435 -0.22645098 -0.09526858 -0.10529481 0.03396605 -0.1338283 -0.10590783 -0.025585724 0.3103698 0.10283491 -0.37209576 -0.27292666 0.13120215 -0.25288716 -0.15975852 -0.16136843 0.2772132 0.017385991 0.24564908 0.087165646 -0.06800275 -0.07555651 0.02557877 -0.14548695 0.08707768 -0.054462522 0.13303936 -0.13100567 -0.109607406 -0.3635398 -0.077695794 0.1938021 0.20086858 -0.2575548 0.2416623 0.122367136 -0.053979486 -0.12775227 -0.07175712 0.008467343 0.16423401 0.20709836 0.17275849 -0.05462709 0.24559487 -0.2954579 0.21761985 -0.032087468
5 0.08882993 -0.080800615 0.12742534 0.3268753 -0.045571357 -0.013136673 -0.474756 0.017865665 0.6115544 -0.15859562 -0.003023083 -0.45030135 0.2029795 0.0733643 -0.42406288 -0.16286653 0.25678533 -0.097514585 0.101373136 -0.29252627 0.09721486 0.028091589 0.13342793 -0.058940385 0.2980188 0.19130786 -0.43106496 -0.36373514 -0.08428255 -0.23116508 0.033627048 -0.35646755 -0.07803812 -0.3347139 0.19727388 0.09530755 -0.116722815 -0.22360614 -0.33817804 0.080979094 0.07739917 -0.10802013 0.41581112 -0.24760927 0.24244316 -0.47862822 -0.1227714 -0.14432847 0.2626143 -0.0812983 -0.041585565 0.3265343 -0.5242166 -0.20211779 -0.061273772 0.10784199 -0.0021856406 0.3190034 0.40624866 -0.27502128 0.17313236 -0.5623759 -0.1262104 -0.06832281
6 0.0647255 -0.07871444 0.10476234 0.27565172 -0.021779258 0.0059877923 -0.47964028 -0.014546644 0.5675989 -0.16551052 -0.023814298 -0.4396858 0.17944813 0.084359735 -0.37600568 -0.11465234 0.2281619 -0.10669278 0.084329925 -0.28428954 0.06284215 0.04512109 0.13560279 -0.050430804 0.292233 0.21564811 -0.40445623 -0.35322812 -0.053333916 -0.23861231 0.013929377 -0.34996063 -0.037843753 -0.31153625 0.19485988 0.068745054 -0.10417003 -0.22310372 -0.33693716 0.07900093 0.09383332 -0.14918068 0.39062476 -0.25711313 0.21402666 -0.4691642 -0.14526042 -0.08193113 0.24836163 -0.071197785 -0.0063058683 0.3285835 -0.50773793 -0.17749804 -0.09029792 0.08914463 -0.002944693 0.33555382 0.40156993 -0.26640788 0.19720379 -0.54279107 -0.11509756 -0.08412302
27 -0.13647106 -0.07151124 -0.11750669 -0.24033593 0.17401043 0.13722649 -0.17270485 -0.23096675 -0.102067105 -0.21316071 -0.14718802 -0.16896708 0.04707042 0.114506036 0.19540618 0.10398576 -0.12759614 -0.065214865 -0.16499639 -0.14352272 -0.034016866 0.05798877 -0.02707717 0.034972563 0.17711201 0.1572233 -0.2027706 -0.2197508 0.20323154 -0.15413833 -0.20006847 -0.16400445 0.26953998 0.2093665 0.22393669 -0.15807594 -0.034785092 -0.040263798 -0.09969157 -0.19281013 0.0028806739 -0.2136595 -0.023881767 -0.059339512 -0.1292321 -0.22161992 -0.29620862 0.26343465 0.09139728 -0.22404817 0.23738816 0.16643307 -0.023761835 -0.03277655 -0.18579063 -0.04276528 0.14069766 0.40671906 0.07597187 0.032806918 0.40554982 -0.2839583 0.10223175 -0.19109102
24 -0.2772995 -0.12049026 -0.12084238 -0.34551066 0.18875088 0.049550083 -0.14824454 -0.31856936 -0.21903463 -0.15033337 -0.15959544 -0.16592793 0.06035094 0.15221573 0.25834504 0.19785148 -0.1921431 0.034403294 -0.24698254 -0.14056972 -0.09808961 0.18773142 -0.0021381786 0.08901716 0.1363428 0.18697363 -0.08907213 -0.18145828 0.29305562 -0.097441375 -0.25696254 -0.16787276 0.2885668 0.37080473 0.2250251 -0.28170186 -0.029855205 0.0059768343 -0.13945459 -0.24818665 -0.09891384 -0.31438696 -0.16633947 -0.008464534 -0.17659715 -0.14503942 -0.47364274 0.33123773 0.03330254 -0.23974007 0.25231525 0.21224819 0.029577972 0.03288839 -0.2822601 -0.048744198 0.13063146 0.5557253 -0.0018291783 0.11862854 0.54821956 -0.30269456 0.072640225 -0.30452442
10 0.044901814 -0.047245886 0.053835765 0.16790669 -0.0016712958 0.030119743 -0.3906136 -0.03269151 0.4342369 -0.16013803 -0.03172999 -0.3644479 0.14624286 0.07645801 -0.24581873 -0.0736994 0.15524237 -0.10822828 0.043166123 -0.23955818 0.057805374 0.020932028 0.09057581 -0.04977969 0.24435577 0.17477404 -0.3575617 -0.3065883 -0.01656052 -0.19631822 -0.02800744 -0.27759162 0.040215667 -0.23501445 0.19379374 0.035277896 -0.08339634 -0.18701601 -0.25052735 0.037086908 0.09021561 -0.12902416 0.31696942 -0.21671143 0.14244644 -0.38989583 -0.122578315 -0.034389805 0.234388 -0.079711184 0.03391096 0.27371794 -0.39674574 -0.14090635 -0.09463167 0.05712167 0.017966228 0.29945752 0.34001663 -0.21562818 0.19959682 -0.44113076 -0.043988943 -0.06756794
25 -0.32358864 -0.112804644 -0.06933994 -0.32130837 0.15501939 -0.03998707 -0.23658599 -0.3030345 -0.13917707 -0.07303951 -0.07631413 -0.1940996 0.0840658 0.17865707 0.14629199 0.24020308 -0.1313591 0.07198422 -0.21339738 -0.19918387 -0.13143413 0.26003045 0.08602767 0.106483094 0.09785825 0.20801309 -0.038363803 -0.20027876 0.26772648 -0.051928226 -0.22130819 -0.21053475 0.21769096 0.2980569 0.19336192 -0.3847097 -0.011260157 -0.025280619 -0.26477984 -0.18286206 -0.0821882 -0.39290938 -0.13827662 -0.059023514 -0.090028666 -0.09893223 -0.48839915 0.29762354 0.02349573 -0.1578102 0.20816912 0.26935408 -0.08324839 0.04656475 -0.33720425 -0.0498808 0.054571483 0.6131415 0.024286838 0.049898144 0.55894595 -0.3270434 -0.04139215 -0.30139402
28 -0.084125005 -0.060342774 -0.13721472 -0.203486 0.19268715 0.16203521 -0.21233468 -0.22919762 -0.016249416 -0.21325466 -0.1655047 -0.19878481 0.03400544 0.109823935 0.1772683 0.12963134 -0.110808864 -0.14687991 -0.12338857 -0.124253035 -0.028074816 0.00039118377 -0.0044706184 0.010333764 0.200483 0.17454083 -0.22079791 -0.2370459 0.23088314 -0.1990451 -0.20088013 -0.17348453 0.32294205 0.089371115 0.20297725 -0.13240275 -0.011922058 -0.07355385 -0.09862307 -0.12914962 0.07726994 -0.22414722 0.038691204 -0.13024221 -0.13305813 -0.23619866 -0.22318079 0.27383354 0.14344934 -0.18396275 0.23567873 0.1793742 -0.0742034 -0.032428443 -0.20698464 -0.031517584 0.09807985 0.3842089 0.1329661 -0.048283573 0.37482566 -0.25432152 0.12921414 -0.11520425
4 0.030912276 -0.07588103 0.06656019 0.20013818 0.00097521394 0.017715394 -0.39224768 -0.040712208 0.44703472 -0.1455333 -0.044545777 -0.3813894 0.14615306 0.0963321 -0.28267488 -0.069301784 0.16134647 -0.099319115 0.042252652 -0.2361997 0.0563329 0.026119938 0.11495873 -0.05414472 0.24975727 0.18981917 -0.33891195 -0.3144642 0.016020054 -0.19775034 -0.023777999 -0.2783048 0.022819363 -0.23852222 0.19265628 0.00970359 -0.089170046 -0.19928496 -0.27935758 0.06506961 0.094241604 -0.15250619 0.31331405 -0.21447115 0.14979304 -0.36876747 -0.15495022 -0.04468272 0.2268183 -0.066558026 0.011299727 0.28499967 -0.42409253 -0.13734402 -0.10951175 0.06471644 0.012122774 0.32490197 0.34413654 -0.21841417 0.21528183 -0.43600956 -0.08081067 -0.078170456
19 0.04171673 -0.060482785 -0.09892763 -0.033151634 0.13751255 0.21211436 -0.2645768 -0.12251524 0.17564543 -0.24644288 -0.17980795 -0.2664771 0.06477961 0.07339115 0.018908342 0.0012657503 -0.009218164 -0.19023353 -0.03856153 -0.13142581 0.0038514386 -0.081705175 -0.010387743 -0.04871879 0.306103 0.17412941 -0.3393143 -0.28650826 0.15865998 -0.2665097 -0.14289872 -0.1857974 0.2612901 -0.092174836 0.19818287 0.03225318 -0.05548367 -0.16201712 -0.10418886 -0.032983933 0.13252182 -0.14058858 0.17070904 -0.18531246 -0.044037897 -0.30507872 -0.11233346 0.1341082 0.20380828 -0.13730295 0.17441806 0.18737833 -0.1532949 -0.0892277 -0.12558 0.036158156 0.08509432 0.27528888 0.22384019 -0.13510792 0.2573864 -0.25833577 0.1145587 -0.030180566
20 -0.06824839 -0.009651722 -0.14636543 -0.38677657 0.22193995 0.26574445 -0.12120275 -0.28526437 -0.21013859 -0.35694224 -0.09646416 -0.07601482 0.06452509 0.07865154 0.34687346 0.032425355 -0.18823464 -0.11364475 -0.21982054 -0.15641606 -0.0042003016 0.009138149 -0.15845159 0.054832675 0.22179389 0.05140206 -0.28472045 -0.2406833 0.1344943 -0.14797486 -0.20834443 -0.19417733 0.2733079 0.28950408 0.28100237 -0.068135306 -0.04880826 0.05795058 -0.014890566 -0.30091912 -0.041154582 -0.129866 -0.04919744 -0.046697035 -0.17123276 -0.3499305 -0.25548908 0.31798732 0.13333662 -0.3677811 0.31964183 0.10696131 0.050156638 -0.09633136 -0.1212939 -0.08598891 0.20078309 0.33547387 0.069531634 0.08440492 0.37913796 -0.3883174 0.2211279 -0.17923047
17 0.10025455 -0.09542682 -0.05822987 0.16127384 0.11283241 0.19685094 -0.35846364 -0.047128793 0.37863526 -0.22567321 -0.23289771 -0.39022288 0.06402538 0.09249554 -0.13698618 -0.02597641 0.08840442 -0.24485834 0.046459638 -0.1331788 0.038644128 -0.13080995 0.072413705 -0.10175407 0.36611244 0.23958933 -0.40885353 -0.3343665 0.15918538 -0.34476274 -0.11270855 -0.19439952 0.2634634 -0.275086 0.20480478 0.099780135 -0.08301072 -0.2696946 -0.14775299 0.08707565 0.21925128 -0.1314036 0.32130685 -0.26353747 0.024924764 -0.3557601 -0.060745735 0.048385866 0.25993228 -0.07616179 0.09814383 0.2513105 -0.29506856 -0.12867865 -0.11943244 0.091578506 0.056436714 0.26870885 0.32462725 -0.24824533 0.21062142 -0.26155633 0.074569225 0.024276707
22 0.034489904 -0.020278476 -0.15809253 -0.31925747 0.21915412 0.34920704 -0.0861326 -0.24332388 -0.18203565 -0.39455405 -0.14415443 -0.07157428 0.051705386 0.034618583 0.3612723 -0.033302393 -0.18366565 -0.17819586 -0.16740552 -0.11102801 0.025446102 -0.082330406 -0.21094301 0.015792081 0.25959492 0.04703829 -0.3306053 -0.21862921 0.10679022 -0.19245164 -0.20034517 -0.15126811 0.29149315 0.20783895 0.25603318 0.06139321 -0.060422912 0.051315505 0.07578105 -0.28699023 -0.010266946 -0.035583463 0.010876058 -0.052642025 -0.1922357 -0.39332303 -0.14664356 0.27483603 0.15564765 -0.366029 0.2965927 0.051561676 0.075674534 -0.105062775 -0.037514955 -0.06100459 0.22790821 0.21427187 0.078375496 0.072901405 0.28639477 -0.3453335 0.26312634 -0.111237615
18 -0.027537024 0.002599426 -0.1324247 -0.3651142 0.20243092 0.2762888 -0.08118884 -0.26678932 -0.2007119 -0.35612625 -0.08064139 -0.049499806 0.07423443 0.048277818 0.334128 -0.012726234 -0.189174 -0.10521419 -0.20612167 -0.12836348 0.009038502 -0.011183503 -0.17739797 0.04168724 0.22300592 0.030894311 -0.28662124 -0.23109916 0.10836501 -0.1446197 -0.19654533 -0.20447475 0.23476635 0.29185325 0.27782726 -0.021487508 -0.05721854 0.07007871 0.013281143 -0.31561324 -0.05786632 -0.071064144 -0.044260237 -0.02357149 -0.16408049 -0.3647335 -0.21275884 0.27484813 0.12880331 -0.36138052 0.31583688 0.06394848 0.07305226 -0.104427874 -0.08258198 -0.07056922 0.21573055 0.2706829 0.06692512 0.10350756 0.34384766 -0.39853966 0.2224734 -0.16635136
12 0.07191456 -0.11597956 -0.053399637 0.19473433 0.10078242 0.16009119 -0.36146766 -0.053460043 0.41167447 -0.1993723 -0.23728651 -0.40972126 0.07384877 0.098542236 -0.16220407 -0.0068415185 0.11305027 -0.22888485 0.060135704 -0.11850096 0.03808798 -0.09202575 0.09272882 -0.10030006 0.34040013 0.25913462 -0.387236 -0.32230908 0.16814776 -0.34991157 -0.12177649 -0.19360071 0.26847157 -0.29727435 0.19543082 0.081600204 -0.06868689 -0.2807437 -0.16056304 0.093015835 0.22504666 -0.145393 0.32114142 -0.26947585 0.011066911 -0.34177563 -0.09259999 0.035242233 0.26507717 -0.03694531 0.074493505 0.26218718 -0.33539513 -0.12897456 -0.13413696 0.11041589 0.056120045 0.33290672 0.33493963 -0.25774097 0.24239706 -0.24520169 0.05799936 0.013734657
9 0.006771383 -0.05098377 -0.12515832 -0.15230544 0.16962554 0.23637441 -0.19026585 -0.17873518 -0.004805285 -0.28178838 -0.16003828 -0.16924526 0.052795827 0.06677816 0.16816063 0.026316421 -0.08538663 -0.1797087 -0.10273135 -0.120966084 0.017760813 -0.049593903 -0.07936607 -0.014106928 0.25077552 0.12847257 -0.30266383 -0.24469143 0.1574347 -0.21982236 -0.17768925 -0.17290552 0.27488586 0.06193033 0.23236716 -0.002277444 -0.03936844 -0.07733781 -0.030978167 -0.14996691 0.06659233 -0.10767479 0.0871757 -0.11399065 -0.11735391 -0.31373954 -0.14751281 0.21123128 0.17731139 -0.21643679 0.22959493 0.12517193 -0.069723584 -0.0997151 -0.11017841 -0.018997455 0.14623344 0.2745041 0.14857686 -0.035904486 0.28037286 -0.27656168 0.17623149 -0.08276168
14 -0.03666174 -0.03613276 -0.15096346 -0.30729488 0.2107813 0.251015 -0.14631052 -0.24708039 -0.14071462 -0.30764717 -0.13669385 -0.10509256 0.055446565 0.06747326 0.28077823 0.030766986 -0.14978531 -0.124367505 -0.16468135 -0.11764885 -0.021230934 -0.0076491674 -0.12740678 0.033806413 0.22983114 0.07830656 -0.2549017 -0.22983418 0.14614041 -0.16094492 -0.1820477 -0.16771747 0.2706643 0.20299822 0.2425766 -0.043155104 -0.03621192 0.008717377 -0.010831161 -0.23943746 0.0045509553 -0.13145408 -0.011897329 -0.07444038 -0.16348006 -0.30009377 -0.22343683 0.28557566 0.14069475 -0.29477394 0.2924737 0.11780604 0.022078894 -0.07540915 -0.124107525 -0.042772725 0.17443225 0.30556214 0.08690196 0.02964602 0.35350862 -0.32650217 0.19245768 -0.13597634
26 -0.017105348 0.012231844 -0.15737224 -0.37790212 0.17952923 0.27858186 -0.07423979 -0.25775746 -0.20694122 -0.39186263 -0.08049992 -0.062101673 0.08067309 0.022451784 0.34178978 -0.011280091 -0.2125593 -0.13344651 -0.22129224 -0.12156027 0.0531153 -0.044850457 -0.17139736 0.047329184 0.20602109 0.011464302 -0.3277765 -0.23339932 0.12383609 -0.13082652 -0.1915142 -0.20039256 0.26590157 0.29939732 0.29331118 -0.029235516 -0.04848767 0.084488325 0.037007943 -0.33367294 -0.0617314 -0.08060327 -0.018190734 -0.016564593 -0.16198355 -0.37293136 -0.1762197 0.29594597 0.16240259 -0.38379958 0.3400035 0.063016966 0.0732165 -0.12488918 -0.08775697 -0.087334074 0.23207581 0.27326778 0.08997394 0.09503873 0.3468041 -0.41869408 0.26851782 -0.13918106
15 -0.02000665 0.0048151882 -0.14707875 -0.34722424 0.21397884 0.29151613 -0.09386586 -0.24266857 -0.17528284 -0.3659754 -0.09388417 -0.06332771 0.065122545 0.053143352 0.3236754 -0.023105986 -0.18381542 -0.12375537 -0.18712278 -0.14583817 0.013642724 -0.039948776 -0.16985674 0.040216535 0.23569559 0.029296625 -0.30465105 -0.22767664 0.10149618 -0.16429663 -0.18774931 -0.18319255 0.22966349 0.25463068 0.27372286 -0.0029222416 -0.05544417 0.06975008 0.025762089 -0.29578844 -0.041591324 -0.06982411 -0.01941468 -0.047946602 -0.16645071 -0.36958742 -0.19570863 0.27387968 0.14635818 -0.37233052 0.2966661 0.07504625 0.065478794 -0.116877474 -0.07043152 -0.07232793 0.2142408 0.25545233 0.07958944 0.0744704 0.32140946 -0.3890614 0.2256953 -0.13991822
16 0.05949775 -0.035798937 0.17773327 0.27803198 -0.08788285 -0.083166026 -0.531269 0.016816242 0.6125896 -0.14282006 0.12997465 -0.40474954 0.23054029 0.07630442 -0.47607186 -0.1729458 0.28362867 -0.02591548 0.08595432 -0.39315188 0.06787453 0.118276924 0.16106258 -0.017774338 0.27000663 0.15718293 -0.3994998 -0.37670898 -0.18366058 -0.1588651 0.09913976 -0.4325076 -0.21431327 -0.28725612 0.21301349 0.03216524 -0.11375728 -0.17923532 -0.4430176 0.05042981 0.0209097 -0.13839889 0.40668175 -0.2357285 0.31343743 -0.50320315 -0.16938803 -0.13189562 0.23446389 -0.11628065 -0.042229675 0.35478362 -0.58652294 -0.21176891 -0.096191406 0.06635893 -0.038725425 0.33614248 0.43549365 -0.28159472 0.18566768 -0.69594 -0.20346001 -0.13700812
21 0.05378236 -0.14491403 -0.05475297 0.19187562 0.09827911 0.1609011 -0.33476382 -0.069200546 0.36183348 -0.18795507 -0.259786 -0.41790372 0.063578404 0.0947836 -0.13537027 -0.005519457 0.08441125 -0.21598965 0.03433916 -0.118699275 0.033951487 -0.088294275 0.080019 -0.089100994 0.34001395 0.27005205 -0.38879025 -0.29541907 0.18441221 -0.33410704 -0.13229704 -0.1756669 0.26780322 -0.26049516 0.1955975 0.092324324 -0.0995714 -0.268563 -0.13887167 0.071206085 0.18515798 -0.14763589 0.29241836 -0.22065772 0.01890018 -0.33376697 -0.117559806 0.044188507 0.23276235 -0.04228409 0.08034244 0.26701495 -0.28991404 -0.09635597 -0.12446524 0.1016265 0.07487688 0.30933982 0.29662052 -0.21546419 0.2433808 -0.23438415 0.048733838 -0.025644744
11 0.03967349 -0.106835335 -0.014290628 0.16850232 0.07630814 0.105077595 -0.32600513 -0.052300364 0.3500852 -0.16765112 -0.19134653 -0.37050334 0.08524584 0.087900616 -0.14590487 -0.020772198 0.089153096 -0.1767169 0.021681469 -0.15664394 0.039696738 -0.04796137 0.07224971 -0.0666063 0.28604305 0.22789352 -0.35260734 -0.2843106 0.121211246 -0.28783605 -0.105727345 -0.20763959 0.2046763 -0.21284872 0.18685716 0.05857265 -0.0913977 -0.2324329 -0.18173319 0.046385873 0.16260451 -0.14803329 0.28697604 -0.21890485 0.039484672 -0.35180306 -0.14933555 0.029758403 0.22727603 -0.076761186 0.075391404 0.25753683 -0.31539577 -0.106183425 -0.11239746 0.08552314 0.065043464 0.3244431 0.2966503 -0.19193554 0.24693063 -0.30725065 0.031611416 -0.04395601
