4039 64
3437 -0.77110595 0.40176648 -0.16120526 -0.33013228 -0.35517842 -0.39263475 -0.5725106 0.20126337 -0.044065543 -0.19117089 -0.5864625 0.03849214 -0.8702914 0.27143145 -0.16039036 0.1372915 -0.048565164 -0.5097194 -0.21169049 0.17540106 0.52175796 0.4103747 -0.047074873 -0.084849305 0.7943199 -0.14213146 -0.27956057 0.1591854 0.49716148 -0.18747456 -0.3116246 0.3901027 0.17046441 0.0058573456 0.23134948 -0.36749375 0.011483218 0.5281915 0.3191887 0.02534582 0.32411143 0.6693752 -0.18457459 0.7690482 0.39736083 -0.15674043 0.60846144 -0.654589 -0.16927955 -0.24645187 -0.69607484 -0.07599716 -0.45159864 0.11802301 1.0856315 0.38647053 -0.22993961 -0.5047416 -0.75138026 0.37362173 0.5041522 0.35933584 -0.04642131 0.8967629
107 -0.43186346 0.42876166 -0.3520409 -0.05141146 0.15023501 0.1758251 0.8303143 -0.7011086 0.04039055 -0.0516996 0.03698133 0.013400054 -0.5133071 0.5028502 -0.23357204 0.001277509 -0.052791063 0.6087901 -0.6880445 -0.30896637 -0.08222366 -0.60583794 0.25327733 0.32271197 0.3417643 0.046182245 -0.26441666 -0.000336821 0.35300958 -0.6109745 -0.15812358 -0.24142782 -0.4025028 0.20772244 0.25067264 -0.097653545 -0.090710685 0.36446315 0.3603352 -0.17366678 0.32366297 -0.58930606 -0.119215004 0.43745267 0.043330815 -0.018487124 -0.12603326 0.057038657 0.11966086 -0.2687338 -0.45557806 -0.28228524 -0.40372005 -0.8002394 0.08715142 -0.2433331 -0.45137423 -0.22350402 -0.33113745 -0.083875276 -0.25499043 -0.13651901 -0.0057224566 0.22936307
1684 0.026877206 0.6180093 -0.20937239 -0.8443881 0.12433473 0.37307727 -0.0025874253 -0.4947238 -0.15064014 0.36748827 -0.64685696 0.22338322 -0.21815689 0.032334264 0.09691134 0.14898352 0.24335751 -0.10341865 0.14130062 -0.301863 -0.5714016 0.1046096 0.50921917 0.20012514 -0.043401502 0.12325108 -0.20741577 -0.7519818 0.39793393 -0.3594821 0.3464576 -0.34389758 -0.2095671 -0.017981896 0.2793464 -0.040438022 -0.35626614 -0.19203123 0.079479605 -0.10388422 0.19414201 0.45671114 -0.5107514 0.8586509 -0.6281228 0.12448989 -0.11008001 -0.19596498 -1.277701 -0.037245113 -0.36999673 -0.056994997 -0.6553496 0.41730973 0.054318015 0.514823 -0.09836762 -0.46473595 -0.4903687 -0.14623365 -0.38017994 -0.23624608 -0.5467137 0.6051354
0 -0.12844957 -0.08313225 -0.4516052 -0.001716561 0.35506096 -0.17322186 0.3692486 -0.18714659 -0.46174836 -0.7060466 -0.62690586 -0.38857737 -0.7597095 -0.40410048 -0.8159698 0.4638634 1.1946238 0.5102253 -0.41017675 -0.07549936 -0.13708003 0.26937726 0.8347808 -0.17642474 -0.13872008 0.7122467 -0.43759325 -0.46737212 0.0003415826 -0.00071465626 0.6238915 0.46958917 -0.23448555 -0.5777342 0.084011436 -0.66110355 0.21669121 0.0075309305 0.3249099 -0.470877 -0.4690674 0.033625785 0.56244475 0.4526924 0.16276874 -0.22514826 0.09643015 -0.82162035 -0.7786761 -0.22948621 -0.5664025 -0.11508852 -0.8889102 -0.06587263 0.57433283 0.008574644 -0.5455313 -0.30984658 -0.19931097 -0.3738433 0.24328311 0.39562228 -0.23485173 0.4152532
1912 -0.583349 -0.560566 0.36370948 0.15089063 0.19574569 -0.13265198 0.00699265 0.6566096 -0.446159 -0.32134038 -0.085368134 0.11232345 -0.0055110794 -0.2432745 -0.54470176 0.06469765 -0.17064528 0.13770601 -0.38353038 0.16111138 -0.0070588402 0.42603058 0.5919005 0.32338414 0.7755853 1.4574275 -0.10481925 0.034711346 0.48285392 -0.21149363 0.23696214 -0.107171394 0.032973364 0.06716174 0.14598364 -0.23587172 0.30154926 -0.025761934 -0.04453585 0.5316276 -0.2724615 0.07073106 -0.18502496 0.50836504 -0.7732485 0.028014738 -0.47846404 0.12101092 -0.2691118 -0.56565005 0.047939654 0.51653063 -0.8071317 -0.14831933 0.75733614 -0.34910992 -0.15409458 -0.6700209 -0.4101413 0.30557185 -0.037190955 0.4481359 -0.634983 0.0717206
686 -0.6284428 -0.38187525 -1.0869634 -0.27696323 0.05332569 -0.6355552 -0.91535115 0.27554485 -1.026627 0.44401646 -0.15565023 -0.022504624 -0.6342316 0.40916947 0.10796453 -0.1919709 0.7735134 0.05415586 -0.092089444 -0.25728226 0.19497795 0.40622243 0.16417342 0.39425412 0.33270234 0.5060372 -0.78223735 -0.59052634 0.8058202 -0.57734007 -0.30457893 -0.10303653 -0.20775507 -0.19750237 0.77502126 -0.47775856 -0.04162117 0.043400336 0.33614007 0.16029355 -0.785337 0.41928506 0.18652113 0.10337011 0.57075816 -0.08255123 -0.089302465 0.30601615 -0.60844004 0.31353438 -0.5359002 -0.17130592 -1.168688 0.18156755 -0.0413807 -0.31415737 0.04225552 -0.70861465 -1.2716459 0.028392136 -0.36343378 0.85735404 0.7159717 0.104600735
3980 -0.40076977 0.96343493 -0.22728868 0.20585035 -0.7577303 -0.028567566 -0.17780784 0.611466 0.69676805 0.3257108 -0.11522055 -0.48653728 -0.80986184 0.802649 -0.7700218 0.019702539 0.4633173 0.7154822 -0.22406098 0.28126025 0.09714496 0.5272564 0.70387506 -0.4870623 0.029296873 0.79800737 -0.80405396 -0.7689589 1.0268021 -0.388596 -0.14758906 0.1052141 -0.11564471 0.63154954 0.5455772 0.024083065 0.21634096 -0.23210762 -0.013979126 0.6404924 -0.7275191 -0.7384189 -0.22016001 -0.061303753 -0.61802703 0.8033936 0.06324079 -0.4104523 -0.48629418 0.108648494 -0.9442255 -0.4160962 -0.9490553 -0.053442102 1.1475061 0.11767139 0.12180823 -0.24917841 -1.3945751 -0.2023104 0.55650216 0.19909915 0.009076592 0.8605165
348 -0.4577363 0.15095955 -1.0487831 -0.5618862 -0.5241277 -0.2513072 0.8034651 0.22197574 0.09146823 -0.40254316 0.8409917 -0.83618057 -0.70158124 -0.13520774 -0.69328797 -0.60220224 0.659811 0.11349819 -0.42519873 -0.2041992 -0.19215535 -0.33413428 0.41368625 0.108275004 0.6574563 0.05468452 -0.29538673 -0.33092803 0.66821444 0.19879597 0.38394392 -0.20867057 -0.57863265 -0.07147918 0.538739 -0.64025503 -0.21214792 -0.06436209 0.4783274 0.31858376 0.055482507 -0.11831222 0.30726197 -0.0047362647 0.076741494 -0.07995698 0.31826055 -0.19198745 -0.18937846 -0.5784249 -0.13579224 0.22613923 -0.5668917 0.4141766 0.8755283 0.080689706 -0.5298804 -0.6848516 0.103932254 0.2835423 -0.46911597 -0.05265613 -0.16731595 0.35856387
483 -0.49628812 0.06320869 -0.27526262 -0.50328374 -0.28247312 -0.06553805 0.97421515 -0.117767505 -0.06906708 -0.1877375 0.86293674 -0.18588965 -0.4803506 0.035504498 -0.42710277 -0.48229253 0.54760003 0.11315657 -0.36579648 -0.1106264 -0.268993 -0.20093599 0.37652186 0.43194255 0.7778077 -0.02432362 -0.80226064 0.01752946 0.65714353 0.0982724 -0.13774472 -0.5807769 0.02857803 0.15612055 -0.42114344 -0.51257306 0.042592797 0.19421549 1.1123337 0.14014843 0.14969467 -0.43410012 -0.39243525 0.06549424 0.30571884 0.15298939 -0.108540386 -0.14763395 -0.18973035 -0.48514047 -0.76711744 -0.4088033 -0.44104853 -0.18933555 0.2770465 -0.20783171 -0.43565437 -0.5216948 -0.546784 0.10824553 -0.5021667 -0.24974866 -0.03136465 0.28024215
3830 -1.007117 0.48032552 -0.48509178 -0.30158335 -0.392849 -0.39624724 -0.54247206 0.013221046 -0.055319693 -0.56213593 -0.69104147 0.26924992 -0.8977529 -0.036384385 -0.24387541 0.10716578 -0.1858256 -0.5516004 -0.6752007 -0.23135126 0.41443503 0.66241515 -0.20622487 -0.25276002 0.35517657 0.07963761 -0.02896325 -0.072800554 -0.0076476517 -0.22037388 -0.1765071 0.3963883 0.39533204 0.64722437 0.43413043 -0.24453753 -0.21988828 0.5072574 0.042652585 -0.19809198 0.4289008 0.81496334 0.023852602 0.6871655 -0.024125984 -0.3004743 0.56552106 -0.6425233 -0.2634189 -0.48852035 -0.7940839 0.58864564 -0.879586 -0.67879224 0.909413 -0.0748476 -0.25280684 -0.040434297 -0.7474606 0.17478624 -0.18201053 -0.34131107 -0.4177791 0.8985018
414 -0.37083888 0.006399551 -0.75535727 -0.3940627 -0.73941904 0.057930805 -0.092583194 -0.22000146 0.26186284 -0.6258123 0.49210843 -0.5793897 -0.52919275 -0.31086037 -0.3603139 -0.44987506 0.5282181 0.7227499 -0.13794683 0.5315855 -0.106214285 -0.1765506 0.30260953 0.09660885 0.7117248 0.40856862 -0.65859586 -0.37199292 0.7469658 0.41137555 0.35538936 0.24917446 -0.61746 0.63367444 0.3400057 -0.2314632 -0.48453224 0.1305743 0.56355953 0.81105447 -0.22544008 -0.58089095 0.005122805 -0.09243088 0.012663219 0.42044434 -0.1317475 -0.6402443 -0.47298282 -0.5333835 -0.51545024 -0.38671136 -0.46123233 -0.06261952 0.41082692 0.30193618 -0.30183375 -0.6582876 -0.24939485 0.13076663 -0.42880943 0.17584512 0.21819057 0.61771774
1888 -0.19456287 0.6851177 -0.21081537 -0.25464997 0.21436447 -0.17651184 0.4878005 -0.50621223 -0.12591712 -0.05711668 -0.11038708 0.3485815 -0.5093683 -0.0010052597 -0.14186972 0.28046122 0.62168586 0.3602864 -0.40814525 0.15809557 0.018074278 -0.41971493 0.48253232 0.7493276 0.36844984 0.522232 -0.42831436 0.030832347 0.20473365 -1.16088 0.0013543414 -0.25598666 -0.23173255 0.105188996 0.7417957 0.16269906 -0.08769561 0.20818888 -0.046622317 0.3091104 0.21115069 -0.46923196 -0.09788636 0.39347276 0.21359602 0.045493137 0.6152475 -0.040155455 0.24613413 0.12929924 -0.6760652 -0.26247108 -0.37882057 -0.15660524 0.16019715 -0.5049504 -0.06781524 -0.18105496 -0.72788715 0.23698393 -0.11303651 -0.08074325 -0.1678542 0.46789363
1800 -0.17583792 0.40859044 -0.104015104 -0.23380071 -0.03612225 -0.119368345 0.6801494 -0.39093018 -0.30785564 -0.12878183 -0.020360066 0.317693 -0.462004 -0.13371146 -0.1275572 0.04626258 0.6530829 0.2980853 -0.33565995 0.13095033 -0.12209068 -0.30059788 0.505086 0.8822001 0.27093828 0.5756835 -0.43324643 -0.026692841 0.43350992 -1.0150542 -0.0032509274 -0.42965382 -0.24760428 0.30346206 0.74654293 0.08237527 -0.24595684 0.07608853 0.11104893 0.3193167 0.27608943 -0.3597472 -0.32805473 0.37391633 0.45464572 -0.097516105 0.54787755 0.021807447 0.43464458 -0.023814302 -0.7730326 -0.36161408 -0.4453772 -0.07017623 0.0834601 -0.5184699 -0.23720545 -0.26593092 -0.4236871 0.085176565 -0.13618799 -0.04326435 -0.14889026 0.39953542
1663 -0.010654554 0.34064102 -0.047894005 -0.2906222 0.053359855 -0.18734138 0.69993746 -0.52400666 -0.23914441 0.0661084 -0.046706524 0.5586993 -0.4830053 0.15791255 0.08663966 0.1798273 0.5350261 0.34866938 -0.34455767 0.1783023 -0.17743443 -0.29196998 0.50622976 0.7390513 0.32198787 0.5981878 -0.3595601 0.09119837 0.34395394 -0.9287234 -0.019124838 -0.5153422 -0.28413895 0.28830042 0.704044 -0.04160745 0.05361621 0.17057787 -0.030977782 0.17136101 0.2957763 -0.32581618 -0.08909372 0.40973037 0.12709163 -0.007563068 0.7317523 0.14042507 0.12659079 0.06523933 -0.71777034 -0.19119152 -0.5404878 -0.23674685 0.25820348 -0.4848887 -0.030529147 -0.13001311 -0.5064318 0.36474684 -0.06782505 0.0915622 -0.11181022 0.59245133
3596 -0.73479104 0.2998307 -0.48915195 -0.44811642 -0.41700602 -0.18324427 -0.63101226 0.13653195 0.35273576 -0.32460102 -0.8041693 -0.023659023 -1.1999005 0.046862535 -0.023069814 0.2166094 -0.41336107 -0.40934414 -0.8662124 -0.28323072 0.014715256 0.4863062 0.1966788 0.24184076 0.58445174 0.20876601 -0.07533584 -0.26195967 0.23723967 0.12804964 -0.20186338 0.4594618 0.48523405 0.13378803 0.16075528 -0.33257863 -0.11808168 0.23481458 -0.07053135 -0.12954694 0.3289746 0.41095948 -0.23120248 0.7209692 0.38018113 -0.3553449 0.68518513 -0.42466384 0.19330819 -0.3682728 -1.2428675 -0.028261077 -0.8194776 -0.33307806 0.7979634 -0.12910756 0.07275912 -0.31975913 -0.6833055 0.09369282 0.21630067 -0.3505454 -0.13862492 0.91324013
1352 -0.1528053 0.43203923 -0.16600412 -0.16637284 0.15162234 -0.079963855 0.53992575 -0.5809946 -0.194498 0.0658326 -0.07390496 0.47987214 -0.5724018 0.12553918 -0.20626733 -0.008972985 0.5469299 0.36042762 -0.30815813 0.3111776 -0.08944517 -0.27978098 0.35590318 0.6485623 0.35276785 0.69770265 -0.45402667 -0.0045566526 0.46324265 -0.82473975 -0.06371473 -0.47365654 -0.39300647 0.12227263 0.720353 0.35744447 -0.23707359 0.15946235 0.16252746 0.07953961 0.057665784 -0.49174985 -0.207863 0.3843838 0.29657155 0.09477492 0.7283643 0.062988065 0.27235496 -0.057399385 -0.69552565 -0.16313232 -0.42345968 -0.14082025 0.16399607 -0.63460463 -0.18530753 -0.06631455 -0.4665627 0.25251743 -0.08669427 0.0072765765 -0.30365822 0.51934034
3938 -0.79609096 0.35007638 -0.47991788 -0.48375008 -0.26979667 -0.18041527 -0.7624115 0.30372798 0.00023683913 -0.19649808 -0.77121097 0.14437935 -1.225035 -0.047865003 0.12739007 -0.010337103 -0.068372965 -0.34454215 -1.0146781 -0.49506325 0.051395297 0.49262828 0.039276674 0.23901212 0.4327668 0.32692412 -0.19281015 -0.257969 0.24527013 0.21425323 -0.14776248 0.4755892 0.46020973 0.1855222 0.3106402 -0.4016462 -0.00028437664 0.26100102 -0.13508032 -0.14972782 0.28943044 0.5866907 -0.18042108 0.3708716 0.23510979 -0.5846264 0.7678451 -0.49687704 0.11983301 -0.48720765 -1.0946186 -0.034186173 -0.90801823 -0.40529174 0.59278536 -0.1287328 -0.10225652 -0.19115521 -0.72348964 0.10389487 0.31553572 -0.2787912 -0.027951133 0.8379289
56 -0.32770935 0.21182905 -0.40525338 0.48166907 -0.080597736 0.106052876 -0.56971467 -0.13805857 -0.76475495 -0.6785524 -0.46102703 -0.27713037 -0.7300682 -0.1306415 -0.6113696 0.44618106 0.68112195 0.48617366 -0.29797688 -0.474864 0.15169047 0.03458544 0.75226885 -0.25261945 -0.17260423 0.6739577 -0.4897132 -0.5365326 -0.10558936 -0.19511448 0.2583703 0.27590817 -0.62386066 -0.33200762 -0.20052907 -0.8144011 0.4550153 -0.0876909 -0.17514563 -0.5481975 -0.6059615 -0.2223906 0.53021044 0.56623805 0.21963154 0.0025543494 -0.09016767 -0.43536258 -0.5913155 -0.46846744 -0.52428824 -0.3943388 -1.0649656 -0.4044821 0.7153763 -0.0016365729 -0.6349289 -0.97601706 -0.51046115 -0.48503333 0.30295488 0.19822843 -0.23087142 0.6316728
1431 -0.40342662 0.38727912 -0.315567 -0.0019255572 0.19196202 0.11989195 0.630099 -0.64331037 -0.23484457 0.0522525 -0.2043688 0.5379317 -0.597591 0.10977176 -0.30672127 0.15372962 0.68603367 0.45967534 -0.29485846 -0.074150495 0.26513904 -0.37976933 0.54279536 0.7068842 0.16136296 0.500439 -0.5864407 0.15645625 0.5912982 -1.141895 0.13290907 -0.16069195 -0.40179193 0.16977791 0.58862394 0.09593201 0.010701886 0.040815447 0.053694073 0.23358817 0.32019717 -0.60741836 -0.16768506 0.13270484 0.38415155 0.024808057 0.91839015 0.15940098 0.046950243 0.11636115 -0.90427786 -0.24204361 -0.039394494 0.13813993 0.3771998 -0.31093118 0.11910596 0.0109918285 -0.49612278 -0.03501916 0.010513808 0.06885078 -0.35524508 0.6390093
3545 -0.8061014 0.43343747 -0.51039296 -0.5086116 -0.15291086 -0.18615589 -0.7053102 0.228696 0.23136808 -0.34230787 -0.7928958 -0.050548594 -1.3463573 -0.030219235 0.14251503 0.10231534 -0.35838032 -0.35761237 -0.76934034 -0.5016186 0.006450209 0.27900052 0.12887157 0.18740878 0.5752722 0.37667772 0.01116991 -0.2971637 0.2863575 0.16154473 -0.18885031 0.56755275 0.39712468 0.27216724 0.27390242 -0.2969529 -0.011747211 -0.024758514 0.08756952 -0.23438853 0.36803687 0.49908343 0.02371692 0.5346564 0.25365254 -0.22977056 0.7891315 -0.76254785 0.30923444 -0.59979475 -0.8603058 0.11498991 -0.9469961 -0.16937333 0.642281 -0.10823679 -0.26656565 -0.19678108 -0.6679801 0.14330891 0.48547596 -0.1687075 -0.1376268 0.79670525
828 -0.62483215 -0.2058899 -0.97329646 -0.37170723 -0.17350051 -0.5882843 -0.68070686 0.16876042 -0.8680377 0.2109658 0.054496072 0.16632728 -0.19633329 -0.11045599 -0.1623258 -0.036868006 0.6306451 0.070690215 -0.35741857 -0.33392298 0.15565668 0.17415251 -0.16288936 0.7004197 0.3589285 0.5018265 -0.61512154 -0.52556866 0.8614559 -0.64546895 -0.40059254 -0.05836398 -0.50592774 -0.24458668 0.57962596 -0.46372777 -0.31835395 0.022208713 0.033454537 -0.16967778 -0.45134437 0.9929515 0.5069073 0.03233333 0.8053268 0.113004304 -0.06434153 0.18768914 -0.5288682 0.12422108 -0.81301224 0.12683195 -1.3389268 0.405242 0.23887423 -0.3579271 0.029427398 -0.70843244 -0.9737467 -0.2015924 -0.35698017 0.5770198 0.61936986 0.068557985
1730 -0.20756646 0.3074401 -0.4826055 -0.20539978 0.046114556 -0.12066259 0.7717701 -0.41650307 -0.2007022 0.006897352 0.07256004 0.49698094 -0.5385249 0.2113581 -0.23935904 0.19263712 0.6156696 0.29511994 -0.30415046 0.20800312 -0.06494852 -0.22049098 0.287651 0.8571171 0.57688373 0.69972426 -0.18210644 0.16487204 0.37591928 -1.0280802 0.07899202 -0.48547935 -0.18909737 0.21144047 0.7882961 0.07341697 -0.3882407 -0.0023447794 -0.0016422984 0.29234406 0.24193005 -0.27196836 -0.107313395 0.35795012 0.23748232 -0.089861445 0.57667816 0.13525733 0.17384528 0.034615297 -0.5326239 -0.070476145 -0.11827485 -0.3795004 0.15327509 -0.4341833 -0.4249256 -0.18778734 -0.5646397 0.21577534 -0.116851866 0.0047734003 -0.14984907 0.5550758
1199 -0.25363457 0.47633475 -0.14362665 -0.225766 -0.09333268 -0.06345516 0.44960424 -0.53918546 -0.46888167 -0.10599311 -0.054851163 0.41411588 -0.4554761 0.053295393 -0.2390131 0.24265392 0.56131506 0.14669791 -0.4094073 0.18350317 -0.072268106 -0.434505 0.4726331 0.8809008 0.35021335 0.6380808 -0.3002779 -0.07787306 0.2638919 -0.99339545 0.042580225 -0.36130401 -0.23106048 0.2672937 0.7688961 0.11656454 -0.16966292 0.17686203 0.19873504 0.24196216 0.22830237 -0.47116336 -0.23294212 0.15583748 0.22009432 0.007943055 0.6446246 0.060368415 0.2427579 0.03210448 -0.6670608 -0.339111 -0.47704136 -0.015242609 0.25400078 -0.6210365 -0.2169627 -0.079902306 -0.47949418 0.21046251 -0.20510744 0.0546173 -0.123839766 0.55596215
67 -0.23487541 0.27304634 -0.28623787 0.6160243 -0.049921274 -0.062011067 -0.3491372 -0.14315091 -0.7020072 -0.5352164 -0.48849767 -0.22868377 -0.62128186 -0.19748417 -0.59174013 0.46878874 0.8289743 0.4560773 -0.035382867 -0.3320074 -0.10754596 -0.007246394 0.81488127 -0.31083038 -0.11121167 0.7321761 -0.48305544 -0.5199653 0.07166006 -0.19888303 0.35657173 0.2127632 -0.44671935 -0.30759236 -0.054502852 -0.78141016 0.36178595 -0.1677507 -0.22284785 -0.48777393 -0.70389575 -0.035984833 0.72755575 0.6583979 0.40531015 -0.13390678 -0.09822186 -0.6131775 -0.84064865 -0.58688575 -0.57044405 -0.35092807 -0.77311903 -0.28566003 0.65455306 0.01558594 -0.6863486 -0.8948932 -0.45830202 -0.35015365 0.1498492 0.23713863 -0.09633521 0.78080684
271 -0.64952713 0.37860113 -0.39614025 0.55117154 0.10539396 0.0005600669 -0.27342436 -0.05929151 -0.6286746 -0.7338466 -0.40087172 -0.4143611 -0.63009816 -0.28338802 -0.56151444 0.4148341 0.65541935 0.513679 -0.35701516 -0.32890686 -0.10465345 0.19806947 0.6804137 -0.21374403 -0.19114375 0.6287529 -0.6397158 -0.45151764 0.068160385 -0.17116818 0.2929021 0.0397607 -0.46147382 -0.1336537 -0.07735004 -0.7506014 0.3238851 -0.063125044 -0.29504257 -0.60810095 -0.74320817 0.03271647 0.61934143 0.68723935 0.30292335 -0.080251716 -0.3891384 -0.64320624 -0.8003697 -0.2380961 -0.5444045 -0.58751565 -0.79961896 -0.19355592 0.6846219 0.026833525 -0.7081353 -0.9914177 -0.33556032 -0.4648255 0.33691806 0.13775814 -0.18065533 0.95007336
1584 -0.532296 0.61224294 -0.16309369 -0.46433583 0.20851165 -0.1619288 0.6502895 -0.5204476 -0.16241203 0.108183034 0.10233678 0.44671607 -0.48625863 -0.10290408 -0.3635774 0.22756523 0.6229747 0.2728279 -0.4426613 0.042948727 0.002455216 -0.4684556 0.06272607 0.64682734 0.11294852 0.4236478 -0.41568014 0.31739125 0.124416 -1.0655859 -0.07081631 -0.55904055 -0.2889395 0.093417756 0.75033844 0.16145496 0.048071314 0.084209904 0.024365881 0.7205233 0.055055067 -0.3320014 -0.1991746 0.2154297 0.21561146 0.17996103 0.58837587 -0.067701206 0.17146307 -0.12743403 -0.48166907 -0.37611014 -0.4628158 -0.38995743 0.58077 -0.6362535 -0.1940835 -0.1414443 -0.2683287 0.16071141 -0.24479006 0.035683353 0.048170548 0.3481102
1768 -0.03646285 0.42262912 -0.32966262 -0.4145136 -0.16924785 -0.118794695 0.781963 -0.40713936 -0.12807904 -0.122515835 -0.14637107 0.43264237 -0.44212547 0.08881507 -0.21746716 0.2520862 0.81166345 0.32270712 -0.46808645 0.26920196 -0.07523473 -0.34859198 0.29305193 0.7293487 0.48389748 0.68656063 -0.28923407 0.19006658 0.37533507 -0.9665323 -0.06945888 -0.36573946 -0.344423 0.18950276 0.60463166 0.11817483 -0.27389812 -0.107075 0.07423678 0.20913817 0.45989814 -0.10318127 -0.13785546 0.24747615 0.0034325346 -0.009640658 0.6628742 0.21391185 0.06721478 -0.04587452 -0.5771724 -0.3677692 -0.13890462 -0.20079318 0.19612102 -0.5171508 -0.14964016 0.0053875484 -0.6534824 0.21647301 -0.12576137 0.055002246 -0.1436265 0.5668092
376 -0.62222975 0.041645277 -0.9832137 -0.73624486 -0.4831875 0.15880579 0.845296 0.1469711 0.0028014544 -0.2482734 0.59873086 -0.5513882 -0.81555885 -0.06824498 -0.13470191 -0.4395959 0.45630392 -0.034076482 -0.22719479 0.32950547 0.053590678 -0.5836607 0.7243755 0.28054276 0.37574285 0.1581846 -0.55492425 -0.053704396 0.7108507 0.02035957 0.1880564 -0.14296174 -0.39860514 0.08764655 0.22969607 -0.024020072 -0.3581931 0.11984345 0.4782605 0.4813882 -0.13432017 -0.18315475 -0.1918608 -0.10638572 0.04627905 -0.15069681 0.067682296 -0.035527676 -0.27121848 -0.6470641 -0.6228133 -0.20592871 -0.40271214 -0.15936574 0.6314457 0.17868681 -0.38430202 -0.4393607 -0.13885175 0.544443 -0.68397087 -0.14469731 0.19459961 0.41589448
1589 -0.08178299 0.56826466 -0.31036526 -0.29162934 0.18375158 -0.25081939 0.57773286 -0.44420797 -0.15949014 0.14053379 0.050755884 0.5271056 -0.60175174 -0.037047103 -0.2913554 0.30679327 0.67548627 0.44210237 -0.40777797 0.24915728 -0.14829746 -0.16540435 0.44338053 0.75468063 0.4061784 0.58973086 -0.30030403 0.058909107 0.33986905 -0.9127267 0.053620383 -0.4384419 -0.23051463 0.31888646 0.63384366 0.14757842 -0.25065175 0.14283277 -0.07858336 0.13239847 0.29009533 -0.35501963 -0.23881195 0.29607737 0.33015305 -0.02886321 0.7735354 0.1269389 0.14793612 0.07603263 -0.6668974 -0.2331672 -0.38927555 -0.14669059 0.08772046 -0.4725894 -0.24773723 -0.24441637 -0.56058216 0.051145196 -0.16835006 -0.011088822 -0.030857438 0.48733428
26 -0.3986357 0.34950364 -0.4635091 0.69127375 -0.022408769 0.07138843 -0.24133313 -0.15157531 -0.6369496 -0.61553234 -0.47577313 -0.23117605 -0.66606593 -0.29746535 -0.6059455 0.5568197 0.86357594 0.3616966 -0.10901218 -0.47381836 0.112585925 0.051269762 0.7252066 -0.33348164 -0.11754015 0.7251198 -0.625119 -0.48629576 0.05549331 -0.20660731 0.22577491 0.18469824 -0.2857992 -0.34376425 -0.013953292 -0.778459 0.17667913 0.09853035 -0.23503229 -0.5518145 -0.75565 -0.0077499277 0.6588993 0.5207957 0.43915084 -0.04402252 -0.32384238 -0.552397 -0.83875877 -0.6860653 -0.6346566 -0.38496834 -0.8035926 -0.20216559 0.52404404 0.23071353 -0.5126757 -0.92014235 -0.5679221 -0.47612292 0.31055978 0.18203397 -0.16148245 0.85090154
1746 -0.12510706 0.515201 -0.15392621 -0.13777697 0.12876639 0.059421513 0.66128254 -0.37116173 -0.028474825 0.016946979 -0.028671147 0.29039234 -0.59096575 -0.04191009 -0.13869114 0.0037604417 0.5122824 0.2741082 -0.34569612 0.29184157 -0.002484721 -0.475124 0.4332015 0.9505126 0.23398419 0.584943 -0.5766422 0.048332136 0.5162673 -1.0070088 -0.077024885 -0.5483425 -0.033587575 0.30352458 0.6855971 0.10646733 -0.16342688 0.06871636 0.060693987 0.2976584 0.15606022 -0.40063173 -0.31008565 0.21356857 0.41321275 -0.084438935 0.7781263 -0.07328521 0.24219458 0.02956646 -0.71968806 -0.23892301 -0.38706994 -0.20044819 0.10468703 -0.51698095 0.00013772931 -0.29639283 -0.4890967 -0.0333478 -0.16114344 -0.016541036 -0.08270428 0.544102
1086 -0.25161982 0.49655265 -0.08047219 -0.4074786 -0.063964285 -0.037574958 0.36047304 -0.9366437 0.34392312 -0.19514966 0.45195845 0.3488047 -0.19363451 0.11044094 0.056770746 0.24462724 0.7917572 0.666288 -0.4399502 0.3451487 0.08670158 -0.7496374 0.4904991 0.92192185 0.34126917 0.48729733 -0.2924793 -0.07375092 0.34811687 -0.88951266 0.05734731 -0.29480416 -0.0910981 0.1724229 0.42347282 0.04335408 -0.060846847 0.27172244 0.4684768 0.3545508 0.1620952 -0.18957756 -0.052039422 0.06840757 0.293925 0.2557602 0.573344 -0.24699922 0.15811288 -0.3544769 -0.5076953 -0.5210808 -0.48893192 0.13104178 0.19389758 -0.46170253 -0.28972188 -0.5080752 -0.5544825 -0.05180908 -0.18373455 -0.10799737 0.360943 0.25745147
322 -0.27840376 0.039764702 -0.08525545 0.3879352 0.3899795 -0.13875738 -0.18814757 -0.24937211 -0.7962565 -0.68365216 -0.39415148 -0.50843406 -0.47963378 -0.42119196 -0.59433967 0.17998011 0.6558037 0.34142795 -0.27954698 -0.354459 -0.030643795 0.2419538 0.70798355 -0.29178968 -0.1008411 0.54286796 -0.39320588 -0.641407 0.09157303 -0.11983199 0.15490086 0.13955387 -0.6296074 -0.37149805 -0.08300634 -0.6576382 0.2821144 -0.24895938 0.0843335 -0.739499 -0.6582038 -0.12613325 0.56078315 0.66343814 0.27840728 0.37173033 -0.14240779 -0.74854064 -0.6319884 -0.7270283 -0.59893054 -0.32057393 -0.99171233 -0.19129778 0.8583348 -0.17070428 -0.57660156 -1.0477526 -0.42141092 -0.33282545 0.20541199 0.69666123 -0.35304043 0.47128788
1827 -0.03643643 0.48443675 -0.43969628 -0.20626293 0.29167587 -0.19592124 0.57230055 -0.38211954 -0.16399528 -0.12990896 0.12742323 0.35342354 -0.56137305 0.024023497 -0.21507567 0.024894143 0.5566624 0.1920593 -0.37672842 0.23253699 0.022529235 -0.49283904 0.39968276 0.89378583 0.2716765 0.7042352 -0.2899719 0.122172296 0.388404 -1.0762098 0.12023161 -0.54207295 -0.18035485 0.24354567 0.8601297 0.23116778 -0.2769037 0.13363509 0.009809646 0.21262652 0.29929736 -0.28938815 -0.21198262 0.37252814 0.21365508 -0.07354399 0.6592863 -0.030925417 0.3251767 0.0071764137 -0.7644162 -0.0931909 -0.2849135 -0.29146168 0.11880647 -0.5596479 -0.3590673 -0.43524355 -0.5156263 -0.065062515 0.08097344 0.24146561 -0.038330063 0.34020972
713 -0.7216734 -0.30577418 -1.0574232 -0.4628971 -0.036247235 -0.3787597 -0.6576234 0.16072513 -0.82194066 0.29347682 -0.08339254 0.16087441 -0.5085232 0.19718172 0.07263014 -0.0151293725 0.82988745 0.03744464 -0.503081 -0.4121157 0.09006156 0.29955515 0.27452955 0.44468334 0.3327521 0.4069058 -0.8376505 -0.8191872 0.81143165 -0.54680496 -0.5494338 -0.27297992 -0.27902225 -0.149852 0.7024277 -0.59984875 -0.57590973 0.10976319 -0.21669887 -0.3349089 -0.52156836 0.8079495 0.39721185 0.013773341 0.59840655 0.083784774 -0.24455753 0.2390975 -0.36222303 0.19828404 -0.6213401 0.1627306 -1.2393136 0.25682047 0.25047594 -0.2897866 0.026534043 -0.6468357 -0.92871296 0.1824611 -0.31768626 0.69371235 0.57983863 0.023395095
1804 -0.16262007 0.56584966 0.077937394 -0.28674775 -0.017270993 -0.03097528 0.52998424 -0.45462215 -0.079883486 -0.15173252 -0.02098702 0.34430194 -0.6629685 -0.085610524 -0.18106222 0.15989985 0.6679954 0.25994718 -0.64272785 0.1960439 -0.12482389 -0.41038758 0.6079343 0.7713698 0.3664723 0.57642317 -0.23764117 -0.021399096 0.28922626 -0.9957139 0.12746 -0.33140227 -0.25448075 0.271862 0.7474351 0.28604448 -0.13949127 0.23048313 0.045683566 0.28410313 0.0131556075 -0.3674163 0.12679404 0.2969103 0.033846997 -0.094351724 0.683954 -0.06382885 0.22788426 0.17231974 -0.794034 -0.39340368 -0.31846362 0.03440251 0.25352237 -0.5090872 -0.039801028 0.040098913 -0.79758805 0.17861304 -0.17374443 0.016849302 -0.22956531 0.46515313
3101 -0.6091998 0.21125157 -0.26737514 -0.32360953 0.08864406 0.63455904 -0.16309445 -0.5474346 0.41073868 0.37348917 -0.24610646 0.04868757 -0.49923 0.20156625 0.09542175 -0.51683336 0.09338479 -0.018469675 -0.14446491 -0.2943423 -0.31353 0.069387265 0.21620849 -0.3204492 0.26761934 0.66678834 -0.43177143 -0.639539 0.8205316 -0.30568385 -0.08968445 -0.2530591 -0.08101212 -0.14438806 0.4536631 0.24817187 -0.39218265 -0.46280614 0.029420279 -0.045930717 0.39431253 0.16213237 0.015151978 0.9763354 -0.2651135 0.26691929 0.26141956 0.12062649 -1.1918089 -0.2330999 -0.42398283 0.21848278 -0.5475641 0.5757744 -0.15152593 0.6028601 0.10968516 -0.6667161 -0.7769271 -0.52798885 -0.2313693 -0.08287748 -0.42578584 0.25367236
1126 -0.25804758 0.42190427 -0.1616428 0.01594764 0.20967245 -0.27525818 0.61682695 -0.5175827 -0.24395935 0.030957498 0.06490805 0.49386033 -0.40251678 -0.046260342 -0.23048183 0.0717906 0.5667222 0.35270706 -0.3577083 0.18747847 -0.017665274 -0.34067202 0.5139805 0.8842944 0.3483985 0.5001523 -0.32760203 -0.045189835 0.27441677 -0.9878858 -0.18035716 -0.45982665 -0.23277551 0.37251627 0.71093893 0.08897799 -0.08075073 0.17130883 0.091151014 0.12325974 0.0026637095 -0.33348247 -0.105943084 0.49741453 0.43601298 -0.007007159 0.6850185 0.20157807 0.13563557 -0.01011056 -0.597368 -0.40175882 -0.53178763 -0.07432355 0.1600855 -0.4652446 -0.082093485 -0.10513032 -0.4754615 0.061177302 0.018138425 -0.0849597 -0.2159812 0.5459311
698 -1.2234497 0.16757421 -0.74408484 -0.27233487 -0.25434133 -0.58104634 -0.62179923 0.3892298 -0.5430079 0.2057687 -0.13995813 -0.25214812 -0.47878325 0.106239885 0.13060059 0.27401707 -0.12215268 0.40510893 -0.23996758 0.04635815 0.2826081 0.52914166 -0.5381878 0.0742737 0.40379062 0.1425318 -0.48055655 -0.7874783 0.5201748 -0.6495819 -0.53974533 0.22664066 -0.004417723 -0.04409015 0.88852906 -0.47276053 -0.46233368 -0.117728464 -0.011204708 -0.26920316 -0.2463023 1.0482956 0.2837596 0.022297788 0.5902813 -0.29556215 0.06628239 0.29557374 -0.56269217 0.27415857 -1.0996071 -0.316813 -0.960188 0.06294683 0.29897028 -0.29751313 -0.18887338 -0.53554505 -1.0343198 -0.119682774 0.15078598 0.5551703 0.6001402 0.37758318
3604 -0.60192055 0.5200194 -0.37081656 -0.42405257 -0.6858174 -0.16275968 -0.44374198 0.15220247 0.3417434 -0.35899234 -0.82123315 -0.15157795 -1.3902805 0.16570304 -0.15334505 0.13722675 -0.43398395 -0.39798754 -0.97678334 -0.4083547 0.23283368 0.34501618 -0.06038352 0.29249635 0.51482576 0.48745987 -0.15148531 -0.3557768 0.6466787 0.18952325 -0.36931178 0.4957976 0.3310195 0.34867284 0.16451032 -0.004702527 -0.001107839 0.24632472 0.10497962 -0.2559039 0.26207092 0.60705423 -0.023219533 0.6597065 0.6016531 -0.38366252 0.5106672 -0.7191948 0.27462384 -0.34876108 -0.81563663 -0.046309713 -0.5683664 0.06489035 0.449704 -0.20094362 -0.20037681 -0.14861669 -0.8812515 0.08564553 0.47262233 -0.037225887 -0.21412654 0.8784397
1390 -0.18115188 0.57754135 -0.07373556 -0.25099593 0.15754583 -0.09977378 0.5716557 -0.29306093 -0.114892066 -0.04602012 -0.08992807 0.36019492 -0.36395073 0.049320463 -0.1352371 -0.08231435 0.61215925 0.5463266 -0.31587395 0.33488065 -0.08653466 -0.4098798 0.33800358 0.76194596 0.26725638 0.6176537 -0.4177851 0.1616167 0.41452327 -1.0398949 -0.024932584 -0.35440862 -0.1856101 0.31983218 0.63703614 0.09155061 -0.066399075 0.11795981 -0.09530962 0.27953678 0.11221329 -0.25695455 -0.14379233 0.3584997 0.2892093 -0.03969447 0.80663687 0.040436935 0.26840925 -0.04107134 -0.7656387 -0.25796518 -0.37522987 -0.220905 0.23229504 -0.46321437 -0.13823663 -0.2689952 -0.3638908 -0.0520096 -0.1185324 0.19800167 0.0044645555 0.53049165
2347 -0.46650475 -0.32710904 -0.060907632 0.2285371 0.051172543 0.08538111 -0.012368071 0.121504046 -0.5700384 -0.18013057 -0.2660716 0.30221242 -0.13902582 -0.28158844 -0.22349599 0.45520914 -0.3491624 0.39976183 -0.39215577 -0.28839985 0.3972304 -0.21948868 0.8234913 0.25702205 0.31492618 1.2973474 -0.19175377 -0.14412332 0.16911565 -0.24980839 -0.19122459 -0.21884203 0.0941365 -0.25742 -0.088401526 0.044900037 0.34549737 -0.15833955 -0.55675864 0.80868536 -0.35426116 0.72176796 -0.060597084 0.64525485 0.06679336 0.38085502 0.20025976 0.109828725 -0.14720657 -0.71061355 0.22604051 0.16992176 -1.097486 -0.47945887 0.4852258 -0.16709542 0.46377257 -1.0442863 -0.53815526 0.46572733 0.055916097 0.06551143 -0.596224 0.2711813
1833 -0.2641334 0.6087472 -0.15802065 -0.3336202 0.19681002 -0.28745207 0.56259626 -0.42177206 -0.047433294 0.0938793 0.051491052 0.3478597 -0.6949446 0.03805452 -0.300859 0.24506836 0.51423836 0.33158457 -0.43747547 0.19194184 -0.13074261 -0.30795357 0.43608692 0.7227772 0.28265336 0.6782046 -0.3415601 -0.05012928 0.34975785 -0.8911443 0.23171614 -0.30708137 -0.25032344 0.281338 0.6727019 0.15178828 -0.07383981 0.12736404 0.006798506 0.22033058 0.20614839 -0.3592535 -0.15508151 0.2860627 0.29625812 -0.08609318 0.7655125 -0.018483605 0.34397677 -0.06166795 -0.5898513 -0.35829392 -0.29846075 0.06302882 0.33853844 -0.6774605 -0.045614623 -0.05043285 -0.6254126 0.018475614 -0.30613226 0.06478089 -0.045350622 0.43604684
2543 -0.33537066 -0.42988124 -0.054336756 0.2814911 0.089180775 -0.090859905 0.044876967 0.0025507032 -0.5282485 -0.19404976 -0.12946238 0.18072233 -0.15614581 -0.19199114 -0.17987014 0.23284705 -0.28317198 0.38066247 -0.4774136 -0.22006302 0.255993 -0.094424486 0.5649501 0.15376052 0.37535617 1.2785953 -0.12175906 -0.23919144 0.13570915 -0.29412618 0.057230443 -0.17010811 0.006011054 -0.2916324 -0.07828711 0.048908453 0.37852737 -0.14042014 -0.4278747 0.7706525 -0.26762074 0.7175303 -0.09200402 0.51710814 -0.015802506 0.6080452 0.21767564 0.1398464 -0.31733254 -0.8649835 0.06396716 0.35553318 -1.0901253 -0.54533446 0.65364236 -0.2283844 0.3921483 -0.93922585 -0.3466219 0.28603393 0.19344962 0.18745913 -0.42112184 0.21817574
1559 -0.01532991 0.3579322 -0.12144724 -0.2464128 0.10808458 -0.12749963 0.70142454 -0.3656699 -0.102960244 0.101476155 -0.044891927 0.55604714 -0.4830588 0.08885637 -0.34843487 0.23113282 0.5487366 0.19595851 -0.4969328 0.3891512 0.003930902 -0.34557584 0.29240894 0.6404897 0.3793998 0.56949854 -0.40990993 -0.04555286 0.44194254 -0.95110875 0.04291937 -0.59804565 -0.08858776 0.2633195 0.7477701 0.06250216 -0.22478652 0.1040255 0.06495273 0.28897247 0.17584366 -0.22803654 -0.17415948 0.28162518 0.26055422 -0.021931281 0.73135054 0.23300175 0.11332147 0.15337908 -0.672275 -0.39583924 -0.5130821 -0.18755259 0.35274985 -0.40987667 -0.078085065 0.0664587 -0.63357556 0.16479388 -0.17104489 -0.10063459 -0.1933694 0.4145129
1621 -0.08469611 0.5143332 -0.28981844 -0.059719786 0.21287191 0.00547212 0.62268716 -0.4602466 -0.052099943 0.073897205 -0.23557447 0.3171918 -0.4390006 -0.051503334 -0.45506224 0.32352662 0.5093691 0.32123622 -0.42502794 0.17757832 0.065472946 -0.35011026 0.528331 0.6634436 0.31521252 0.52300334 -0.39277202 0.14508471 0.5024726 -0.9276143 0.025654808 -0.31631124 -0.39522713 0.15284708 0.80863905 0.17310816 -0.09247394 0.25286806 -0.06950619 0.26758394 -0.015862996 -0.30455866 -0.22369117 0.29050234 0.24116592 -0.04348458 0.8460881 0.16278794 0.1325363 -0.09030082 -0.71659213 -0.17405386 -0.25720334 -0.120187424 0.23811437 -0.536937 -0.017077278 -0.04115948 -0.62993556 0.23243512 -0.05881888 -0.24056777 0.12570766 0.3585927
2839 -0.072512716 0.52190435 -0.10787791 -1.1753289 -0.25620016 0.6320014 0.041054007 -0.6414057 -0.32473305 0.42218876 -0.73336345 0.18564023 -0.53983945 -0.17420173 -0.28748155 -0.051264513 0.13895735 -0.32050666 0.22114748 -0.8384777 -0.0525425 0.09779839 0.35325426 0.44476926 0.401935 0.42380473 -0.061944313 -0.76836485 0.55668706 -0.22427471 0.52237326 -0.80158633 0.13293323 0.098590896 0.2585851 0.0812294 0.16073745 -0.25070116 -0.3441618 -0.09123561 -0.19714676 0.27990344 -0.24911796 0.3216612 -0.19994737 0.41155308 -0.09821549 -0.3757737 -0.8811131 -0.4184567 -0.19371586 0.07447914 -0.78954107 0.25331157 0.570164 0.4935211 -0.38621628 -0.27271155 -0.8473742 -0.081655346 -0.0017034524 -0.18042351 0.4508016 0.44337988
1612 -0.25201765 0.5134266 -0.30656877 -0.031221231 0.2966464 -0.24306206 0.70344496 -0.58886325 -0.017566081 -0.0042225416 0.008664965 0.352398 -0.66792524 0.02934913 -0.31708893 0.2842374 0.5503958 0.17089464 -0.55019975 0.17398031 0.066379294 -0.24386267 0.30550462 0.68331784 0.2973965 0.71584046 -0.32902905 0.14843915 0.24216124 -1.0707935 -0.08162712 -0.5461618 -0.17280309 0.18905324 0.75240266 0.23117861 0.0124914935 -0.02535852 -0.042824544 0.3242342 0.16018987 -0.2500677 -0.29579887 0.39459476 0.17724939 -0.014671079 0.72591925 -0.047320306 0.11491555 0.08386435 -0.65807766 -0.24631724 -0.2304738 -0.12952738 0.10455107 -0.6381997 -0.055201553 -0.18908274 -0.4739522 -0.09211677 -0.30504316 0.23164393 0.03043003 0.55621755
705 -0.48272735 -0.3058937 -0.9292655 -0.3271099 -0.04205949 -0.54830307 -0.5062028 0.02212415 -0.93279696 0.14376177 -0.10303199 0.30628315 -0.48298436 -0.026220473 0.06765857 -0.0019745296 0.56872535 0.06253139 -0.38687328 -0.2648022 0.1774143 0.11689169 -0.046045344 0.86144155 0.2396973 0.6161692 -0.89797646 -0.57707536 0.97943854 -0.61560255 -0.31059846 -0.20209195 -0.39746907 -0.27244154 0.5780163 -0.64527637 -0.46944016 0.009347306 -0.09197719 -0.18693934 -0.5376817 0.9316427 0.398953 0.026749425 0.8522727 0.1437053 -0.20674187 0.07499911 -0.5868064 0.008693886 -0.6646534 0.05077188 -1.1258284 0.32987547 0.33838862 -0.20725498 0.1515336 -0.6858604 -0.9612938 -0.106619604 -0.38982916 0.66651475 0.8864403 -0.10682874
252 -0.52094024 0.4502318 -0.40873843 0.4533554 0.013232984 0.18616049 -0.11606694 -0.07656653 -0.93445987 -0.62786 -0.40735322 -0.14292102 -0.59733266 -0.17712931 -0.50684804 0.46186462 0.8795613 0.29920664 -0.20772976 -0.2129792 -0.1017119 0.24527732 0.8142461 -0.46795458 -0.2434455 0.7619597 -0.5184794 -0.5255183 -0.037539333 -0.3894509 0.42397723 -0.21878825 -0.60819507 -0.33635908 -0.17060843 -0.8386689 0.27309474 -0.15944438 -0.21711983 -0.68097013 -0.59942305 -0.13538398 0.7456657 0.41401228 0.36435455 -0.07494061 -0.026089221 -0.6617852 -0.8221141 -0.70778096 -0.6478015 -0.34516066 -0.73696184 -0.21681619 0.56694204 -0.04204098 -0.62024045 -1.0286968 -0.21953261 -0.33912867 0.18365665 0.18014382 -0.005839243 0.6307466
1714 -0.19626023 0.4348944 -0.15282017 -0.2810695 0.33824265 -0.12858596 0.660429 -0.536667 -0.2587888 0.13164937 0.053479064 0.47284117 -0.5977667 0.037747826 -0.10108122 0.2896245 0.5780715 0.4551862 -0.5027783 0.19943438 0.015027929 -0.2886195 0.42062494 0.62570727 0.32205543 0.70492625 -0.4248891 0.13478197 0.38995224 -0.9009175 -0.018746478 -0.48853248 -0.21545602 0.3317884 0.656545 0.020231845 -0.13262416 0.21457233 -0.07280034 0.14854768 0.21651313 -0.44000772 -0.06981574 0.22256678 0.2898714 0.06656351 0.75049424 -0.102807246 0.21318309 0.23162843 -0.47062993 -0.3329348 -0.40882212 -0.06593835 0.27316788 -0.5807305 -0.19715545 -0.26696056 -0.50567746 0.1697062 -0.17436677 0.0242379 0.05121908 0.7862834
25 -0.44901595 0.33079234 -0.64466983 0.34189448 0.489448 0.2871388 -0.2158802 -0.1367866 -0.64069664 -0.66082793 -0.5480362 -0.5604214 -0.89042753 -0.06656361 -0.6895652 0.22748922 0.8938927 0.30896068 -0.43108878 -0.14949664 0.031597514 -0.28902233 0.6559244 -0.33010456 0.0481581 0.8048022 -0.45749173 -0.5539777 -0.10857439 -0.30114824 0.29470378 0.10037609 -0.2516563 -0.31109342 0.116548814 -0.6940274 0.22354186 -0.00059534964 -0.30849853 -1.10862 -0.8280093 0.31045553 0.8820893 0.78952074 0.6046272 -0.26007393 -0.20392436 -0.4930815 -0.4069055 -0.5971021 -0.45637888 -0.14760254 -0.80795974 -0.0961429 0.5338242 -0.05353733 -0.6836537 -0.9095258 -0.13029908 -0.27217346 0.23652595 0.57030064 -0.15018234 1.0170488
719 -0.6945526 -0.24146862 -0.7707852 -0.5358271 0.0038043708 -0.6226299 -0.5838742 0.11612476 -0.9866176 0.2265725 -0.08311873 0.18301792 -0.37623498 0.062398918 0.031428963 0.029386617 0.5612203 0.14524262 -0.5391378 -0.17600648 0.23850965 0.18847482 -0.08509993 0.58554757 0.44133055 0.53886026 -0.8889817 -0.6740834 0.9014762 -0.624624 -0.5272267 -0.14628017 -0.48795247 -0.16989306 0.5812421 -0.5483987 -0.41215357 0.13002022 -0.17393933 -0.2689387 -0.47855273 0.8212367 0.29494536 0.08842565 0.7528326 0.021573704 -0.29477873 0.18322717 -0.56328714 0.062633395 -0.64962065 0.07394723 -1.137327 0.31571087 0.28701147 -0.1693938 0.020695444 -0.4859792 -1.0277587 -0.10032943 -0.2857952 0.6177556 0.72799087 -0.110865496
3363 -0.24185728 0.7148304 0.064879864 -1.148456 -0.20475371 0.5198994 -0.061101906 -0.5620482 -0.33331606 0.3968439 -0.6044921 0.31995618 -0.5492343 -0.09042634 -0.29796094 -0.07302313 0.20408513 -0.2974744 0.23349518 -0.8096917 -0.153895 0.21828249 0.21159576 0.3880954 0.3710415 0.46789703 -0.104131274 -0.81692445 0.6170462 -0.20179614 0.5447425 -0.7591075 0.1832234 -0.13657674 0.21485545 -0.05798054 0.07211312 -0.31465125 -0.25022057 -0.0018507363 -0.2535705 0.22100051 -0.29646724 0.18824567 -0.19511001 0.25203288 -0.03427211 -0.3622343 -1.0456382 -0.31404462 -0.028042607 0.057556547 -0.89624524 0.4198822 0.5879622 0.3642443 -0.46118167 -0.21126968 -0.79431367 0.048190374 -0.06692494 -0.24099065 0.31037575 0.40061837
1377 -0.19490173 0.3802615 -0.0899271 -0.10367258 0.028331276 -0.07002788 0.7553199 -0.24947226 -0.13121252 -0.17802931 0.18138482 0.47998908 -0.59117013 0.06142531 -0.09718298 0.13523044 0.8333877 0.24647589 -0.32312614 0.29434675 0.15935147 -0.39418456 0.3422863 0.61269426 0.34882638 0.51659906 -0.43140936 -0.03659708 0.5787422 -0.83347535 0.056632746 -0.58672553 -0.15563926 0.20131183 0.8774312 0.13740757 -0.23130107 0.19123413 0.12568851 0.39859968 0.2818721 -0.28136885 -0.08036978 0.36955112 0.037633184 -0.014753215 0.7637958 0.23870088 0.14674239 0.0016763482 -0.5918413 -0.33798066 -0.25349727 -0.406321 0.17934866 -0.4061573 -0.20328796 -0.18065117 -0.6530939 0.32349578 -0.069530785 -0.09342996 -0.00079630275 0.50725126
3082 -0.74505836 0.2846734 -0.28162035 -0.30605727 -0.14723763 0.47803247 0.05532009 -0.66350317 0.32789186 0.24619627 -0.40340298 0.18904221 -0.524608 -0.013786567 0.12826619 -0.2944681 0.011264244 -0.2615518 -0.01981278 -0.4344576 -0.36080176 0.23658918 0.0019427042 0.2041062 0.069361776 0.7257329 -0.44779116 -0.56499165 0.6669816 -0.41856033 -0.41583434 -0.119694784 -0.08598158 -0.41254985 0.34962562 0.08402377 -0.4798247 -0.39356118 0.14138106 0.14544025 0.21711159 0.2289355 0.016274355 1.0982041 -0.371763 0.3850848 0.19549897 0.049882494 -1.0536085 -0.1981729 -0.54368186 0.033027742 -0.5615469 0.6816391 -0.16468078 0.632476 0.10367484 -0.65375775 -0.85361713 -0.5880313 0.010088216 -0.28662014 -0.44689772 0.2459798
475 -0.81054 0.16426039 -0.9323075 -0.68619996 -0.420347 0.17304413 0.87279594 0.17952435 -0.075538665 -0.11034424 0.74211943 -0.6629077 -0.7093366 0.037182204 -0.21451159 -0.35630235 0.36996382 -0.02640759 -0.3284984 0.44384116 -0.17601116 -0.49951625 0.7423039 0.3677864 0.27303156 0.09480068 -0.60204524 0.064303 0.62046766 0.12868536 0.2300776 -0.20093766 -0.43372574 0.12752526 0.032358725 -0.08289098 -0.14261614 0.44147497 0.6427239 0.6389828 -0.4043066 0.0010955718 -0.066131756 0.17838952 0.20361933 -0.27979353 0.017977893 -0.07491719 -0.10682026 -0.6449203 -0.6368069 -0.17503628 -0.4808207 -0.02604833 0.43768817 0.05147935 -0.34778234 -0.5079854 -0.35689238 0.2719264 -0.5363167 -0.30407646 0.09029517 0.19864506
2742 -0.6135047 0.34474143 -0.15467308 -0.4775445 -0.19890775 0.53978 0.03251059 -0.4934611 0.31585443 0.33768588 -0.21589296 -0.14906697 -0.43981224 0.11842379 0.13419732 -0.33753964 -0.14882034 -0.17283502 -0.1652294 -0.34267873 -0.40267658 0.1706616 0.3099191 0.031782553 0.09179549 0.7752876 -0.6126277 -0.40776333 0.7016032 -0.37137684 -0.3867713 -0.3624083 -0.0639963 -0.13419302 0.308191 -0.03563587 -0.4300308 -0.63511425 0.10136321 -0.047356248 0.17696126 0.20770904 -0.17159955 0.8733512 -0.34096333 0.13148479 0.2852082 0.017992672 -1.1022446 -0.264459 -0.30292132 0.20671797 -0.5623828 0.6407325 -0.14627303 0.88510305 0.14037031 -0.6079317 -0.9902764 -0.4841335 -0.1552446 -0.14770512 -0.62228626 0.08599713
1376 -0.015345019 0.39814237 -0.36111003 -0.017694473 0.2187641 -0.10544357 0.63832164 -0.5156775 -0.092802316 -0.27277857 -0.1264325 0.45860848 -0.5890364 -0.032584757 -0.36546046 0.19215839 0.60190827 0.3727868 -0.3589966 0.45563555 0.03623389 -0.3731307 0.13204272 0.5720914 0.5701532 0.7116853 -0.34352142 0.09847028 0.4477149 -0.8791316 -0.088869795 -0.67700803 -0.32529968 0.12926596 0.7882189 0.20398451 0.012081592 0.009186464 -0.01125143 0.20730108 0.1093608 -0.20833135 -0.17345126 0.37139285 0.18594858 0.06595193 0.7554482 0.046177935 0.2198017 -0.024629265 -0.55928606 -0.14968026 -0.12628995 -0.26394996 -0.01694192 -0.3065503 -0.11750836 -0.20638297 -0.5333666 0.11666708 -0.058844097 0.11902142 0.088013865 0.6979706
277 -0.63268983 0.47640356 -0.19731185 0.50708807 -0.034675907 0.083448306 0.040613297 -0.3423309 -0.59059536 -0.4681431 -0.3354022 -0.45399255 -0.70209235 -0.16823243 -0.85824317 0.42821825 0.9856918 0.37161857 -0.1908814 -0.21062796 0.2536312 0.21098165 0.7313178 -0.40423682 -0.40897503 1.1934305 -0.421651 -0.46710625 -0.08789713 0.031469524 0.41038355 0.075817436 -0.51150566 -0.20439932 -0.10443816 -0.98507255 0.29564166 -0.14677879 -0.099576205 -0.74382454 -0.66436225 -0.04883352 0.7123133 0.34374613 0.44898218 -0.035620157 0.11356918 -0.45744702 -0.70378745 -0.912127 -0.72590667 -0.55302185 -0.7256357 -0.20640066 0.34837073 0.17044568 -0.3938558 -0.6859038 -0.6066666 -0.18636203 0.18212001 0.39573696 -0.111465015 0.6538499
3291 -0.41642913 0.07385193 -0.44225648 -0.25151554 -0.14093435 0.21143958 0.10537666 -0.3798853 0.35251978 0.31636548 -0.38980126 0.032102518 -0.622546 0.3345391 0.16159251 -0.20444283 -0.055535674 -0.31829357 0.07337495 -0.4608046 -0.0765445 0.26037446 0.17199901 0.21830115 -0.062793806 0.8824466 -0.45420298 -0.65650433 0.71911156 -0.3247192 -0.22803609 -0.20889583 -0.10955957 -0.3377516 0.48571107 0.22877054 -0.27565256 -0.380963 0.13862364 0.024391167 0.23364435 0.3205822 0.0706454 0.9203094 -0.1947396 0.28735405 0.00780554 0.010420023 -1.0307919 -0.2675215 -0.6119944 0.08056627 -0.5919405 0.7282965 -0.09359365 0.8826111 -0.08388242 -0.6076771 -0.82896036 -0.594592 -0.17451356 -0.5895034 -0.49141496 0.20850751
805 -0.68913877 -0.10169779 -0.949868 -0.4164371 -0.008643946 -0.72230506 -0.6234861 0.08494709 -0.92552257 0.20877571 -0.036435056 0.18082157 -0.16509078 -0.00089556386 -0.07949621 -0.00381061 0.61373216 0.012770889 -0.5056136 -0.19317202 0.18380156 0.26635715 -0.002995629 0.63757455 0.40264338 0.5565078 -0.78646785 -0.6259413 0.8390978 -0.59532696 -0.31560165 -0.1534903 -0.4114183 -0.2503146 0.63034356 -0.3359898 -0.35896304 0.08390784 -0.029143982 -0.2328167 -0.5190328 1.030376 0.5244528 -0.048248425 0.92689747 0.07267761 -0.26240674 0.09578548 -0.565146 0.10780557 -0.72546214 -0.0071987147 -1.3911184 0.32276386 0.17256755 -0.24322447 0.013849957 -0.6103576 -1.0024549 -0.2725451 -0.4030917 0.6225158 0.57646245 -0.042060077
21 -0.3955042 0.385857 -0.31869164 0.31829187 0.07229797 -0.18932581 0.0077172355 -0.036701165 -0.8612867 -0.44022724 -0.32350698 -0.21370527 -0.53444254 -0.32552975 -0.516085 0.4393318 1.036276 0.34812233 -0.033442806 -0.24298662 0.1257126 0.24039693 0.6369237 -0.39891738 -0.16229573 1.1138579 -0.49258676 -0.3425913 -0.019518811 -0.26466382 0.5494482 0.31423917 -0.3977149 -0.34713078 -0.03787127 -0.50237554 0.3654346 -0.111222364 -0.2481547 -0.8195982 -0.56496716 -0.14181037 0.44615954 0.44261384 0.49433765 -0.13665242 -0.1120828 -0.52316076 -0.75083816 -1.0029941 -0.53091437 -0.31766933 -0.7126557 -0.1426477 0.81615585 -0.073649436 -0.5479984 -0.79790664 -0.30895874 -0.5465735 0.05355432 0.24774429 0.0809366 0.7928142
1707 -0.21648853 0.6067542 -0.039168812 -0.30759683 0.15776357 0.0013156323 0.66902256 -0.40493524 -0.113983676 -0.034144066 1.865374e-05 0.23381521 -0.3047462 0.047243983 -0.27607515 0.27374873 0.6764465 0.39608717 -0.35145316 0.095589384 -0.06570843 -0.35367328 0.63830143 0.6411209 0.2549669 0.7421021 -0.47824803 0.09810426 0.1696407 -1.0531099 0.033260614 -0.3186764 -0.1037829 0.26575792 0.70898986 0.14510757 -0.08279766 0.19240509 -0.15194535 0.280544 0.30221376 -0.26260918 -0.03584375 0.21942967 0.34306768 -0.17031103 0.6784141 0.05641586 0.2503941 0.031957224 -0.69101655 -0.26455975 -0.38457942 0.06427524 0.33278376 -0.5655793 -0.48233545 -0.13880812 -0.6931999 0.07654062 -0.19029357 0.1446658 -0.055303533 0.5645802
1078 -0.30200803 0.47399798 -0.18068035 -0.29817492 -0.022962691 -0.09119113 0.5779253 -0.4457935 -0.27052468 -0.06489955 0.058739867 0.33682606 -0.41894776 -0.011037062 -0.36577094 0.14690256 0.5970081 0.2531256 -0.3568096 0.34388882 -0.0059944442 -0.34916738 0.49421534 0.88973224 0.2705486 0.70896745 -0.42526853 0.079475276 0.047272056 -0.9585915 0.1250093 -0.46536374 -0.18516667 0.31637132 0.73967636 -0.08840469 -0.107401304 0.012486757 0.054611355 0.22010739 -0.032957155 -0.3668834 -0.10355226 0.35036045 0.22291778 -0.18827224 0.6377632 0.09096895 0.41979575 0.14989862 -0.5356862 -0.42496082 -0.4057803 0.008026526 0.43105274 -0.4910693 -0.4438734 -0.17999248 -0.6462528 0.24567157 -0.27163607 -0.10162438 -0.074302524 0.5955957
1613 -0.06388256 0.511504 -0.2574438 -0.34194767 0.21219197 -0.15352316 0.633524 -0.55772287 0.087264396 -0.095291786 -0.1460457 0.5107588 -0.46265537 0.013572676 -0.22713359 0.42124838 0.5851123 0.417633 -0.4974994 0.25521195 -0.1717136 -0.39767453 0.2812616 0.75433356 0.35001057 0.61815125 -0.4261334 0.062282436 0.4047917 -0.8354939 0.2843187 -0.48076415 -0.18498437 0.25059462 0.66634774 0.19624825 -0.32733965 0.28200412 -0.16177419 0.34697896 0.20737185 -0.14074273 0.053129617 0.3208487 0.2290558 -0.020086009 0.7937922 -0.055780187 0.17432983 0.050030585 -0.72178 -0.26161188 -0.5260327 -0.18543486 0.09076223 -0.56322294 -0.09412277 -0.093009666 -0.6334358 0.21280849 -0.13957366 0.104737334 0.050542433 0.46720317
1835 -0.023398452 0.3854556 -0.18905167 -0.07655091 0.15294407 -0.08111744 0.86545724 -0.5845873 -0.07966683 -0.03359053 -0.25140613 0.39593253 -0.5407331 0.18983948 -0.31415084 0.2869715 0.49743915 0.3147129 -0.3064551 0.33651057 0.08203848 -0.31665462 0.074355885 0.7127758 0.45081988 0.5451449 -0.5149966 -0.010007781 0.4439408 -0.93127555 0.12981324 -0.5920858 -0.25937334 0.16323233 0.7116494 0.22700164 -0.00016227053 -0.055299148 -0.0019481872 0.24793987 0.18054533 -0.13747531 -0.17280921 0.31429648 0.059692513 0.044395775 0.81165385 0.033633787 0.15315345 0.10268904 -0.6196514 -0.04529901 -0.41527596 -0.46816942 -0.109123975 -0.35109544 -0.27491066 -0.18548763 -0.50628865 0.24281129 -0.16321865 0.13113263 -0.026652202 0.57586163
3397 -0.77374166 0.20138282 -0.409283 -0.47370753 -0.1804367 0.4356968 0.09238476 -0.46535397 0.34809944 0.42949244 -0.39843386 0.037364263 -0.2145365 0.09214491 0.22759071 -0.3374314 0.08626092 -0.15403208 -0.104253516 -0.34677678 -0.51620775 0.2592895 0.245801 -0.014129779 0.06508535 1.0023812 -0.38223717 -0.73620075 0.7101004 -0.104746014 -0.37409973 -0.33863792 -0.06895015 -0.19508979 0.57727903 -0.12623484 -0.44998586 -0.56204313 0.124657966 0.12984577 0.43629658 0.2981938 -0.043216903 0.7324926 -0.3281081 -0.011188213 0.266664 0.1657425 -0.9739792 -0.18026462 -0.39669755 -0.0614887 -0.40118435 0.70011973 -0.10799902 0.5473408 0.14956559 -0.61895925 -1.0046201 -0.3796326 0.0092148995 -0.333197 -0.51209855 0.2643088
122 -0.25346836 0.23074144 -0.24144615 0.3984568 -0.122466475 -0.021432674 -0.45797625 -0.24336255 -0.8340206 -0.63119704 -0.43814257 -0.32772386 -0.49326354 -0.22931646 -0.4334374 0.51020455 0.7751651 0.33895215 -0.07234272 -0.4856476 -0.09864103 0.09891198 0.90298015 -0.42576626 -0.08340339 0.91049474 -0.3186309 -0.43212098 0.030333092 -0.42021668 0.5198341 0.35425788 -0.3231943 -0.33970362 -0.06014664 -0.36372232 0.33762366 -0.18838355 -0.11902037 -0.43784064 -0.6443807 -0.13769439 0.65709525 0.63162863 0.4601297 -0.20515148 -0.19359691 -0.6209349 -0.69484013 -0.78109425 -0.64941394 -0.33033136 -0.8428003 -0.2486504 0.69958234 -0.15687393 -0.8068426 -0.676116 -0.4012396 -0.48680055 0.17698719 0.3620802 0.11409545 0.7471478
1399 -0.26478958 0.5601549 -0.25581363 -0.2165999 0.19656762 -0.093623474 0.54389006 -0.5398839 -0.015867785 0.02344394 0.031703286 0.361474 -0.5039931 0.15340856 -0.2546847 0.32922155 0.5219308 0.117040485 -0.4488278 0.3830951 -0.052226666 -0.303401 0.39217246 0.8113911 0.09034259 0.6793443 -0.27173835 -0.13845333 0.06890818 -0.9846709 0.18960519 -0.5504499 -0.22305925 0.29958564 0.715825 0.13407795 -0.079279855 0.16516295 0.043166786 0.16033079 0.11094989 -0.3689123 -0.16989294 0.21269545 0.3426931 0.061074477 0.57809335 0.04478038 0.3586362 -0.07629548 -0.6035286 -0.26563057 -0.5602798 -0.14219001 0.15311657 -0.6366179 -0.34592786 -0.31891343 -0.599688 0.17848326 0.051218856 -0.034367625 0.05126532 0.6249551
3633 -0.9421434 0.2832423 -0.5352755 -0.52402693 -0.06944971 -0.28113902 -0.6500922 0.14725098 -0.103554055 0.043895405 -0.90788513 0.15184908 -1.1082519 -0.104701094 0.12201086 0.035599455 -0.25303996 -0.5083208 -0.97347134 -0.15852897 0.047573615 0.45082504 -0.08458607 0.2561064 0.55672425 0.29488057 -0.0874377 -0.27028003 0.21873945 0.022239564 -0.39109507 0.4719922 0.0037109193 0.4749016 0.14492838 -0.21694668 0.20806916 0.37275138 -0.0013266891 -0.17742027 0.40534636 0.63890433 -0.07747531 0.40302175 0.32099298 -0.6600492 0.65832555 -0.37803775 0.0363709 -0.32578528 -0.9372125 0.204318 -0.80606997 -0.45175233 0.5394727 -0.020090602 -0.29038668 -0.075030714 -0.8642848 0.06591066 0.17859386 0.011799325 -0.03773275 0.929197
1610 -0.17749661 0.63205945 -0.0532362 -0.016291484 0.22627102 -0.14396818 0.5726534 -0.4698359 -0.007868654 -0.16596398 -0.0026187953 0.29652336 -0.49292502 0.078806385 -0.28317094 0.129752 0.62968814 0.25874332 -0.557803 0.086320646 0.051500518 -0.19332492 0.5643869 0.7780026 0.347721 0.7049297 -0.40591478 -0.3327946 0.27385926 -1.1271019 -0.16291797 -0.40811133 -0.26835278 0.22121261 0.8038542 0.16141523 -0.2011414 0.3676635 0.116089575 0.14475854 0.21014297 -0.34352714 -0.06733736 0.27569085 0.25976095 -0.030517237 0.6040026 0.12395037 0.28317875 0.07536526 -0.69617003 -0.36279967 -0.5024653 -0.0917163 0.17621182 -0.6314457 -0.07229599 0.040324267 -0.6627658 0.1420574 -0.16419576 0.036859933 -0.12643102 0.48047978
3684 -1.2056487 0.37031886 -0.45304662 -0.55822754 0.102733605 -0.11544423 -0.5496037 0.5603813 -0.14671908 -0.05968282 -0.63893884 0.29120484 -0.7758583 -0.04316572 0.12011741 -0.089643896 -0.5015317 -0.31958684 -0.7671692 -0.11205886 0.2473821 0.3115496 0.051945772 0.15457223 0.6531398 0.27146012 -0.19943784 -0.12465437 0.29216644 0.16123874 -0.17157869 0.45724988 0.11130544 0.3381719 0.15683387 -0.2506944 -0.081592426 0.37406027 0.049326424 -0.030194376 0.5688976 0.77600616 -0.3686467 0.5391131 0.21509862 -0.7613402 0.880048 -0.3209417 0.011408193 -0.38773334 -0.9404036 -0.24092868 -0.7387573 -0.36722478 0.69012964 0.026156422 -0.3104318 -0.17550975 -0.76635003 0.16967744 0.028680013 -0.37200695 0.18963698 0.6009898
1622 -0.09427207 0.6096856 -0.27292317 -0.27593133 0.283303 -0.16451134 0.69736415 -0.454136 -0.25925246 -0.11197691 0.13303293 0.3857254 -0.42620245 0.11623587 -0.16228256 0.15217718 0.67533684 0.452978 -0.23846759 0.21280414 -0.04467907 -0.19886932 0.27998522 0.7346847 0.2372093 0.6812688 -0.3552893 0.1288521 0.27314055 -0.9880772 -0.018506108 -0.483955 -0.18489543 0.32321805 0.6606331 -0.0082659805 -0.034622233 0.24723321 -0.1096928 0.23688975 0.32954657 -0.13333388 -0.13355726 0.3165373 0.00910543 0.12241049 0.8883826 -0.032936107 0.22151762 -0.13066767 -0.7643977 -0.2099208 -0.34344065 -0.21405868 0.13705088 -0.5340502 -0.25114304 -0.27194446 -0.4751684 0.15576604 -0.26369402 0.3772465 0.008043172 0.5192226
3320 -0.5351305 0.3961013 -0.38572952 -0.42111146 0.09559108 0.34817553 -0.005058087 -0.54385865 0.09530402 0.32528687 -0.033811145 0.2700281 -0.5386241 -0.14897417 0.21102163 -0.3837169 0.029869102 -0.17295519 0.00060059037 -0.43283236 -0.3677362 0.11284988 0.25423196 0.12864465 0.024694381 0.7125304 -0.62039334 -0.41388318 0.8034693 -0.23818874 -0.20339233 -0.22174923 -0.094562106 -0.21831661 0.48363018 0.20229486 -0.17161854 -0.44955075 0.14270703 -0.01325801 0.26074004 0.13412915 -0.33525115 0.6135326 -0.47518092 0.025702158 0.42496118 0.017357918 -1.1340966 -0.3090544 -0.5827215 0.32745662 -0.7346114 0.51646245 -0.23743345 0.94585913 0.27225378 -0.7160516 -0.82225275 -0.7010931 0.020207265 -0.25186 -0.50686765 -0.048522603
428 -0.2303366 0.020653186 -0.8070704 -0.34827772 -0.6855316 0.037115328 0.9525054 0.42252517 0.06604339 -0.19980957 0.54666233 -0.67611295 -1.0507277 0.18949191 -0.6194495 -0.22934474 0.12911263 0.5253803 -0.53209025 0.2928956 -0.1282581 -0.61275727 0.5665218 -0.08119566 0.41406953 0.39153844 -0.30539957 0.022906246 0.8750843 0.13250804 0.37496042 -0.11269449 -0.16881143 0.28966898 -0.076665714 0.20282766 -0.15477158 -0.19175656 0.55414027 0.48485863 -0.31804347 -0.3881011 0.10583698 -0.10255545 -0.1145832 -0.07676967 0.18540728 -0.26361516 -0.0536469 -0.6098395 -0.7301216 -0.44464946 -0.2371245 -0.12249801 0.39982957 -0.064507864 -0.14491865 -0.255335 -0.3584301 -0.04029401 -0.27674 -0.24770933 -0.45423993 0.27234733
1551 -0.22406824 0.43210977 -0.1816897 -0.28885877 0.09331137 0.032835197 0.6153638 -0.50594103 -0.22215109 -0.16345307 -0.16358288 0.35580903 -0.37089422 0.20447384 -0.45379707 0.2334875 0.7208821 0.21440068 -0.44358498 0.29027045 -0.13088979 -0.4072079 0.3990394 0.7561168 0.35285294 0.51569146 -0.3360843 0.14567605 0.5233427 -1.1295875 -0.015181785 -0.5389822 -0.13596125 0.13008796 0.86005616 0.15135707 -0.24790159 0.13238095 -0.05748599 0.13543922 0.25024644 -0.28738877 0.063556835 0.16424528 0.20602019 -0.14407557 0.6024042 0.2584196 0.1450115 0.12453511 -0.6259441 -0.34411186 -0.38522235 -0.28062358 0.35589147 -0.32515565 -0.2351522 -0.06944646 -0.663167 0.28685927 0.10086119 -0.021621216 -0.019899005 0.49506536
1211 -0.1364215 0.68966717 -0.11659503 -0.31106067 0.22975853 0.0029818742 0.49370217 -0.42391315 -0.16745242 0.058076262 0.0903358 0.35881785 -0.41173917 0.034777585 -0.34692767 0.42966646 0.52803487 0.20058253 -0.5364547 0.2754469 0.03954727 -0.4051063 0.5523054 0.926069 0.32674083 0.71851426 -0.23561342 0.04713216 0.08082686 -0.98522145 -0.031369533 -0.38632292 -0.12978847 0.2806713 0.6901294 0.29918513 -0.092164166 0.13273557 0.0054733786 0.19491167 0.17918344 -0.5137762 -0.2239969 0.34670362 0.25734276 -0.22866772 0.5657695 0.13087319 0.16488294 0.040574785 -0.55200404 -0.22825477 -0.35229352 0.0038073785 0.2699045 -0.45963046 -0.39091107 -0.3321557 -0.70282227 0.14807932 -0.10551325 0.112582825 -0.0961611 0.61513025
2754 -0.121280074 0.55042213 0.00088072265 -1.2726601 -0.2173569 0.65983737 -0.16677752 -0.48183694 -0.28835627 0.4714199 -0.6676707 0.27058578 -0.47315407 -0.26194468 -0.20056818 -0.12626296 0.16901605 -0.27541184 0.34717894 -0.6010713 -0.3853164 0.21852107 0.28514743 0.49632466 0.5179364 0.5428081 -0.12499208 -0.85918903 0.4326377 -0.2550362 0.4750728 -0.8239167 0.16954798 0.11644609 0.13450187 -0.025895052 0.0468432 -0.36389598 -0.19452424 -0.0848331 -0.5295199 0.25377828 -0.12077158 0.2318856 -0.2906326 0.20456433 0.06402958 -0.1968285 -1.0261095 -0.28663352 -0.29227293 0.004814805 -0.7102668 0.37359124 0.56492823 0.34660813 -0.27994817 -0.36172375 -0.6876928 -0.20174293 0.041135065 -0.19882974 0.34871697 0.52060306
1391 -0.25190666 0.44546664 -0.25228885 -0.11916779 0.17192042 0.006277698 0.68605953 -0.35342124 -0.5474867 -0.13595589 -0.12694183 0.4937499 -0.44998163 0.173006 -0.14118554 0.22647962 0.62934786 0.49392137 -0.49783868 0.40082967 -0.0939781 -0.21886295 0.317611 0.6863854 0.17846806 0.6531633 -0.4634639 -0.021288201 0.17588817 -1.038133 0.014486296 -0.2790278 -0.17787722 0.07541425 0.75256187 0.1504197 -0.1245059 0.17750056 0.15693013 0.34217834 0.20086041 -0.25057596 -0.09424724 0.2644639 0.29077405 -0.18273783 0.69159055 -0.095912114 0.12002913 -0.0020435755 -0.6039369 -0.37724903 -0.39250535 -0.175991 0.2142973 -0.6176913 -0.09972503 -0.14752653 -0.35714468 0.29653034 -0.2874012 -0.17539318 -0.11036976 0.72818255
119 -0.68144363 0.3239718 -0.27868024 0.2798902 0.32592988 0.13516837 0.120338745 -0.21225941 -0.5672399 -0.5354566 -0.09930232 -0.5005499 -0.7006745 -0.16635936 -0.5884044 0.6069257 0.78540003 0.523432 -0.18323295 -0.04949811 -0.22768044 -0.18625554 0.8025557 -0.08250479 -0.40314907 1.0015244 -0.4203893 -0.28540608 -0.34855002 -0.31942707 0.88759965 -0.3227159 -0.47203255 -0.08488731 -0.107805684 -0.59357446 0.3085534 -0.33999276 -0.09098854 -0.64377964 -0.80220056 -0.10880468 0.7035401 0.6894611 0.19218284 -0.13072129 -0.3121501 -0.49508205 -0.9877716 -0.50304645 -0.5111541 -0.7282169 -0.8884328 -0.014763764 0.37700763 0.18463066 -0.7881578 -0.6857214 -0.33674732 -0.36474124 0.17551179 0.13310902 -0.7624122 0.78282464
239 -0.3430457 0.3513919 -0.44143793 0.45404813 -0.10002925 0.0981648 -0.22288175 -0.09400501 -0.77718395 -0.7494946 -0.5101879 -0.21221812 -0.67656493 -0.068982795 -0.52417696 0.44419768 0.74532306 0.39837974 -0.12994099 -0.48206043 0.11819555 0.05842275 0.94147193 -0.5165902 -0.23417255 0.70243233 -0.63054484 -0.5051972 -0.15825136 -0.28095877 0.25176537 0.09034127 -0.49972996 -0.4327545 -0.19299267 -0.81742483 0.2779397 -0.1452384 -0.07927346 -0.46716872 -0.66306293 -0.14867723 0.5771301 0.49657598 0.36121875 -0.2159943 -0.04209593 -0.54889846 -0.7539564 -0.4737846 -0.5369847 -0.42813775 -0.83735645 -0.39604887 0.79173267 -0.003477932 -0.49205187 -0.95252526 -0.4901865 -0.5454267 0.20931649 0.31662884 -0.13400602 0.9323381
3434 -0.8941556 0.113172665 -0.19496948 -0.47876623 -0.09002057 0.39662623 0.09182329 -0.5089986 0.2951758 0.3167901 -0.22757468 0.030019676 -0.6232349 0.012896451 0.08518685 -0.34892404 -0.018229578 -0.23484375 0.26005495 -0.30649453 -0.4013227 0.19040349 0.14831194 0.12799731 0.031396747 0.6870577 -0.44941118 -0.5585749 0.73800504 -0.35771188 -0.3402215 -0.24763258 0.041338976 -0.14863871 0.575555 0.058834985 -0.47314274 -0.41748026 0.14104708 -0.031328168 0.20939367 0.3480125 0.059171613 0.89564234 -0.5756102 0.068309836 0.4269257 0.0045174775 -0.9927976 -0.033762306 -0.44339034 -0.07327938 -0.70001054 0.6001921 -0.12650876 0.7898594 0.21086334 -0.5653265 -0.7789443 -0.46505836 -0.23556355 -0.17143245 -0.4557979 0.17548361
3280 -0.7262675 0.17724128 -0.22367924 -0.18493536 -0.25958258 0.61966723 -0.13607857 -0.61236554 0.0070102033 0.13408066 -0.09363726 0.14796452 -0.72858214 -0.1438056 -0.020247422 -0.12955391 0.049070757 -0.26750645 0.15311183 -0.3530111 -0.24892965 0.2668009 0.27376243 0.08384761 -0.12626652 0.5403779 -0.42949048 -0.5349614 0.88692135 -0.5970241 -0.11241275 -0.17161307 -0.11296013 -0.109949455 0.47849274 0.3050363 -0.72644454 -0.6858107 0.36077264 0.2494998 0.19639046 0.27151966 -0.06937283 0.96353334 -0.5403248 0.100048706 0.42099726 0.05398535 -0.9965216 -0.23114966 -0.39731562 0.23032679 -0.49394998 0.61022747 -0.019714264 0.87253267 0.09345158 -0.6423804 -0.7833826 -0.55012393 -0.07643866 -0.3304164 -0.3889812 0.21974565
824 -0.5440088 -0.2682407 -0.98321015 -0.5159859 -0.04364182 -0.5111465 -0.5683139 0.17889884 -0.9447539 0.3227914 0.017392607 0.28762668 -0.26621836 0.07518615 0.037832394 -0.15110442 0.52582765 -0.07130218 -0.27606434 -0.37617666 0.18824258 0.25694942 -0.08370592 0.8595664 0.47762394 0.52724147 -0.6573839 -0.44673777 1.012917 -0.7405861 -0.46154204 -0.19338949 -0.42778128 -0.1805936 0.6605525 -0.55887544 -0.33558932 -0.0837692 -0.14927663 -0.06250766 -0.5121567 0.9162176 0.38317952 0.0135446815 0.64926624 0.09076596 -0.06472383 0.20961332 -0.56055486 0.03183174 -0.8309883 0.23818155 -1.3368167 0.39297575 0.35795394 -0.36898008 0.12314651 -0.67740005 -1.0360802 -0.06273566 -0.5094199 0.5749867 0.6721284 -0.019527778
3116 -0.79500103 0.010340134 -0.09368229 -0.39773324 -0.10705858 0.60073054 -0.011462054 -0.52104855 0.32691777 0.18106283 -0.27929142 0.009133508 -0.54559976 0.02283224 -0.027609797 -0.29283026 -0.04337254 -0.16430043 -0.041492403 -0.35067523 -0.24844252 0.2792557 0.23980062 0.1361154 0.0743467 0.58935547 -0.5825965 -0.7117488 0.9254952 -0.58628273 -0.08191855 -0.080059074 -0.008297399 -0.11592176 0.30438232 0.22502995 -0.56196284 -0.6472879 0.29560885 -0.0065070745 0.22926398 0.24052024 -0.075089246 0.99197084 -0.4704712 0.1440132 0.34831733 -0.001645393 -1.0774323 -0.028213765 -0.3839201 0.121799394 -0.43294567 0.6434189 -0.1080704 0.6011737 0.17088304 -0.446197 -0.78838015 -0.6038778 -0.2113762 -0.034559485 -0.33975008 0.16871479
1471 -0.25689438 0.5795974 -0.014621054 -0.38090512 0.13167833 0.00914545 0.44872028 -0.5292735 0.023669003 -0.124201424 0.04923331 0.25924274 -0.5969318 -0.11349564 -0.13554427 0.33055037 0.5216124 0.43176365 -0.56016123 0.31844103 -0.062693015 -0.42179242 0.39161655 0.89879507 0.4203155 0.482256 -0.45620054 -0.10779689 0.34610277 -1.0136888 -0.111938655 -0.37877324 -0.42284146 0.28991777 0.7341019 0.15888904 0.016652958 0.26100028 0.04232431 0.17698848 0.056196876 -0.2951433 0.026850991 0.26382738 0.103539996 -0.025010036 0.74422187 0.0705087 0.28090435 0.1573513 -0.7178597 -0.3634138 -0.324579 0.05466178 0.2481713 -0.46737847 -0.09036916 -0.16053233 -0.6362601 0.024586441 -0.09771113 -0.2689892 -0.27695662 0.5383578
200 -0.28191146 0.43438548 -0.2602207 0.672473 0.0696844 0.1779657 -0.1537472 -0.050770562 -0.8023495 -0.4525322 -0.42737782 -0.3809636 -0.66839033 -0.22610265 -0.6690739 0.39859056 0.83892035 0.3917408 -0.14764598 -0.3469301 0.14947833 0.022306805 0.77425486 -0.34971517 -0.19789256 0.87632424 -0.4353101 -0.6372338 0.010293121 -0.15099533 0.45883647 0.043755893 -0.2361359 -0.26580164 0.006747463 -0.6679356 0.24710082 -0.11749034 -0.041414496 -0.52989197 -0.7710683 -0.19518965 0.55130833 0.7361139 0.45752496 -0.056037307 -0.25517133 -0.7332769 -0.7190117 -0.68473905 -0.45414984 -0.46838793 -0.6886395 -0.23475292 0.71606475 0.13519149 -0.68035996 -1.0046347 -0.5332464 -0.28378856 0.2685599 0.28620774 -0.17126729 0.9425679
1839 -0.25941452 0.70240325 -0.04370843 -0.29266977 0.042571213 -0.0717307 0.5536391 -0.613847 -0.28729486 0.055800457 -0.021679442 0.28743875 -0.47538126 0.2195979 -0.4402226 0.14336437 0.60877633 0.16689633 -0.3701595 0.2622626 -0.027028231 -0.3668328 0.40823507 0.6317277 0.1854669 0.7248215 -0.48809344 -0.1362978 0.19077387 -1.0963397 0.0633941 -0.43865353 -0.17345311 0.42020914 0.73758364 0.061025977 -0.032274965 0.15216659 0.14968468 0.24054886 0.17496689 -0.34366775 -0.07240337 0.048309993 0.27162233 -0.05628802 0.4756525 0.29612628 0.45738244 -0.10593644 -0.48397672 -0.412545 -0.46105397 0.027422065 0.38244712 -0.46612883 -0.023912832 -0.13883714 -0.7061587 0.16152896 -0.25164208 0.027660986 -0.12582394 0.6249735
1059 -0.16675653 0.45343867 -0.22665644 -0.1774761 0.29276332 -0.09580347 0.66552705 -0.42698705 0.010748675 -0.2027487 -0.09142122 0.34819287 -0.47493297 0.21715714 -0.066878796 0.0015547016 0.49287534 0.4395561 -0.43018234 0.27301136 -0.060794443 -0.33212435 0.50130814 0.700353 0.23714481 0.6898539 -0.39603013 0.18926229 0.5153559 -0.9310547 0.07001077 -0.5041591 -0.12608735 0.24403138 0.8117015 0.29681963 -0.30647576 0.19953789 -0.0014338013 0.11403975 -0.0019903006 -0.394511 -0.26793966 0.32449102 0.20196374 -0.039468028 0.93443435 -0.10300708 0.22022595 0.0010513827 -0.7396208 -0.24104105 -0.22658983 -0.07270324 0.15661451 -0.4352871 -0.29166585 -0.37756777 -0.3956216 -0.068719305 -0.19334793 0.19933324 0.08698551 0.58617055
9 -0.37246212 0.3900462 -0.22947311 0.69442123 -0.04328057 0.18577625 -0.25298297 -0.17179182 -0.7870736 -0.4853441 -0.16020463 -0.48338398 -0.66596675 -0.47529647 -0.661885 0.37264353 0.7365783 0.4556548 -0.38524735 -0.45051727 0.0695531 0.09300872 0.7922541 -0.13405426 -0.09578527 0.7908939 -0.48459202 -0.5240027 0.04633862 -0.22637033 0.34424344 0.29368636 -0.31719944 -0.062323906 -0.026601832 -0.7296988 0.17333966 0.06339937 -0.027794885 -0.7033056 -0.5868676 -0.054278266 0.79004383 0.7449864 0.410606 -0.12815355 -0.46984205 -0.69281614 -0.6575564 -0.618179 -0.697713 -0.29697677 -0.96857166 -0.1327737 0.4428261 0.07409774 -0.65152144 -0.84699696 -0.47086638 -0.35053247 0.38850814 0.028584568 -0.23448062 0.7387532
823 -0.75781184 -0.1002526 -0.88870454 -0.43854773 -0.035359364 -0.632355 -0.5491612 0.23056002 -0.8510438 0.34680992 0.072634675 0.26371115 -0.21252787 -0.0009977075 0.07252763 -0.015809735 0.33403668 0.10188711 -0.3524747 -0.2043055 -0.010317513 0.24017766 -0.032959525 0.7576539 0.40664122 0.5294533 -0.6573993 -0.7231048 0.8396937 -0.68871725 -0.32948786 -0.15835224 -0.47033805 -0.20593767 0.71315944 -0.4396566 -0.3334857 0.053783927 -0.0025721923 -0.23720759 -0.47894987 1.005859 0.43023947 -0.06186866 0.63666034 0.26395938 -0.06455675 0.3020841 -0.6573858 0.19320063 -0.8328854 0.06044973 -1.4068935 0.24785294 0.30685908 -0.42287105 0.11382697 -0.70953584 -1.002806 -0.06353523 -0.52544636 0.5596554 0.7243776 0.0076896483
203 -0.5922132 0.52542955 -0.37105262 0.43341106 0.13921283 0.176194 -0.2501864 -0.089691944 -0.7151517 -0.7834134 -0.29959092 -0.32897726 -0.70070136 -0.14208815 -0.4931562 0.48428184 0.9010403 0.43761775 -0.33352512 -0.14072296 0.005637558 0.18631317 0.7431375 -0.3733018 -0.3367164 0.8559771 -0.66637444 -0.54905516 0.10919058 -0.14017868 0.39650804 -0.08203707 -0.54785943 -0.16915819 -0.1872855 -0.8711301 0.26254055 -0.11345569 -0.11432691 -0.6955699 -0.668464 -0.22788122 0.57310325 0.35093758 0.29191896 0.008624102 -0.06528396 -0.5871957 -0.7761555 -0.48685813 -0.57021564 -0.60913736 -0.7961188 -0.13404879 0.5988421 -0.0052667265 -0.56625 -1.0430148 -0.32660437 -0.4428775 0.26033142 0.24088909 -0.0703394 0.58247167
896 -0.39716363 0.72425807 -0.31797698 -0.42353582 0.05622139 -0.13727798 0.5278456 -0.5752094 0.070757814 -0.36134955 0.40168187 0.5805482 0.047649983 0.15373142 0.055069882 0.041774493 0.38314405 0.18368877 -0.8109911 -0.26939029 0.0371501 -0.5342417 0.3645926 0.26848096 0.48638958 0.29253757 -0.44251728 0.008344879 0.74916327 -0.46453387 -0.24745478 -0.29404482 0.22761385 0.1320435 -0.32560304 -0.43776646 0.06861556 0.20841286 0.80475795 -0.09521415 -0.39654848 -0.4932982 -0.099341735 -0.067526884 0.2863495 0.36791787 0.0699942 -0.10359537 -0.31067955 -0.6265991 -0.7728982 0.17366295 -0.46307462 -0.8063274 0.11595762 -0.051111467 -0.37972453 -0.6932692 -0.77088666 -0.21401665 -0.6024929 0.10257269 0.03796405 0.2570637
946 -0.22987027 0.35000092 -0.23723808 -0.31886205 0.19771291 -0.15189385 0.59461427 -0.616681 -0.060301192 0.22861227 0.08597278 0.44648135 -0.5699545 -0.094291784 -0.2516652 0.3492791 0.39002335 0.40393403 -0.4252866 0.312026 -0.012181063 -0.3896505 0.2579193 0.76712286 0.13606045 0.73074704 -0.3254581 0.039564002 0.26393172 -1.0375361 -0.11971742 -0.44920427 -0.34484428 0.22982773 0.67263305 0.33322877 0.02871028 0.03813257 0.049670067 0.14240338 0.115016855 -0.38291645 -0.39664698 0.3734987 0.26011652 -0.043185685 0.68407655 -0.14994001 0.057721768 0.04575497 -0.6777516 -0.30710548 -0.2615008 0.043511465 0.06039488 -0.48005533 -0.057541523 -0.29337746 -0.5646073 0.07883653 -0.23193552 0.07852219 -0.031731557 0.4977848
1516 -0.18083678 0.63666826 -0.18488483 -0.10327636 0.28047392 -0.06240421 0.6207997 -0.43854162 -0.06786955 0.0112744365 0.06515276 0.53417057 -0.45734268 0.049577292 -0.39197674 0.15135841 0.58691794 0.25274473 -0.40293503 0.28778768 0.13212836 -0.40934223 0.3291891 0.71663666 0.34217295 0.6936584 -0.506009 -0.072214834 0.3231865 -0.83852 0.11694562 -0.42466792 -0.15991049 0.21005563 0.8086529 0.16949481 -0.07544348 0.054828826 0.08957056 0.2732003 0.0036427793 -0.34865066 -0.22919908 0.37830356 0.38289016 0.11912785 0.87856364 0.04205406 0.2588046 0.103423215 -0.59226966 -0.25881478 -0.45650187 -0.1310082 0.3052081 -0.63590485 -0.20599514 -0.22078685 -0.42350733 0.032003596 -0.2050731 -0.16883881 0.065690205 0.7379037
2047 -0.16987327 -0.4834354 0.11732143 0.10583517 -0.13362727 -0.15532637 -0.14359461 0.2911526 -0.9692878 -0.08239119 -0.31274158 0.46621996 -0.38173077 -0.15488096 -0.5634284 0.4460812 -0.70625645 0.18855542 -0.5877561 0.16995154 0.31109798 0.19647264 0.5220714 -0.30304554 0.43122184 1.6469247 0.5632073 -0.121370874 0.57219565 -0.50893116 -0.028736861 -0.2735458 -0.1833006 -0.24666902 0.216978 0.37809622 -0.16926348 -0.20163266 0.09121333 0.34131867 -0.08694218 -0.0498929 0.05368148 0.043831322 -0.41686425 0.2003057 -0.100007355 0.060148638 -0.37197775 -1.0543007 -0.39518446 0.16600238 -0.7696382 -0.086652316 0.29872698 -0.3142686 -0.18083246 -0.6590852 -0.7534367 0.17070891 -0.093963094 0.58052576 -0.42351422 -0.029642848
925 -0.12762386 0.41080317 -0.11639306 -0.20974164 0.14658497 -0.2479415 0.49785087 -0.50220746 -0.2797205 -0.013190415 0.1855138 0.4823897 -0.57527447 0.090941355 -0.25765368 -0.021534787 0.5030847 0.3711833 -0.4556761 0.4362349 -0.12244958 -0.28984138 0.33571538 0.6286897 0.53061366 0.60465795 -0.35274988 -0.06723837 0.5927914 -1.0352778 0.22762324 -0.58266246 -0.36493853 0.32469624 0.81141627 0.5072197 -0.17533325 0.2282505 -0.061032724 0.15777548 0.057989437 -0.2815385 -0.37531713 0.31801346 0.030152407 0.0563936 0.6655417 0.0031958492 0.22991143 -0.098438375 -0.8082598 -0.04210299 -0.30097213 -0.18068558 0.10854562 -0.44938174 -0.13643312 -0.09048272 -0.55255544 -0.014985086 0.034372956 0.2503373 0.03864382 0.21133715
1367 -0.2625949 0.46549162 -0.33991018 -0.19523828 0.12402659 -0.24705954 0.48213723 -0.33738825 -0.051306378 -0.122408286 0.059215542 0.356857 -0.44810766 0.25640577 -0.13555281 0.063672416 0.49893665 0.26315224 -0.23693752 0.36074036 -0.06065273 -0.49277136 0.49090537 0.8391497 0.3094527 0.7265872 -0.30635318 0.21401249 0.26856396 -0.98245275 0.045777146 -0.6545207 -0.3145774 0.14313827 0.7945126 0.1960328 -0.1785321 -0.005111048 0.086321585 0.07872777 0.1142028 -0.47169057 -0.40862325 0.46252528 0.4246766 -0.0045297234 0.7985927 -0.0902955 0.20497535 0.07277318 -0.6859361 -0.079405956 -0.2738739 -0.2215478 0.2410515 -0.5828162 -0.3066154 -0.30619308 -0.6006101 0.0013462453 -0.03457822 0.017917017 -0.15151823 0.48779163
3838 -0.59057087 0.34947434 -0.47040817 -0.7536085 -0.39672193 -0.15458882 -0.77546793 0.42428598 0.23983796 -0.43484828 -0.92585665 -0.22137776 -1.3421997 0.1126586 -0.13084377 0.08155422 -0.40761065 -0.35285118 -0.8045972 -0.4953798 0.045076735 0.49360427 0.11018801 0.28229147 0.5945508 0.45492664 -0.1443951 -0.56403154 0.22908555 0.009670973 -0.22879675 0.49662876 0.66298205 0.1439435 0.18433563 -0.1808617 -0.05257012 0.20977369 -0.070950925 -0.17526725 0.30580887 0.5001337 -0.1777815 0.4904601 0.28070125 -0.31264517 0.74404067 -0.42641434 0.27124065 -0.5274983 -0.8980879 -0.06388646 -0.9038804 -0.17880876 0.73348427 -0.027611254 -0.3861505 -0.39855677 -0.58009493 0.3244891 0.40982848 -0.20816916 -0.12960418 0.96525395
2661 -0.70651925 0.0680444 -0.21211341 -0.30993727 0.009665148 0.4944795 -0.07270458 -0.5520657 0.33358142 0.3506605 -0.17305939 0.083919525 -0.57012624 0.12492022 0.11108944 -0.43232164 0.02162523 -0.1642481 -0.01659704 -0.32774317 -0.3032178 0.13440913 0.22145309 -0.008997653 0.12609589 0.7914534 -0.5265662 -0.6526 1.0373372 -0.51724637 -0.29442787 -0.2852061 0.016584009 -0.06722204 0.34763995 0.10531579 -0.577553 -0.7888435 0.14154726 0.0073068417 0.36983073 0.21875672 0.04164059 0.9547698 -0.2938006 0.07126808 0.45637846 0.20855178 -1.129531 -0.12930338 -0.2848495 0.08393268 -0.46082935 0.60223687 -0.07391062 0.73393095 -0.045278512 -0.5601238 -0.72338337 -0.6167456 -0.22457103 -0.09937685 -0.3714259 0.29377162
1184 -0.2816075 0.50917447 -0.11459492 -0.28742883 0.17696719 -0.15407608 0.5759554 -0.30224782 -0.11502035 0.009292131 -0.052810878 0.20150122 -0.42176163 0.038365394 -0.3098794 -0.07834906 0.44262388 0.43686405 -0.2846331 0.4340477 -0.07144741 -0.37389532 0.45751825 0.7963464 0.28579602 0.60787666 -0.44070694 0.10296132 0.34455884 -1.0421684 0.22767907 -0.6232477 -0.041152943 0.3684073 0.76508397 0.19682306 -0.2152196 0.21357195 0.039007712 0.2087529 0.05435845 -0.39386272 -0.43954268 0.41380972 0.36289486 -0.030470489 0.82291937 -0.03073443 0.286612 0.058831695 -0.708123 -0.23940071 -0.43047756 -0.08323044 0.10400541 -0.52222383 -0.25722325 -0.3685723 -0.5119521 0.06739575 -0.11770761 0.15141338 0.016125511 0.43762568
2793 -0.69566894 0.09356631 -0.18319672 -0.3801427 0.057746638 0.36357185 0.01036247 -0.6047895 0.7129334 0.44017884 -0.36115053 0.18839103 -0.54522467 0.39140812 0.27358475 -0.31817836 0.039969668 -0.1304393 0.047018297 -0.20715271 -0.14130366 0.37039858 0.18160169 0.03772617 0.08280733 0.84189594 -0.47922063 -0.5404393 0.9532548 -0.34599194 -0.25259548 -0.21141678 0.008530325 -0.20174941 0.33487803 0.20618363 -0.3362249 -0.44523817 0.13694915 -0.12749484 0.21287888 0.25544724 -0.12943317 0.85215604 -0.32602856 0.089477934 0.09202287 0.10119673 -1.2199289 -0.2061121 -0.4439271 0.16915125 -0.6252911 0.66556805 -0.17345072 0.63730586 0.08782582 -0.60696965 -0.9380684 -0.48332185 -0.31567585 -0.117123015 -0.38525066 0.4267877
1277 -0.37355065 0.6991195 -0.37164447 -0.4709934 0.05512762 -0.1426755 0.5065853 -0.5767829 0.15188408 -0.35011375 0.37268534 0.52968115 -0.033463042 0.14266832 -0.114164524 0.18516956 0.2904426 0.029608844 -0.9330864 -0.22010106 -0.07299867 -0.41889414 0.35954103 0.3468189 0.3929872 0.17271596 -0.43034205 0.0038802624 0.80677074 -0.4655568 -0.27868766 -0.2716785 0.22709882 0.24852964 -0.41851488 -0.55448955 0.07850247 0.19921306 0.77448606 -0.05874937 -0.4329629 -0.4623001 -0.12745465 -0.05128997 0.22514816 0.31929186 0.014648109 -0.11548557 -0.16019788 -0.6445979 -0.9163631 0.051966406 -0.4152057 -0.74756634 0.18355428 -0.03595855 -0.48683235 -0.7745554 -0.73163795 -0.31502825 -0.69574285 -0.017897587 0.12989059 0.22783844
2863 -0.7438771 0.054741047 -0.45519483 -0.5988126 -0.063946255 0.49965864 -0.13607208 -0.6947622 0.23207763 0.38193578 -0.5767966 0.15113626 -0.5187259 -0.24323203 0.16183999 -0.48628682 0.10396687 -0.3602865 0.11513735 -0.37815872 -0.38833675 0.25603244 0.37631705 -0.05958044 0.32645604 0.52980894 -0.5875665 -0.66929954 0.6905536 -0.37331617 0.065319285 -0.2843862 0.08541173 -0.004857147 0.18156672 -0.06720271 -0.30042225 -0.43867722 0.32891753 -0.14648679 0.20806211 0.17084797 0.111993514 1.0437429 -0.56073606 0.48426002 0.3112407 0.17110781 -1.119259 -0.04954219 -0.45581695 -0.080576934 -0.38175672 0.61652964 -0.20525298 0.33616725 0.33403224 -0.55824095 -0.6316526 -0.54541373 0.06710986 -0.30051807 -0.5239736 0.6496335
3756 -0.9211205 0.38211387 -0.41358408 -0.80667883 -0.08161699 -0.18183312 -0.47015944 -0.12582994 0.0001333992 -0.29587874 -0.7531807 -0.07667816 -0.8004064 -0.2193714 0.03145814 -0.13684459 -0.49333405 -0.53681433 -0.7887451 0.019673536 0.07438859 0.32653597 -0.4205924 0.25968787 0.69184476 0.5143772 0.1914369 -0.092253424 0.10237519 -0.07481093 -0.21325642 0.8194306 -0.05454278 0.07015706 0.042935904 -0.4202623 -0.027207218 0.5252594 -0.22128084 -0.22941473 0.47147208 0.4967589 0.11273957 0.5310246 0.22528037 -0.23606859 0.8764433 -0.48566276 0.13456516 -0.29695466 -1.1278778 0.14333668 -0.83572036 -0.58752894 0.6380437 0.18180573 -0.040776677 -0.4887533 -0.5718236 -0.19742474 0.10872859 -0.026137697 0.08295076 1.0722613
917 -0.44650728 0.800715 -0.2901851 -0.32168925 -0.43818316 -0.03326978 0.49375933 -0.062882744 -0.5355007 -0.27046528 0.23058385 -0.004843507 -0.29965642 0.0018947155 -0.28768742 0.23314391 0.4679626 0.31309414 -0.95729184 -0.2812333 0.28500786 -0.87993103 0.08487869 0.5398963 0.7950847 -0.39021102 -0.7594298 -0.2408201 0.6057656 -0.7642101 -0.460429 -0.34719193 0.12810317 0.4102332 -0.16335052 -0.12778714 0.30581546 0.20275031 0.62368286 0.19981322 -0.18666874 -0.3902508 -0.2551321 0.21123376 0.1981981 0.5252655 0.0610722 -0.18609667 -0.264509 -0.5209947 -0.57682824 -0.18722968 -0.61213803 -1.1027617 -0.04087661 -0.17891818 -0.80241805 -0.56626683 -0.32576865 -0.091153435 -0.5269505 0.38297704 0.05719733 0.0496755
3851 -0.98733956 0.40586329 -0.34097937 -0.6082165 -0.06489138 -0.20172477 -0.6109752 0.45457366 0.027252771 -0.1406969 -0.8571408 0.020187063 -1.1538535 0.012947442 -0.036337055 -0.063684456 -0.32880983 -0.5388164 -0.94418687 -0.3086514 -0.01911706 0.23277628 -0.11229857 0.22339 0.614939 0.35608628 -0.18344319 -0.27074033 0.34794086 0.090408884 -0.08437518 0.39569244 0.11152346 0.41993046 -0.05831353 -0.40885174 0.19027159 0.27128905 0.010532212 -0.014693765 0.486866 0.4510148 -0.17395708 0.5706384 0.24846825 -0.6652233 0.76102704 -0.47790256 0.015708325 -0.32829866 -0.7843883 0.059952024 -0.756004 -0.5963208 0.63651675 0.054183923 -0.15859395 0.030293232 -0.8349138 0.04059373 0.24979457 -0.23026645 0.08606947 0.76799494
1554 -0.029528845 0.4018094 -0.3652791 -0.231538 0.3147697 -0.21349967 0.6987029 -0.44923955 -0.16004626 -0.083625264 -0.06316457 0.6202423 -0.3591908 0.22201733 -0.36898047 -0.027703386 0.6071803 0.13378994 -0.4182379 0.20029755 -0.0457244 -0.40325984 0.40891317 0.706182 0.3824279 0.46717522 -0.19867523 -0.15003027 0.30580422 -1.0942792 0.017573569 -0.5848156 -0.24393596 0.07269443 0.70724136 0.26093444 -0.23010236 0.0040512197 0.054116126 0.32432157 0.14889562 -0.28046012 -0.269104 0.37811965 0.28550717 -0.013270628 0.85197 0.05927084 0.18932252 -0.11177861 -0.8234387 -0.09175729 -0.3370036 -0.30990013 0.27473852 -0.47709477 -0.24923977 -0.18667066 -0.5700523 0.14601365 -0.085921146 0.07992712 -0.034689162 0.4283677
517 -0.57491934 -0.04721613 -0.79255986 -0.7066896 -0.37305906 -0.1520113 0.9953794 -0.005965411 -0.09020493 -0.05884378 0.65182793 -0.39057222 -0.84251493 -0.007923932 -0.20118679 -0.47469908 0.12630793 0.2657927 -0.48547217 -0.030356754 -0.26034793 -0.5500678 0.56521934 0.31244755 0.5721474 0.43436542 -0.50735694 0.10626287 0.9814952 -0.15277691 0.18743233 -0.16476454 -0.38833174 0.5385001 0.01635707 -0.11267808 -0.32027546 0.042187423 0.7796622 0.5059873 -0.09475786 -0.26513624 -0.07235119 0.06601758 0.18615468 -0.1306423 -0.067938715 -0.2845491 -0.0708343 -0.15119584 -0.6544543 -0.22020471 -0.37942848 -0.06358263 0.49429888 0.004228982 -0.026873413 -0.24267377 -0.07135385 0.4168159 -0.2602558 -0.2867575 -0.044264898 0.39916193
1736 -0.2589278 0.54474103 -0.1823682 -0.42977566 0.05283824 -0.035024703 0.69296926 -0.44896796 -0.21805497 0.030740937 -0.03812586 0.24289276 -0.39342132 0.08530241 -0.39108655 0.2732747 0.72057074 0.3810584 -0.21470344 0.15610282 -0.08470954 -0.2351996 0.5342197 0.7582557 0.3357378 0.79974866 -0.39540768 0.109002575 0.023325222 -1.1705908 0.07590155 -0.37262645 -0.27075037 0.24228969 0.5759454 0.2820354 -0.089470364 0.3967723 -0.13127777 -0.017597046 0.37023884 -0.40751603 -0.14239371 0.11373409 0.20849355 -0.19826797 0.5638059 0.053603634 0.33287078 -0.13474232 -0.70559776 -0.121193774 -0.36612085 0.07416105 0.31881815 -0.41741574 -0.20533049 -0.17428972 -0.66988665 0.18351144 -0.27459064 0.16692469 -0.051182415 0.46997002
745 -0.4691854 -0.24895538 -0.8938711 -0.39850202 0.044910852 -0.58565676 -0.3761559 0.08239219 -0.82183886 0.17766957 -0.05683467 0.08559595 -0.41567385 0.114914276 -0.16780062 0.026120089 0.57581997 0.27200657 -0.523846 -0.20337538 0.2532104 0.18661615 0.033983197 0.54697615 0.37480167 0.5674928 -0.8466899 -0.69376427 0.9790758 -0.6243271 -0.5508874 -0.30475184 -0.35731953 -0.22861852 0.73052716 -0.53902656 -0.66804737 -0.0929579 -0.23012863 -0.22444375 -0.7450523 0.9213255 0.3768918 0.00023032198 0.73886794 0.1394111 -0.3450009 0.118736915 -0.6200092 0.07845547 -0.8169238 0.0515644 -0.9425424 0.39428604 0.32333496 -0.057683248 0.11547069 -0.66189086 -1.0232352 -0.069355235 -0.36520097 0.7553343 0.6724507 -0.20580956
3948 -0.8547147 0.3094572 -0.46189275 -0.4939164 -0.38306013 -0.115481965 -0.5485092 0.31945178 -0.062776856 0.21470952 -0.66891223 0.11619682 -0.9933314 -0.12563878 -0.22667164 -0.100143746 -0.2571129 -0.32686913 -0.9552507 0.00437087 0.19279669 0.56230175 -0.25512218 0.2087524 0.70877874 0.30818862 -0.09172521 -0.030167729 0.33442613 0.015311689 -0.35560283 0.5218403 0.08636466 0.34224895 0.06305442 -0.4806759 0.294952 0.47337458 -0.29277366 -0.18909821 0.45673975 0.43221772 -0.2282152 0.71618634 0.3065479 -0.4636704 0.6543214 -0.22238943 0.011842614 -0.36710492 -1.2042319 -0.111359045 -0.8320322 -0.48082986 0.68248117 0.058640674 -0.0247627 0.06035897 -0.8117635 0.0048141195 0.021320796 -0.24747963 0.14451028 0.94204015
3426 -0.05000832 0.52894473 -0.05727095 -1.2541596 -0.012438918 0.47167668 -0.019777233 -0.4526796 -0.5983906 0.2668557 -0.68161637 0.03456462 -0.56881946 -0.11853383 -0.17430983 -0.10416969 -0.06314979 -0.31023833 0.11809588 -0.64306945 -0.39598468 0.3606657 0.37770805 0.4394147 0.3700389 0.77527034 -0.14177717 -0.7241948 0.36972284 -0.35875845 0.5073805 -0.7561671 0.2629259 0.112766616 0.3520382 -0.103672914 0.14994605 -0.24846026 -0.33306172 -0.07909867 -0.29963073 0.32195094 -0.13607824 0.3329694 -0.031769536 0.43143126 0.10576814 -0.5318969 -1.080532 -0.21193083 -0.1581003 -0.048006307 -0.773931 0.61482793 0.21760912 0.30329028 -0.43979594 -0.2538825 -0.5158532 -0.10757157 0.019497162 -0.4385295 0.38562816 0.5496274
3051 -0.63139516 0.22127873 -0.4460635 -0.5112445 0.049472686 0.3571612 0.06665213 -0.4682858 0.28605527 0.53065217 -0.297264 0.21268803 -0.5194965 0.012023443 0.056780525 -0.26715356 0.15485685 -0.29184008 -0.03367338 -0.31578186 -0.32648993 0.39919412 0.16786075 0.046661645 -0.24411641 0.9469781 -0.58513385 -0.45601952 0.5332376 -0.3015082 -0.28486624 -0.27185488 -0.22301754 0.053231753 0.83734107 0.24392284 -0.26066118 -0.34576392 0.123607256 0.04286693 0.576308 0.34162104 0.020716205 0.65604 -0.5882915 0.09845102 0.28459 -0.21176112 -0.9984718 -0.005592948 -0.57606506 0.08214625 -0.56631947 0.55165607 -0.08261523 0.7958073 0.42141005 -0.86348486 -0.9638996 -0.5140106 -0.0815716 -0.30032256 -0.39292324 0.09533658
2384 0.047892563 -0.42260486 0.11594106 0.08400442 0.101836994 -0.3997646 0.0024184184 -0.18028952 -0.5998228 -0.066117436 -0.31823954 0.18215993 -0.40467376 -0.35002658 -0.51118624 0.20115708 -0.40988916 0.4202562 -0.37828445 -0.09550706 -0.13233253 0.019131018 0.6951339 0.005090696 0.4713898 1.3095242 0.3158291 -0.1296413 0.62520033 -0.1374893 -0.14258178 0.03364572 -0.41629666 0.14253224 0.0055850884 0.08422467 0.43205434 -0.4083568 -0.18332522 0.3265191 -0.35312948 0.21581607 0.122021586 0.29395166 -0.33338907 0.13073832 0.3445251 0.34353438 -0.38942438 -0.9763694 -0.21472438 0.2718741 -0.81435984 -0.30814156 0.5421087 -0.37433603 -0.10503584 -0.9507994 -0.49565315 -0.051080607 0.22418225 0.45031875 -0.43646485 0.031767726
694 -0.48079464 -0.12799942 -0.8189185 -0.44992614 0.0023866827 -0.5255379 -0.41626903 0.12729762 -0.9002474 0.45728445 0.06947875 0.041971378 -0.31956753 0.07959002 -0.17955495 -0.15479122 0.62558246 0.11103713 -0.42790383 -0.37177855 0.27223557 0.2758701 0.014488716 0.47745198 0.57209635 0.48142692 -0.7746697 -0.5347667 1.0062041 -0.65700215 -0.43022645 -0.27038795 -0.34327137 -0.21563286 0.6789694 -0.5643673 -0.34915477 -0.03724569 -0.26141527 -0.15452914 -0.75674576 0.82744205 0.40044138 0.084432 0.77166754 0.059484363 -0.21520069 0.19126232 -0.51561433 0.048883084 -0.86892134 0.3466628 -1.1015608 0.48550108 0.3514948 -0.26369053 0.122987166 -0.56363565 -1.2683909 -0.0074778544 -0.3918175 0.82202166 0.6122839 -0.11125405
2719 -0.7491906 0.3043804 -0.3288621 -0.42484033 0.12146596 0.52287775 0.045066707 -0.5470869 -0.031332992 0.4098561 -0.058893904 0.24031293 -0.5650621 -0.23940472 0.28516883 -0.46522966 -0.0152157 -0.23232335 0.102231145 -0.4627968 -0.23526117 0.07127282 0.22849835 0.19233006 0.069974296 0.78839976 -0.47015408 -0.48536074 0.8591508 -0.2646795 -0.26766208 -0.20500115 -0.037859946 -0.031630814 0.36502632 0.23917928 -0.26389596 -0.45081276 0.21717162 0.008176883 0.31550106 0.25895345 -0.12633403 0.7380307 -0.4648917 0.024564726 0.30948913 0.01651835 -1.0006957 -0.1443175 -0.606969 0.16734596 -0.82303584 0.5477502 -0.31947184 0.7230022 0.21661799 -0.5788542 -0.789363 -0.6476454 -0.10128791 -0.27323505 -0.4570001 0.044147603
412 -0.5850544 -0.12136559 -0.933268 -0.8216098 -0.7340856 -0.023064272 0.64897394 0.018371861 0.17483279 -0.3544034 0.77300596 -0.5366755 -0.747285 -0.07327441 -0.31785357 -0.62302417 0.4228481 0.16733372 -0.31081605 0.15209758 -0.07350021 -0.30586144 0.37758783 0.34589782 0.5734354 0.3888901 -0.23570107 0.07064654 0.86610436 0.10400076 0.3326894 -0.124561034 -0.35596696 0.34530514 0.34138596 -0.10999648 -0.12197759 -0.17190132 0.6734869 0.44593564 -0.27382964 0.025294978 -0.14763172 -0.027928133 -0.005290032 -0.15964918 -0.021688655 -0.1374096 -0.18837923 -0.5420146 -0.7655721 -0.21201806 -0.49125272 0.01869147 0.7012699 -0.054669358 -0.23598757 -0.51996815 -0.13948445 0.3377123 -0.34716508 -0.16456147 0.031531814 0.31999087
747 -0.7242355 -0.22485211 -0.8416563 -0.2804298 -0.018290093 -0.60734314 -0.46171734 0.28191563 -0.87915367 0.16921698 0.09085157 0.24218574 -0.34501958 0.0088349 0.14727022 0.048370734 0.3954159 0.17138448 -0.20795344 -0.17563353 0.11335312 0.28213772 -0.09558844 0.75693494 0.32692456 0.6458013 -0.63372415 -0.66228765 0.75126183 -0.7577619 -0.24883103 -0.051667314 -0.42393598 -0.33905095 0.681257 -0.69365764 -0.33935705 0.0088469805 0.19451252 -0.26411375 -0.5590241 0.8809978 0.3144554 -0.026659848 0.44705084 0.20551424 0.03783944 0.24138924 -0.68980235 0.17607255 -0.82299304 -0.033986367 -1.1630614 0.42250466 0.2699715 -0.37344247 0.15717858 -0.97446626 -0.88029236 -0.108990796 -0.37977892 0.6708004 0.9704864 0.13971065
2111 -0.0628621 -0.38786548 0.10198847 0.09772981 -0.12050692 -0.22721726 0.06640434 -0.117002584 -0.7401832 -0.086144015 -0.27972588 0.14063534 -0.5500546 -0.37701073 -0.5510497 0.2538658 -0.44389683 0.3268271 -0.3436905 -0.12775894 0.03172538 -0.028888216 0.6903815 -0.0514083 0.45744425 1.1008612 0.3219051 -0.1655084 0.5612343 -0.21929668 -0.2107526 -0.0971091 -0.39097193 0.08478994 -0.018124577 0.16801028 0.40267348 -0.4015408 -0.061130844 0.36258048 -0.47626778 0.29738837 0.1328683 0.38932553 -0.23332147 0.12320164 0.3117789 0.40706643 -0.25653276 -0.94854546 -0.22672224 0.18444489 -0.9147887 -0.41637945 0.44109708 -0.37903944 -0.0057958714 -0.8115285 -0.4152945 0.070447534 0.2679761 0.4175783 -0.42585102 0.08901937
830 -0.71611136 -0.26453558 -0.9661071 -0.5213394 -0.056035813 -0.49525627 -0.5612696 0.28990993 -0.8843626 0.33680376 0.14304446 0.13103934 -0.18849644 -0.12233778 -0.015009917 -0.0181604 0.50532657 0.007448103 -0.3902124 -0.38051435 0.17850377 0.1733933 -0.108368576 0.5922086 0.4714196 0.4700132 -0.60210496 -0.57671034 0.9000153 -0.7186151 -0.56743944 -0.100623 -0.5039616 -0.105263606 0.64709795 -0.5865621 -0.3358666 0.02585929 -0.14979771 -0.12513696 -0.4467084 0.9156894 0.3446036 0.018034223 0.50169086 0.04758134 -0.06112099 0.359764 -0.5081422 0.21103817 -0.8270996 0.21339099 -1.3446645 0.4150542 0.3383854 -0.3327505 0.026487384 -0.7310543 -1.0508431 -0.06666079 -0.44894755 0.5018228 0.68789417 0.057561364
3611 -0.5285911 0.46204737 -0.36934763 -0.4807029 -0.13979737 -0.12183825 -0.67255026 0.57989717 0.2134346 -0.2705865 -0.96557456 -0.075682655 -1.2902694 0.3352983 -0.15378043 -0.06761005 -0.40015075 -0.36996624 -0.8084179 -0.34381858 -0.0056405775 0.5162381 0.29239467 0.064336844 0.55065084 0.29289824 -0.056792516 -0.54934925 0.2778382 -0.046159063 -0.1240254 0.4057521 0.6189768 0.19138616 0.3200978 0.0134736765 -0.03520703 0.2213582 -0.011350507 -0.019311488 0.25018045 0.6067524 -0.17230354 0.67128944 0.24724258 -0.28956482 0.8996239 -0.5038492 0.25647148 -0.38833562 -0.9218784 0.13241646 -0.8611302 -0.3376894 0.84535354 -0.07715206 -0.28680682 -0.2912939 -0.68585354 0.38765195 0.38492125 -0.25144514 -0.122751005 0.9444614
315 -0.46017852 0.11119779 -0.22094944 0.2656961 0.065711826 -0.22829303 -0.123396054 -0.43443212 -0.60791755 -0.61030257 -0.49654275 -0.47806248 -0.5109055 -0.63877636 -0.5701723 0.40381664 0.6912796 0.37195808 -0.36262542 -0.30166733 0.01296078 0.08152785 0.74187464 -0.50298846 0.053008072 0.77097785 -0.32906252 -0.42697418 -0.08809009 -0.15383793 0.09112593 0.17780986 -0.48104012 -0.39461327 -0.13493413 -0.6936247 0.387396 -0.14154586 0.05548981 -0.62019765 -0.53810406 0.16905987 0.96055615 0.43410233 0.18365069 0.2516632 -0.2053454 -0.54440635 -1.0695719 -0.7567586 -0.5860916 -0.027109642 -1.0153853 -0.23287603 0.5132447 0.049670022 -0.70476896 -0.6988313 -0.2989533 -0.36088535 0.23798202 0.43875396 -0.3147963 0.62113523
3201 -0.83670616 0.26782253 -0.3141556 -0.32024625 -0.24977405 0.6283558 0.10736449 -0.5469739 0.36521533 0.37418225 -0.18896048 0.35288125 -0.60522115 0.038100246 0.106061175 -0.15974246 0.090975665 -0.05443683 -0.06486905 -0.3632079 -0.2849689 0.2048247 0.17731377 -0.101191685 0.04060513 0.52396065 -0.39961573 -0.64842814 0.7859684 -0.63389397 -0.28300992 -0.21151903 0.01324002 -0.15347889 0.3606687 0.18625255 -0.5222605 -0.53503007 0.17191379 0.23719652 0.3425235 0.28602436 0.15650365 0.959963 -0.33477035 0.31343678 0.24742833 0.120698914 -1.0582428 -0.25830278 -0.44205856 -0.042494826 -0.52086556 0.59997964 -0.2725797 0.7025757 0.24020985 -0.4593458 -0.8972683 -0.36797544 -0.05773024 -0.23691353 -0.45111716 0.317917
1185 -0.25048396 0.5167321 -0.3252506 -0.025611939 0.22145365 -0.22423579 0.50560695 -0.55051494 -0.050255537 0.07959431 0.11666838 0.48123208 -0.5866979 0.042593073 -0.39049008 0.25942674 0.6798261 0.23425388 -0.5305702 0.34865594 -0.109541215 -0.30490103 0.41647038 0.6880903 0.4554192 0.48797742 -0.46222 -0.019567776 0.2500879 -0.90325195 0.07283225 -0.48514318 -0.30063942 0.2108827 0.7389339 0.27960095 -0.21126345 0.31177157 -0.07468606 0.21684961 0.1610238 -0.36774522 -0.23479086 0.33817133 0.2790639 -0.08160308 0.7753488 -0.20115021 0.011889763 0.08578138 -0.6184428 -0.2205023 -0.27171308 -0.071801975 0.29165626 -0.5980055 -0.11834001 -0.17555566 -0.4940585 0.07911407 -0.1534951 -0.19313326 0.033496927 0.53641444
3521 -0.6636631 0.7770826 -0.3592478 -0.45354253 0.29131448 -0.25038952 -0.82480234 0.41170976 -0.13470107 0.21928214 -0.48778757 0.23694687 -0.9034397 -0.2838884 0.3640517 -0.3164824 -0.8764514 -0.21515228 -0.30331814 -0.2397638 0.39495006 0.40657994 0.1491775 0.22701535 0.8326765 0.25946355 -0.5650996 0.19302692 0.6471468 -0.4695926 -0.41575286 0.28883883 0.21254122 0.121298485 -0.17578009 -0.6338468 0.08190695 0.27518642 0.17811897 0.16968696 0.37150872 0.64411914 -0.48919117 0.42356712 0.42316186 -0.52068126 1.1602708 -0.6675036 -0.18770762 -0.47912043 -0.758572 0.056239057 -0.58999336 -0.01751037 0.9188973 0.4521857 -0.37832445 -0.5168237 -1.0212153 0.59413093 -0.04589622 0.16574766 0.07431514 0.25445712
304 -0.49777645 0.22392644 -0.1613677 0.55895984 -0.080647536 0.019137183 -0.051164553 -0.27179584 -0.6391789 -0.74147505 -0.38568676 -0.23862429 -0.7332612 -0.35640442 -0.5194402 0.4624063 0.6886307 0.37047058 -0.32779768 -0.38499847 0.06727829 0.14890276 0.8500286 -0.4063191 -0.037748437 0.7461418 -0.4861144 -0.7599566 0.32438552 -0.00412529 0.19054857 0.2904612 -0.39600244 -0.10861385 0.049542118 -1.023614 0.40068078 -0.02897435 -0.3086756 -0.7329269 -0.702594 0.0573036 0.7636977 0.4071205 0.26776096 -0.2176694 -0.06930536 -0.4585344 -0.9126264 -0.6661405 -0.563215 -0.15209743 -0.8128581 -0.18448618 0.44506824 -0.051238928 -0.5170616 -0.77872425 -0.26522014 -0.39518794 0.40026 0.17982315 -0.07404576 0.58549196
993 -0.13766898 0.38875058 -0.14059994 -0.1959892 0.0037393689 -0.05095325 0.7074499 -0.49449193 -0.059598677 0.12177877 0.0044328524 0.48017994 -0.63205403 0.18727168 -0.32185084 0.18925415 0.82714635 0.2758056 -0.43648016 0.34281027 -0.072687596 -0.30528104 0.20513731 0.69461864 0.4065013 0.6073932 -0.35731184 0.30158886 0.60477483 -0.87904143 0.08833783 -0.52833414 -0.26351035 0.24795005 0.7676603 0.0055544884 -0.040725008 0.20077345 0.13136116 0.21735722 0.25838012 -0.31103277 0.020016938 0.18911499 -0.007221636 0.019257287 0.819285 -0.0004984992 0.12412536 -0.0551178 -0.6674599 -0.3008295 -0.23816614 -0.19103733 0.15982948 -0.31670853 0.025890594 -0.0892614 -0.6528999 0.22055975 -0.09447486 -0.013313062 0.00261828 0.4627688
373 -0.46280208 -0.18496935 -0.8916207 -0.7426078 -0.7143152 0.055244204 0.58529335 0.066236585 0.344445 -0.15804695 0.91883165 -0.6283611 -0.6940686 -0.030843819 -0.25594404 -0.417611 0.4774621 0.07002677 -0.47833535 0.25094223 -0.10009609 -0.4248881 0.5170866 0.2469268 0.31051528 0.18741226 -0.46426165 -0.13407964 0.7762764 -0.08829878 0.09941254 -0.038759783 -0.24648732 0.25238255 0.22051746 -0.03311112 -0.14121054 -0.023029476 0.89196366 0.44744235 -0.38824695 0.07488471 -0.057595983 -0.21487722 -0.109939486 -0.08159382 0.055233933 -0.30384114 -0.49495465 -0.5745127 -0.74380475 -0.20010331 -0.58870184 -0.009393092 0.72629404 0.03702707 -0.27860633 -0.5703117 -0.2318701 0.48508337 -0.32978004 -0.0800938 0.079314224 0.42476732
1813 -0.25249365 0.19889708 -0.17625633 -0.36057872 0.0004712559 -0.09284887 0.55535585 -0.4233163 -0.47287253 -0.40311587 -0.008098891 0.39025176 -0.56391037 0.22250523 -0.118472666 0.15855305 0.53662515 0.29450452 -0.21920337 0.35413608 0.04722466 -0.41903976 0.50051624 0.47488064 0.5901462 0.24573757 -0.25040814 0.006267064 0.60983217 -0.7668911 0.044283062 -0.8665034 -0.28344625 0.14104554 0.88030994 0.0032586227 -0.3551453 -0.06616524 0.19390872 0.16358389 0.2610756 -0.22555806 -0.19363773 0.28841472 0.12520428 0.026021075 0.55474734 0.23473555 0.2767294 -0.04505182 -0.5556807 -0.37443998 -0.33557266 -0.28607064 0.16438982 -0.43295112 -0.30265397 0.16543485 -0.7422189 0.2957039 -0.175471 -0.15328193 -0.23991992 0.5339096
1879 -0.19284146 0.5865266 -0.12533584 -0.4220871 0.19632238 0.04118124 0.56294775 -0.36873606 0.048561886 -0.2209814 -0.11685234 0.46514428 -0.3577245 0.0031116763 -0.4213939 0.22086352 0.68868065 0.38218713 -0.39408582 0.30742154 -0.05193489 -0.2672684 0.73268443 0.71711886 0.328588 0.6924621 -0.2720097 -0.02538783 0.2873744 -1.0447097 -0.056335695 -0.37574017 -0.30218482 0.35999507 0.73910654 0.23566608 -0.052396894 0.20963512 -0.13411038 0.019870138 0.18159483 -0.288354 -0.18431082 0.24739373 0.34534872 0.06345643 0.68494046 0.16978078 0.4476224 -0.11899985 -0.6829194 -0.16302375 -0.31991112 0.17088996 0.42629573 -0.4192411 -0.3169926 -0.17337087 -0.70874065 -0.03236661 -0.20661782 -0.022669483 0.0084781395 0.47001505
1522 -0.23391166 0.27031812 -0.18484426 0.050381146 -0.048142385 -0.053228293 0.5773076 -0.4338306 -0.3357019 -0.100368306 -0.08499374 0.46034276 -0.59968233 0.11774288 -0.37373242 0.33234242 0.588087 0.33943102 -0.25048673 0.44761813 -0.04798693 -0.36475313 0.38866535 0.59159356 0.42894405 0.65449995 -0.25162786 0.0854346 0.31086025 -0.6782647 0.017479518 -0.5742189 -0.3898917 0.20904928 0.654505 0.2298979 -0.064392924 0.013266262 -0.12132481 0.23375356 0.31462666 -0.31129748 -0.26152748 0.22999404 0.24013782 -0.03484513 0.8133386 -0.0250659 0.14943308 0.16500731 -0.5926781 -0.12924258 -0.32663444 -0.3134977 -0.09552237 -0.46287757 -0.296496 -0.3271997 -0.6203621 -0.09002127 -0.3889014 -0.014762559 0.02839649 0.65947247
2951 -0.5210497 0.37363687 -0.1819037 -0.6170358 0.29385567 0.121426396 0.3109169 -0.66754353 0.022253448 0.44577968 -0.5177068 0.2701793 -0.34446338 0.33460447 0.06530069 -0.012020777 0.29004923 -0.12381529 0.17496993 -0.24775666 -0.21642764 0.30780798 -0.44571054 -0.13820958 0.10272969 0.79441327 -0.70772904 -0.46512455 0.7250969 0.057683453 -0.31773362 -0.46746472 -0.17119466 -0.30417168 0.46473187 -0.16834708 0.087036215 -0.54355437 0.116035074 -0.020339075 0.404324 0.5369654 -0.0469703 0.80494255 -0.65631866 0.22923362 0.39170083 -0.021932881 -0.7830472 0.01493118 -0.3308709 -0.11896669 -0.6466092 0.5688776 -0.08745451 0.53984517 -0.30986115 -0.9309463 -0.64090616 -0.024543576 -0.5671609 -0.59095234 -0.329113 0.2491918
3232 -0.027552458 0.7627334 -0.090715915 -1.1161978 -0.1975495 0.5153878 0.03314032 -0.4618788 -0.39426187 0.40600953 -0.54228884 0.05769733 -0.65801895 -0.02172233 -0.084256455 -0.1247143 0.09157609 -0.20480579 0.20524512 -0.6930176 -0.2572084 0.13965946 0.31877035 0.23874567 0.31347543 0.58718216 -0.08395329 -0.7092191 0.47828886 -0.126421 0.4974886 -0.92606133 0.16132738 0.11062591 0.32609665 -0.0077431183 0.19732659 -0.30043307 -0.3346322 0.024872083 -0.30094975 0.32607326 -0.33621934 0.2859914 -0.1722875 0.6026274 0.095784225 -0.50115234 -0.9119137 -0.23291762 -0.14322679 0.09812884 -0.86043584 0.25470528 0.5269906 0.4536893 -0.34800488 -0.30876866 -0.71306235 -0.004403086 -0.24418457 -0.30285123 0.40060136 0.6273297
1799 -0.24879779 0.5517375 -0.20312585 -0.03375066 0.35151607 -0.29275253 0.5207495 -0.4200918 -0.22165677 -0.020824997 0.09828313 0.30462936 -0.5586654 -0.052900527 -0.3957193 0.22177008 0.42604384 0.27994567 -0.5691467 0.4151927 -0.15645514 -0.27087477 0.3694816 0.7331728 0.3454269 0.68176526 -0.24166575 0.07467441 0.24782929 -1.0978289 0.023591414 -0.48247564 -0.15943858 0.2959741 0.81605446 0.2596155 -0.14653902 0.1549091 0.11745928 0.21296065 -0.02284889 -0.39498115 -0.37136787 0.5167291 0.22526498 -0.13896619 0.7129246 0.044583656 0.09960754 0.22226791 -0.6180823 -0.25510535 -0.24605733 -0.036298227 0.11245886 -0.53968924 -0.11265645 -0.29648072 -0.6903763 -0.0023903348 -0.1924055 0.093584776 -0.043165416 0.45735502
