40 128
1 0.03319541 0.049274385 0.04618493 -0.0578104 0.024765337 -0.16580744 0.17169213 0.105543844 0.15162049 0.008918192 0.0020402917 0.0016344158 0.093224466 0.059543442 -0.028016774 0.05687456 -0.051823962 -0.20669192 0.08384074 0.13067332 0.13171081 -0.04739457 -0.120051295 0.27051046 -0.12938133 0.18744949 -0.01885234 0.16963509 0.07621254 0.12947235 0.0031749178 -0.019613173 -0.12102345 -0.07482285 -0.10651645 -0.07858786 -0.061195213 -0.09708156 0.030150592 -0.10646599 -0.103050984 0.080339715 -0.09709132 -0.15124352 0.010201017 0.03604009 -0.20369582 -0.039783828 -0.034265894 0.23507702 0.07305879 -0.08959456 0.01052955 0.027551595 0.12314259 0.1744323 0.09154449 -0.01415894 0.10187139 -0.008978637 0.04709011 -0.07603242 -0.18843879 -0.10336754 -0.13169996 0.085995585 0.05225467 -0.023037637 0.052228507 0.15160868 -0.07742119 -0.20055367 0.038645156 0.092336 0.076600365 -0.09583003 0.024322974 0.20458578 0.081618406 -0.14843078 0.20660532 0.012411781 -0.13260038 -0.047002308 0.063426636 -0.121600635 0.03419996 -0.08029649 -0.083706185 0.10716243 0.055106517 -0.021078195 -0.10971664 -0.08684033 0.29738158 0.2510512 -0.20615125 -0.2082455 0.2088261 -0.15857007 0.10510088 -0.35165763 -0.065537736 -0.06583071 -0.0068433587 -0.010036562 0.22156669 -0.053058986 0.20407319 0.075381435 -0.075860076 0.1828743 0.06491591 0.040230613 0.09642932 -0.07311641 -0.022519382 -0.1126547 0.232764 -0.10715438 -0.24632873 -0.0904201 0.09348865 -0.049667437 -0.10697138 0.2920071 0.0458834 -0.10098091
23 0.055933777 -0.045429736 0.13869806 -0.3029585 -0.041233234 -0.08706008 0.26893675 0.059917584 -0.0005116435 -0.057426915 -0.054301076 -0.1263468 0.1178967 0.10809248 0.016641336 0.037041534 -0.08969681 -0.21817163 0.056955013 0.10345248 0.20518433 0.019897567 -0.050564185 0.107092336 -0.098991334 0.17476799 0.108847946 0.15474895 0.12368509 0.13287859 0.048418857 0.014152588 -0.18913306 -0.11875323 -0.046492245 0.039225146 -0.06878159 0.062094383 -0.00031589888 -0.1217141 0.12680872 0.013702549 0.05465716 -0.09738031 0.14279464 0.017418314 -0.104935214 -0.15286465 0.09502963 0.116380036 -0.02857856 -0.15200321 0.15441391 -0.018486325 0.16694155 0.003777843 -0.04866566 0.052694783 0.052460656 0.005222697 0.04171225 -0.044306953 -0.25534055 -0.04715124 -0.121860474 0.19701916 0.14489709 0.09328972 -0.012331044 0.03285013 0.04165948 -0.04408189 0.015497061 0.05020133 0.17312263 -0.0018442781 -0.028845662 0.07952728 -0.0060407473 -0.15088452 0.14359753 0.055711232 -0.09571305 -0.090368435 -0.04697422 -0.07418576 -0.087472074 0.02961099 -0.22506128 -0.018531393 -0.0016025973 -0.08708094 -0.053948797 -0.13371003 0.19123888 0.10425386 -0.22392958 -0.23343085 0.20433696 0.011376653 -0.05198661 -0.15735696 -0.21006109 0.07287917 0.07989338 0.07757112 0.052346256 0.008547762 0.24902616 0.059797037 -0.07509019 0.114262074 0.087189496 0.14566222 0.10651465 0.015233092 0.012054544 -0.18987502 0.10066287 -0.1278931 -0.39230308 0.059708618 -0.0748844 -0.03950489 -0.016834764 0.1456396 0.028905299 -0.16231667
32 -0.10203399 -0.031121878 0.22905812 -0.18971598 0.02894502 -0.07678443 0.23607104 0.087578826 0.009473749 -0.04641694 0.029342292 -0.04499183 0.0395615 0.22590336 0.026234405 0.12432213 -0.07214195 -0.086523324 0.23088461 0.1579253 0.06395586 -0.005531357 0.08078494 0.14037487 -0.1443448 0.07087704 0.03500327 0.106225014 0.086946234 0.17194065 0.11436383 -0.00025011358 -0.1757376 -0.14393729 -0.05407055 0.109353825 0.0042160153 0.02971329 0.035629548 -0.036551666 0.030320147 0.079544485 -0.020786779 -0.061381288 -0.0003580579 0.06881343 -0.0904527 -0.23489343 -0.019151902 0.21104003 -0.018026121 -0.09971751 0.15755849 -0.0204262 0.17877708 0.13694818 -0.0732625 0.0122882575 0.19337484 -0.023999289 0.15418537 0.002954738 -0.32300675 -0.008973788 -0.20717163 0.028810209 0.068765245 0.0962619 0.06732399 -0.032355838 0.06932482 -0.09132701 0.020173464 -0.035003226 0.1528584 -0.04942584 0.0031853523 0.08714024 -0.17272852 -0.08610737 0.06790949 0.0048105456 -0.18361148 0.07982437 -0.021902855 -0.13792986 -0.05427282 0.043986622 -0.13633704 0.062063247 -0.086995654 0.069575265 0.004529167 -0.15400963 0.2761269 0.18093637 -0.14234789 -0.09918003 0.1739754 -0.09055433 -0.0171141 -0.08017741 -0.22476871 0.030656092 0.06440565 0.02901729 0.16623807 0.09056597 0.10180057 0.01103413 -0.083024435 0.08565795 0.11165882 0.039786085 0.12202822 0.123751484 0.0066188923 -0.10626205 0.22950502 -0.12553729 -0.2973944 0.10227337 0.036631584 0.017978342 0.020796662 0.118876554 -0.1332581 -0.040290926
6 -0.16142254 -0.015992388 0.25151706 -0.122798346 0.07040178 -0.04951529 0.20398186 0.09056998 -0.01069998 -0.07193319 0.06168368 -0.022347491 0.021652486 0.24008398 -0.0029143814 0.18561584 -0.037768517 -0.00064714614 0.3190713 0.19422467 -0.0062879664 -0.04226949 0.10351619 0.16826083 -0.11915568 0.020752411 -0.0046702586 0.122526385 0.10249402 0.22667225 0.1711226 -0.009681368 -0.17645708 -0.18531485 -0.08308083 0.13015515 0.0033138916 0.020471197 0.030485906 -0.017536016 0.00829165 0.12133893 -0.05315404 -0.0644791 -0.053257 0.098261885 -0.06583543 -0.2453071 -0.02438953 0.25590068 0.019810604 -0.091796406 0.19184741 -0.012612129 0.1592539 0.19049634 -0.11343411 0.012893324 0.23793165 -0.03717245 0.18963952 0.017264923 -0.35212848 -0.006431689 -0.23158452 -0.06074924 0.0415072 0.12888952 0.081153676 -0.040219385 0.079112224 -0.0703019 0.043318354 -0.11027074 0.16073474 -0.06746121 0.01917829 0.055040225 -0.23499894 -0.047300965 0.027011724 0.0041218996 -0.16298501 0.17190698 -0.020999772 -0.199162 -0.07213079 0.050934978 -0.10863695 0.09628661 -0.12768748 0.12406001 0.037792068 -0.20716155 0.30168793 0.22458874 -0.14045672 -0.03909218 0.19322884 -0.14161488 -0.025616255 -0.05376072 -0.22743632 0.010816822 0.06618242 -0.019989137 0.22313981 0.13381338 0.04358589 -0.027011737 -0.077071086 0.055081878 0.0895882 0.03176834 0.14357059 0.14227945 -0.000756075 -0.08667722 0.26195306 -0.14633808 -0.27040052 0.12358699 0.082706355 0.025682835 0.031021843 0.10962964 -0.18781163 0.027909925
33 -0.16758569 0.026941916 0.15669993 -0.111237966 0.020293545 -0.13029411 0.12205572 0.06119802 0.06739052 -0.028629374 0.018124338 0.0032462294 0.0023385736 0.19645661 -0.010678948 0.09882182 -0.0054406174 -0.07275273 0.21847536 0.16249372 0.05511295 -0.05027003 0.06727836 0.19079387 -0.1436288 0.09249241 -0.038983244 0.10317621 0.030775689 0.19884102 0.17726406 -0.021001829 -0.1619833 -0.14808913 -0.04068614 0.040514734 -0.024380246 -0.022655755 0.035114836 -0.032910537 -0.09367428 0.13748188 -0.12547629 -0.053541675 -0.07466686 0.08522164 -0.10765398 -0.17431845 -0.049964555 0.24963777 0.021767087 0.0015713028 0.11271863 0.014815797 0.10730483 0.20137803 -0.058839273 -0.046173073 0.21332368 -0.017911261 0.13597722 0.029584361 -0.3026474 -0.025704566 -0.2006128 -0.047362104 -0.022002151 0.065424874 0.030571632 0.010843211 0.012854025 -0.086614594 0.04612435 -0.023631794 0.087586716 -0.08265406 0.041640107 0.09629913 -0.1492667 -0.049158208 0.07879429 -0.04391158 -0.18090816 0.12526563 -0.019242663 -0.2087437 0.030270398 0.06269166 -0.103401914 0.11764626 -0.06170764 0.05586517 -0.059647907 -0.14578661 0.34943458 0.25580743 -0.11471234 -0.06845772 0.18166605 -0.14752787 0.07130456 -0.14980747 -0.1403386 -0.047667775 0.017875733 -0.015906096 0.19176967 0.0957028 0.10518633 -0.012674139 -0.061541904 0.1108975 0.07921732 0.057792798 0.1110178 0.08546481 -0.028600806 -0.03322685 0.28010315 -0.10651999 -0.16445722 0.02971452 0.122975744 -0.0033292014 0.039392073 0.13066944 -0.12337 -0.005163688
30 0.055699017 -0.04951297 0.2102183 -0.25664943 0.03885028 -0.019079644 0.35867104 0.118652135 -0.0568567 -0.094570406 0.024195326 -0.12296256 0.1502715 0.15447463 -0.011614444 0.16195297 -0.10674129 -0.12471866 0.19764695 0.17411633 0.11840689 -0.006111923 -0.04022221 0.14705898 -0.06027355 0.111432835 0.11074962 0.23333837 0.20935532 0.20365697 0.03284738 0.021192528 -0.17017442 -0.17073286 -0.12368841 0.091433205 -0.05460844 0.06973506 0.023974631 -0.10775726 0.2128909 0.0065985094 0.10541235 -0.16283062 0.15824401 0.04914459 -0.05855561 -0.16640581 0.12412272 0.15410025 0.029192338 -0.26828447 0.2310932 -0.04337311 0.18738991 0.02105537 -0.06390514 0.12199921 0.059671365 -0.029100854 0.09559567 -0.07015735 -0.29314992 -0.05883701 -0.13588649 0.122925796 0.1947103 0.11818829 0.029067948 0.02417116 0.07881583 -0.030193213 0.02861428 -0.051130284 0.22576256 0.008676263 -0.018440887 0.04038239 -0.05865697 -0.17059304 0.06504288 0.10706964 -0.030931778 -0.036222786 -0.019553658 -0.09407871 -0.2072777 -0.0049987882 -0.15286522 0.010096654 -0.052030273 -0.0073301825 0.04080651 -0.20437044 0.119025856 0.092327856 -0.22789067 -0.1538536 0.2136101 -0.021426892 -0.14356437 -0.07679238 -0.23132613 0.11723756 0.1302527 0.019533236 0.12999412 0.02517488 0.16612026 0.026609387 -0.072629996 0.034243397 0.06568867 0.108934395 0.13063878 0.03370221 0.03949367 -0.21184076 0.08268058 -0.17542149 -0.46788028 0.1213521 -0.07761845 -0.02377867 -0.061090752 0.16443795 -0.019197222 -0.08594512
22 0.015979609 0.0031897707 0.09269956 -0.35211337 -0.062283035 -0.13964018 0.23487838 0.049836826 0.037400935 -0.067591794 -0.07605957 -0.16002025 0.12555507 0.105928116 -0.02307818 0.0074438285 -0.022670351 -0.22408615 0.055113167 0.10913924 0.24206291 -0.009436742 -0.08299247 0.16135336 -0.084566295 0.23950934 0.062124014 0.20882922 0.10204246 0.19430599 0.13909642 -0.00072256173 -0.20760487 -0.14843954 -0.029940888 -0.016718369 -0.14090826 0.0586615 -0.002032798 -0.16788304 0.09540736 0.042673882 0.01289914 -0.11287941 0.15502544 0.03596728 -0.09087046 -0.099683374 0.14764306 0.13060236 -0.0007716346 -0.094848335 0.1634148 0.013629589 0.10553548 0.008076202 -0.051834483 0.009325996 0.01818442 0.020137968 -0.00050759607 -0.020503495 -0.25647074 -0.062980056 -0.09314771 0.18327625 0.08094556 0.09783278 -0.08096117 0.071148716 0.0024033857 0.046025824 0.04324364 0.0501326 0.14276455 -0.00547595 -0.0075817932 0.05582997 0.04983736 -0.13076551 0.14912577 0.03921452 -0.017101612 -0.086721756 -0.09596755 -0.12091186 -0.03701044 0.06314977 -0.2348786 0.0021292162 0.029618777 -0.16634227 -0.11371064 -0.136514 0.19271278 0.12937383 -0.17335312 -0.19644146 0.20979983 0.033528242 -0.0049357233 -0.16879869 -0.1336469 0.038480148 0.03234988 0.05713481 -0.010266281 -0.0072298264 0.2666809 0.025393961 -0.041012786 0.097807236 0.028757675 0.20560542 0.09634123 -0.04523933 -0.0016076404 -0.1265483 0.069518946 -0.118794225 -0.29725578 0.010376787 -0.06251884 -0.06955856 0.019538539 0.10468 0.08032947 -0.15182112
9 -0.15182535 0.077208005 0.038742837 -0.3129556 -0.12461397 -0.3176464 0.055420265 0.0029144795 0.22721024 0.05198692 -0.13233572 -0.037812088 -0.035338514 0.15277846 0.03814398 -0.15976028 0.0014741682 -0.32103756 -0.03264969 0.075675845 0.28228307 0.0074587245 0.030370103 0.1870723 -0.28085682 0.30530137 -0.027132604 0.036048662 -0.10451892 0.1019975 0.22693238 -0.043806333 -0.21425155 -0.037229195 0.093541116 -0.09127793 -0.08316542 -0.02104213 0.008310131 -0.10148838 -0.21609661 0.10844499 -0.18982807 0.02094432 -0.025440652 0.02678291 -0.18872918 -0.14857356 -0.07664732 0.18190894 -0.08422682 0.1705032 -0.03262666 0.052414495 0.09199976 0.14998661 -0.0009793891 -0.16198082 0.14957567 0.034046263 0.0014909394 0.076807775 -0.25069103 -0.011366434 -0.1566697 0.14808625 -0.107445024 0.013124818 -0.067342624 0.04354351 -0.06250909 -0.07341315 0.011769691 0.20156579 0.013982522 -0.09716049 0.039371643 0.19831795 0.01881124 -0.060614765 0.2661449 -0.11622784 -0.27054334 -0.047885753 -0.07976013 -0.13258561 0.25459573 0.11423654 -0.26196122 0.0670764 0.07667996 -0.16160429 -0.2586617 0.011484855 0.4363233 0.25282517 -0.11315387 -0.24624182 0.18485117 -0.0054627513 0.25124553 -0.32713762 -0.08749602 -0.11609265 -0.09675891 0.13073449 -0.00036714764 0.011761993 0.3150999 0.052702628 -0.06682359 0.26872018 0.1200239 0.16704524 0.069225684 -0.0044490327 -0.059190024 0.0006400453 0.30621335 -0.05884357 -0.096750885 -0.0962159 0.09932888 -0.057511363 0.09331682 0.13644895 0.009116948 -0.20643856
15 0.040159065 0.03625955 0.033183903 -0.072870314 -0.040904213 -0.23893774 0.14393973 0.08580633 0.23464255 0.07469781 -0.04067757 0.041035097 0.030061383 0.06357127 0.03204517 -0.04586004 -0.10522404 -0.32751492 -0.039980177 0.077421 0.19722581 0.016379928 -0.090968885 0.21997501 -0.23382849 0.23400818 -0.012523212 0.068132274 -0.010968124 0.024263518 -0.056398746 -0.018990742 -0.09765455 0.025833247 -0.0408715 -0.10402479 -0.0052450136 -0.12103384 0.049751524 -0.075198285 -0.18918535 0.059475828 -0.12745176 -0.08813617 -0.03235499 -0.005529393 -0.25043157 -0.071145564 -0.1385812 0.20054898 -0.0027037836 -0.022137286 -0.10726603 0.03335287 0.16195813 0.17819431 0.1643378 -0.06608831 0.11810097 0.0007821431 0.028648628 -0.055135444 -0.14712046 -0.06476844 -0.13881554 0.14552358 0.01880431 -0.107457556 0.062578656 0.13444217 -0.10860304 -0.28883952 -0.010627441 0.23170592 0.0063695237 -0.10600057 0.026979782 0.28723404 0.09856805 -0.1436573 0.27370822 -0.050621126 -0.27248266 -0.10581686 0.09283874 -0.031587 0.14783247 -0.07668166 -0.099613294 0.09053584 0.091695964 -0.02959389 -0.16376671 0.041258954 0.34219754 0.2277153 -0.17934422 -0.28634337 0.1497448 -0.13402936 0.1827495 -0.4167182 -0.06627657 -0.090692595 -0.039428893 0.061810907 0.17765506 -0.06998678 0.23918644 0.14082679 -0.09969903 0.27721378 0.14011969 -0.0050675655 0.061093684 -0.039777406 -0.048221357 -0.09465522 0.30355027 -0.05986111 -0.17662749 -0.12429821 0.116177365 -0.03832396 -0.096579544 0.29749042 0.036008693 -0.16576605
3 0.08214462 0.039654978 0.046839464 -0.19438818 -0.0027536643 -0.12553172 0.26939356 0.109242596 0.063627034 -0.053210944 -0.014066197 -0.107046455 0.17632303 0.062032983 -0.0679412 0.079547934 -0.034816053 -0.2006517 0.0958819 0.1541306 0.18479905 -0.061504085 -0.17504625 0.25729263 -0.043537583 0.23102862 0.040619392 0.29383427 0.17190826 0.22236551 0.04881111 0.0012186681 -0.1446747 -0.15998448 -0.13097727 -0.063149214 -0.14921558 -0.018056761 0.03969604 -0.18529032 0.08897159 0.04760338 0.0057363156 -0.2213921 0.16408007 0.039633553 -0.1266664 -0.004513407 0.15406433 0.19574614 0.10120514 -0.18071923 0.13769235 0.016262883 0.09657412 0.06158358 0.014207463 0.066316426 -0.0019765985 -0.014389727 -0.0027279183 -0.08031571 -0.2144796 -0.12878056 -0.082133695 0.12278202 0.117136076 0.027004542 -0.043307275 0.15920784 -0.053074554 -0.026888324 0.06831666 0.027405007 0.14119269 -0.034185916 0.018429587 0.094403476 0.115390755 -0.19123945 0.16011803 0.07124186 0.03785742 -0.09661034 -0.007187264 -0.13969263 -0.08442132 -0.04048762 -0.13048567 0.07452656 0.052933943 -0.12187553 -0.08614327 -0.1682033 0.16674295 0.17285854 -0.21615279 -0.16729656 0.24331275 -0.054047108 -0.012725549 -0.25265256 -0.08130085 0.02759206 0.049269993 -0.020850196 0.12113044 -0.06032563 0.2464615 0.019864714 -0.02816638 0.084325135 -0.0032515768 0.14423276 0.09814327 -0.1205384 0.008174614 -0.12922753 0.06667271 -0.15248016 -0.34119448 -0.0410474 -0.018394774 -0.0909225 -0.082389675 0.21529093 0.11991432 -0.108071156
35 -0.10085013 0.052449055 0.10377881 0.033138923 0.065992005 -0.13160744 0.118475795 0.09834736 0.10550726 -0.024304178 0.057489514 0.05760645 0.057940397 0.13860695 -0.04564158 0.15739019 -0.0064493194 -0.054462723 0.250252 0.1773368 0.0012576589 -0.102231845 -0.031528026 0.2738355 -0.09517824 0.087940745 -0.08881645 0.17408092 0.0700259 0.2245612 0.10554608 -0.033052363 -0.13298841 -0.15630649 -0.11942456 -0.016974716 -0.04013554 -0.10238725 0.055825885 -0.051396526 -0.14604796 0.15767838 -0.15564923 -0.13469024 -0.09268952 0.079152115 -0.1548182 -0.09154524 -0.057873543 0.30274186 0.11646355 -0.044149753 0.07605389 0.03180981 0.07845843 0.25497332 0.0029027767 -0.033629607 0.20445332 -0.02941863 0.13096792 -0.034903903 -0.25287664 -0.08403866 -0.20116411 -0.087382734 -0.014674048 0.0054352777 0.05883084 0.1080699 -0.052650217 -0.16267051 0.07159376 -0.02610577 0.07657824 -0.122779235 0.049713228 0.1300916 -0.091679625 -0.082786314 0.10713696 -0.02500077 -0.13525838 0.113920204 0.052294414 -0.23229423 0.014751571 -0.022335554 -0.02462903 0.18160395 -0.035688996 0.08932256 -0.053694904 -0.17274366 0.3515101 0.30792186 -0.1525426 -0.06591855 0.22016062 -0.2578471 0.09329811 -0.25533533 -0.09218499 -0.08122671 0.022576207 -0.10262594 0.3020811 0.052272603 0.096780874 -0.014220904 -0.041586384 0.118456416 0.048754435 0.0075328173 0.11021907 0.015103517 -0.03330378 -0.038333647 0.30061853 -0.11434602 -0.16310833 -0.038207375 0.17107812 -0.024900978 -0.036500648 0.22618525 -0.078998655 0.0342647
4 0.04225172 -0.0055129654 0.102973014 -0.28013924 -0.030114949 -0.120601885 0.2435121 0.06812493 0.038518623 -0.047612816 -0.051917825 -0.12594594 0.114860475 0.098369926 -0.0075057396 0.024946975 -0.052100644 -0.21166879 0.04817473 0.1034011 0.20552495 0.003337478 -0.0857406 0.14747259 -0.09140026 0.1970647 0.06263604 0.17729811 0.10466143 0.14456989 0.06459895 -0.0023438628 -0.17752646 -0.118363105 -0.05767669 -0.010567569 -0.09929117 0.037213445 0.0030304175 -0.14566715 0.08216128 0.021982955 0.016763767 -0.12098163 0.12446095 0.028289372 -0.111562215 -0.10160744 0.09541217 0.13254273 0.0076685264 -0.13033654 0.1299891 -0.003127349 0.12754701 0.032588404 -0.010753447 0.024119966 0.030848868 0.012849957 0.011868468 -0.04420883 -0.22826669 -0.07108621 -0.09667092 0.1737721 0.10781164 0.072222725 -0.03160086 0.07031754 0.0012011145 -0.033896774 0.036140744 0.06067715 0.14126232 -0.012495761 -0.0092320135 0.0958658 0.04496547 -0.14690009 0.15372393 0.054234214 -0.05108061 -0.09621432 -0.045915373 -0.09480912 -0.05560974 0.022891834 -0.19501078 0.0077906176 0.031207854 -0.11237958 -0.08846159 -0.114657335 0.19614677 0.12927648 -0.19686417 -0.21012743 0.1977387 0.000949571 -0.0058848155 -0.18785986 -0.14023702 0.02884976 0.047764678 0.051121466 0.05573678 -0.022076389 0.24722558 0.056756064 -0.061367873 0.11314391 0.057841487 0.15362439 0.09522373 -0.035998903 0.0031084558 -0.15774675 0.10546555 -0.12301313 -0.3312182 0.010036668 -0.045204904 -0.053535264 -0.030322563 0.16258985 0.064300254 -0.15071657
14 -0.016175568 0.035467226 0.09733224 0.015983045 0.06189303 -0.12161741 0.16578248 0.11703277 0.09607 -0.028071484 0.059057437 0.036972422 0.10320563 0.10866472 -0.043476425 0.16357335 -0.03927556 -0.11138883 0.21517497 0.16915448 0.0350951 -0.094291195 -0.08950535 0.28122514 -0.072816975 0.11260176 -0.060154542 0.20861644 0.10629778 0.20528968 0.032678332 -0.024681449 -0.12597296 -0.13662969 -0.13497962 -0.037469037 -0.043843918 -0.10664605 0.052484035 -0.06987743 -0.10706466 0.12949868 -0.12310059 -0.15677966 -0.04669018 0.05537801 -0.17157246 -0.05923705 -0.032119196 0.27805147 0.12748756 -0.0985663 0.06294907 0.033033483 0.09423188 0.21270013 0.045742832 -0.014267293 0.15311271 -0.030331438 0.11004515 -0.07417628 -0.21075344 -0.09725574 -0.17530565 -0.03625368 0.034085568 -0.007667748 0.06677319 0.14408602 -0.06761151 -0.18379799 0.067544736 -0.002481626 0.080734186 -0.10370949 0.030479388 0.14610879 -0.028865397 -0.11200167 0.1239012 0.001886147 -0.10895164 0.057799682 0.06814212 -0.1884265 -0.008785839 -0.066565715 -0.016725319 0.15932061 -0.009851942 0.06649297 -0.049601853 -0.15680118 0.3016299 0.26645318 -0.17181486 -0.10368002 0.21256043 -0.24906969 0.06606953 -0.28589326 -0.07605765 -0.057569265 0.034069803 -0.09432517 0.28688815 0.005764001 0.11492555 0.017765667 -0.039950877 0.1220849 0.04354608 0.00024956 0.099154636 -0.016937582 -0.023099532 -0.07359816 0.26080847 -0.1086342 -0.18294752 -0.060221568 0.14199698 -0.032461133 -0.071722634 0.25400558 -0.025659263 0.002349765
24 0.016104104 0.004595165 0.09848998 -0.25553566 -0.026085004 -0.12797397 0.22043541 0.06322025 0.04876184 -0.04720361 -0.043181982 -0.10894288 0.11172519 0.101231545 -0.010433371 0.03732604 -0.04362113 -0.19293825 0.08010898 0.11165889 0.19151758 -0.017456679 -0.073739246 0.1678164 -0.092380434 0.19506316 0.0442403 0.18520966 0.096900284 0.16900453 0.08412297 -0.008099945 -0.18907204 -0.13233992 -0.06039041 -0.0056494377 -0.10248365 0.025390713 0.0042696106 -0.14019023 0.053704757 0.044147875 -0.009938462 -0.11648759 0.103026375 0.030939616 -0.116920725 -0.10250788 0.09102977 0.14983472 0.026296185 -0.1092233 0.12586558 0.011460376 0.113811366 0.05685651 -0.022723913 0.004504608 0.049030486 0.009975723 0.02787405 -0.039350286 -0.24038415 -0.07028263 -0.10938761 0.14143635 0.08645432 0.074121565 -0.028741665 0.07583426 -0.0043439493 -0.03226395 0.04685591 0.041459728 0.1417329 -0.02409554 -0.0054685874 0.09422849 0.025520036 -0.13297753 0.14491178 0.040981214 -0.05620356 -0.06832842 -0.043623645 -0.12144299 -0.040919073 0.028189333 -0.18378277 0.025538933 0.02235165 -0.09726451 -0.084026806 -0.12788945 0.21991636 0.14972435 -0.19030124 -0.19266151 0.20376618 -0.028944703 0.0091151735 -0.19294335 -0.13355348 0.016226457 0.038859095 0.032024454 0.07014462 -0.007522111 0.23219827 0.035778463 -0.05219338 0.103921406 0.053299177 0.15380293 0.10164177 -0.03124629 0.0029541617 -0.1329046 0.12154599 -0.11634444 -0.30098408 0.0009408989 -0.024025623 -0.05166996 -0.011922919 0.15984344 0.04880685 -0.13058037
2 0.09859484 0.0050201425 0.053736206 -0.048839398 0.021095093 -0.15460613 0.19235879 0.103705004 0.17153077 0.04174739 -0.009022484 0.017961314 0.07585842 0.047386877 0.028473401 0.015273284 -0.12802102 -0.24632393 -0.014967073 0.08862317 0.13402 0.016998751 -0.10585613 0.19739428 -0.16928056 0.1738944 0.030212443 0.08950105 0.054018874 0.01107532 -0.118878745 -0.0057909265 -0.093398884 -0.0007977368 -0.09489909 -0.05906497 -0.0077596405 -0.09101919 0.030789055 -0.08290537 -0.08652406 0.030904304 -0.04244545 -0.13318044 0.01714155 0.0030237776 -0.2291151 -0.07083402 -0.10177686 0.19796014 0.017769296 -0.1303474 -0.039825402 -0.0018089539 0.20048136 0.15588377 0.14673673 0.010471122 0.09728521 -0.009822005 0.045654964 -0.09963313 -0.15853177 -0.087563545 -0.13963902 0.16137221 0.10112798 -0.054409333 0.10399431 0.13254549 -0.0686514 -0.2985819 -0.0075926255 0.17074168 0.08176053 -0.08563637 0.011006629 0.25923786 0.0835912 -0.16999358 0.25074401 0.020470679 -0.21867101 -0.09923078 0.09968784 -0.028250724 0.025771806 -0.11711722 -0.087174065 0.068844974 0.061554898 -0.000604451 -0.09277429 -0.017829278 0.28517234 0.21928288 -0.23630047 -0.28148988 0.17343651 -0.13775304 0.098729625 -0.37351015 -0.119884364 -0.0396034 0.0030482113 0.05600839 0.22868802 -0.063162014 0.20719065 0.14337882 -0.11481237 0.23091482 0.13001113 -0.008463705 0.09811387 -0.02998402 -0.015612631 -0.17076471 0.25408533 -0.11210939 -0.31290752 -0.055203654 0.07129493 -0.031270158 -0.15522613 0.32315686 0.029948842 -0.14121348
5 -0.0019276657 0.046126295 0.06173317 -0.18781944 -0.010275224 -0.14502211 0.18566857 0.08002096 0.08852327 -0.033991378 -0.02590037 -0.07156886 0.102717414 0.096693516 -0.04101863 0.04176526 -0.01408781 -0.18099979 0.10222407 0.14044005 0.16782649 -0.048446633 -0.092493996 0.2261158 -0.093703374 0.20292397 0.006673156 0.20864531 0.09854037 0.19697444 0.11436544 -0.014817045 -0.16696441 -0.1436962 -0.080915436 -0.04798919 -0.11095199 -0.025426243 0.0264376 -0.14062816 -0.0073188962 0.084270544 -0.06369705 -0.14813219 0.07990187 0.04924741 -0.13251933 -0.06925072 0.07448501 0.20955618 0.056447715 -0.07268059 0.10813943 0.023500523 0.09672886 0.11360835 -0.008498336 -0.0034692825 0.072300985 -0.0034738635 0.030720897 -0.033141304 -0.2397131 -0.09136482 -0.12252234 0.08536375 0.041595556 0.041111354 -0.028843097 0.11200757 -0.03623735 -0.04345911 0.06099915 0.043099076 0.107197195 -0.05529744 0.025158722 0.103740655 0.042905048 -0.13058649 0.16362971 0.01626363 -0.059225753 -0.035703726 -0.026885087 -0.16284478 -0.0017617013 0.0055627967 -0.15257291 0.07922189 0.029525198 -0.09690367 -0.116784096 -0.13757521 0.2548943 0.21071123 -0.18514474 -0.16052605 0.2314519 -0.071231276 0.057668354 -0.25687778 -0.091935545 -0.018267184 0.01329837 0.006037604 0.12261655 -0.014388477 0.23153387 0.015589292 -0.044922803 0.11874417 0.028518023 0.13703337 0.098700166 -0.0681066 -0.012422013 -0.089517824 0.15380986 -0.12305999 -0.25466165 -0.037019733 0.034193285 -0.06639901 -0.031115822 0.18446144 0.049414694 -0.10170265
20 0.047142837 -0.07472035 0.18901312 -0.20535873 0.019455368 -0.050428614 0.27730158 0.081976034 0.009774129 -0.03377042 -0.008372099 -0.07066045 0.072554395 0.13609204 0.057383083 0.07635741 -0.1429774 -0.16772926 0.08054875 0.10041068 0.12482261 0.060214467 0.008750826 0.07862896 -0.13543883 0.09387283 0.1102562 0.07308446 0.09926749 0.05164127 -0.045262333 0.02014536 -0.13817956 -0.061914954 -0.05581768 0.08170309 0.012120048 0.04487057 0.0108140325 -0.050039094 0.10045879 -0.0064428994 0.078449436 -0.08467988 0.07932732 0.015382559 -0.122909054 -0.19553417 -0.01841712 0.11860212 -0.050520353 -0.19098935 0.11367841 -0.051669806 0.23722261 0.051275525 0.0018409909 0.06713855 0.09423944 -0.009301838 0.08934243 -0.063488275 -0.24127838 -0.029363932 -0.14312664 0.1876486 0.16771616 0.066870175 0.077461936 -0.0050287414 0.0674881 -0.1633884 -0.021158593 0.06591388 0.17249782 -0.006143917 -0.026083214 0.13357243 -0.06008304 -0.14926378 0.14085439 0.05734421 -0.18782635 -0.068258666 0.008911172 -0.012702931 -0.1058271 -0.013484516 -0.16765665 -0.014160906 -0.028560136 0.016301647 -0.0077278013 -0.08499358 0.1929492 0.10841339 -0.22263345 -0.23906294 0.15799482 -0.026082225 -0.05118387 -0.13343962 -0.25031492 0.073980056 0.087221116 0.095251784 0.13155629 0.026055887 0.18032658 0.10705795 -0.11591678 0.13913915 0.14460564 0.051367737 0.11854134 0.08985034 0.014094262 -0.22424288 0.17179638 -0.13869107 -0.43132278 0.1053665 -0.04327161 0.0071245143 -0.06255501 0.19166355 -0.057164766 -0.13697961
21 0.08323756 0.051001735 0.06496229 -0.03203458 0.06877892 -0.077339694 0.293145 0.16670707 0.049697552 -0.06500658 0.0641118 -0.04214778 0.18377557 0.06342355 -0.11059445 0.19184956 -0.038057197 -0.12419966 0.20982909 0.21054474 0.08179341 -0.10353715 -0.19129734 0.3247067 -0.01752647 0.17492455 0.0063454416 0.35035035 0.2377045 0.2793839 0.017264264 0.009672812 -0.108254425 -0.2046624 -0.23134027 -0.05420355 -0.11956621 -0.07848038 0.08600984 -0.16764356 0.08490767 0.08499367 -0.01908956 -0.29824817 0.13311276 0.068284556 -0.13903299 0.008396554 0.13590129 0.29450655 0.17978227 -0.25501502 0.16054934 0.011391034 0.112247884 0.14013402 0.03651128 0.11706543 0.050014436 -0.055144656 0.05813987 -0.10775474 -0.24110436 -0.15046714 -0.11797415 0.0126466835 0.13586716 -0.008287827 0.016035687 0.19260477 -0.061074447 -0.07997101 0.08282807 -0.03602107 0.1463009 -0.0678159 0.04536861 0.09893051 0.07614387 -0.21966907 0.120520115 0.088564485 0.037023354 -0.02207007 0.06354231 -0.18835583 -0.15048537 -0.10575137 -0.03395844 0.15285671 0.009627457 -0.024332574 -0.023994885 -0.2294162 0.17196111 0.22361383 -0.24063441 -0.110378526 0.27009818 -0.1570713 -0.0438573 -0.2837842 -0.08854461 0.024734413 0.084744975 -0.09760936 0.27251804 -0.04904257 0.18096001 -0.00014370392 -0.033409517 0.061526284 -0.01926684 0.06672007 0.12547661 -0.11930032 0.010037125 -0.12285938 0.1143197 -0.1939149 -0.38076448 -0.037942156 0.041993905 -0.079619765 -0.1459614 0.28836817 0.06496885 -0.023610286
12 -0.14892145 0.104227185 -0.0069165793 -0.3872045 -0.14239399 -0.3291776 0.035136495 -0.0191894 0.22228773 0.027096152 -0.16450408 -0.09824435 0.0006354404 0.11947276 0.0025431486 -0.18861863 0.058918655 -0.32029212 -0.0589296 0.07642693 0.3275031 -0.014469613 -0.010395603 0.20558698 -0.24041465 0.35199988 -0.0321624 0.091887884 -0.09011058 0.15309136 0.2990076 -0.055927765 -0.25503147 -0.088112876 0.095232315 -0.121223435 -0.16104023 0.0066561233 -0.015455353 -0.15951072 -0.18495522 0.116952166 -0.19870372 0.004639468 0.021135842 0.041970428 -0.17124702 -0.10825415 0.0076432284 0.18993795 -0.061673045 0.18062155 0.015739685 0.07894383 0.05415673 0.1327309 -0.027448662 -0.17729056 0.11606984 0.051240508 -0.03720391 0.08216652 -0.27805683 -0.038953546 -0.12910172 0.17585565 -0.121494174 0.07082446 -0.13161184 0.07701992 -0.07138987 0.023271205 0.03930536 0.18465102 0.043063674 -0.081420414 0.037335906 0.16801342 0.078163795 -0.057401247 0.2733747 -0.090912975 -0.18678828 -0.060286894 -0.13503562 -0.19031653 0.25689146 0.14964527 -0.31336194 0.05418892 0.09362518 -0.24066894 -0.2972181 -0.03846158 0.44261363 0.26853788 -0.12436818 -0.2500803 0.21849371 0.031897347 0.24842499 -0.33503315 -0.056705397 -0.123847865 -0.109210186 0.1282154 -0.054895297 0.0005431576 0.3660997 0.02919014 -0.050841484 0.24963742 0.070303515 0.25751752 0.07412436 -0.06507971 -0.050282508 0.010733993 0.25109518 -0.065752864 -0.088191554 -0.11975812 0.07331371 -0.080187544 0.113229044 0.10714631 0.08287591 -0.2278063
36 -0.18190491 0.057462636 0.1343791 0.0068753553 0.055391967 -0.15352447 0.06868508 0.07873501 0.12556471 0.004792992 0.049596213 0.0705665 -0.019437969 0.18531936 -0.018822724 0.11564037 -0.004109296 -0.057231452 0.23407006 0.17521197 0.006718572 -0.07610501 0.056036025 0.24168263 -0.16502164 0.07389994 -0.09778135 0.08833479 0.005983877 0.18036196 0.15011105 -0.036512014 -0.13438459 -0.11503922 -0.06441624 -0.004484953 0.0050372435 -0.09007328 0.048587997 -0.013488315 -0.20588408 0.17271061 -0.20337752 -0.059858304 -0.14876951 0.0923172 -0.15432629 -0.14947745 -0.12820081 0.30729792 0.054990597 0.048136104 0.047021244 0.034871884 0.09889385 0.28943264 -0.010733224 -0.07680832 0.2577127 -0.03145316 0.15193321 0.022975849 -0.2768214 -0.035031766 -0.22238077 -0.09852526 -0.06516264 0.023409188 0.07445191 0.040608138 -0.029723167 -0.17326744 0.050809115 -0.006283813 0.047207285 -0.13261338 0.05421882 0.14540716 -0.13413253 -0.03342614 0.11489776 -0.060329594 -0.2396049 0.1573842 0.026038153 -0.2215502 0.09233322 0.019429928 -0.05797912 0.17280306 -0.05007937 0.102029115 -0.07564001 -0.12574114 0.40941837 0.31926227 -0.12479418 -0.072333425 0.19433345 -0.2215238 0.14129664 -0.24118379 -0.110196404 -0.10917168 -0.01842104 -0.044681992 0.2781796 0.08351099 0.092515506 -0.0029315236 -0.07671336 0.14935194 0.08503497 0.0030845283 0.10865434 0.06641177 -0.04860865 -0.0011667646 0.3632846 -0.09857435 -0.09668311 -0.028958406 0.20180166 0.0055191023 0.010802 0.18222079 -0.13956429 0.009063736
16 -0.06688619 0.060263176 0.030884841 -0.1618419 -0.08829276 -0.31691536 0.09797863 0.052831188 0.27386636 0.092537336 -0.09057337 0.038926795 -0.030266704 0.11453599 0.049702458 -0.12701312 -0.07503827 -0.36839816 -0.051301833 0.08232552 0.25062674 0.022468003 -0.01389021 0.2218833 -0.31327403 0.28557402 -0.023011157 0.01570441 -0.083628856 0.027485354 0.06086201 -0.029245144 -0.136307 0.029219467 0.04100184 -0.11239626 -0.01381718 -0.09528012 0.0405948 -0.068028904 -0.26616052 0.08902632 -0.18912911 -0.018527303 -0.065783545 0.008733987 -0.26331532 -0.118024394 -0.1677077 0.20922221 -0.07232021 0.10513944 -0.12198779 0.04364927 0.14592093 0.20752129 0.123274036 -0.12748599 0.1699766 0.019090036 0.023971576 0.017776573 -0.20379336 -0.03187173 -0.16048422 0.16094571 -0.06404261 -0.08883723 0.02676211 0.087127626 -0.09818791 -0.26145795 -0.0150554 0.27222678 -0.013143596 -0.12931514 0.04252732 0.3003141 0.06452687 -0.11448411 0.3073074 -0.10958517 -0.34968773 -0.08293109 0.0396385 -0.07255086 0.25408676 0.010817383 -0.17620413 0.09858322 0.10270923 -0.07609086 -0.24016172 0.070141226 0.44286674 0.26358953 -0.14588465 -0.2993792 0.15163735 -0.08787935 0.26540348 -0.4235929 -0.0715144 -0.123941876 -0.09133568 0.11587609 0.11872746 -0.036011416 0.29380438 0.1258795 -0.10784367 0.32921082 0.16148886 0.042154294 0.06384101 -0.010400996 -0.07206501 -0.039755326 0.36652866 -0.05314569 -0.13058095 -0.13464136 0.1449611 -0.045994867 -0.011002016 0.26009515 0.005722024 -0.2105589
39 -0.22803755 0.002056474 0.25928974 -0.10100571 0.08748637 -0.051846843 0.16221337 0.08791812 -0.015350221 -0.07144029 0.078015655 -0.006543463 -0.009479647 0.27588534 -0.009310547 0.20735058 -0.0051487605 0.04580777 0.36231703 0.21946178 -0.032859545 -0.06663296 0.13750327 0.1734763 -0.1231087 -0.0027278 -0.047688134 0.11887413 0.06209008 0.2472499 0.20864804 -0.02221124 -0.17615508 -0.20852748 -0.07067112 0.1230126 0.009459819 0.01447355 0.037168145 -0.0032057771 -0.030431008 0.14970128 -0.107898965 -0.065709 -0.107470065 0.12787691 -0.05142698 -0.25040877 -0.04174769 0.28447413 0.02511343 -0.04036385 0.20159009 -0.0058366233 0.14157192 0.23619156 -0.13124764 -0.01709601 0.26281524 -0.049160775 0.20865189 0.04355566 -0.37119123 0.006091944 -0.24752912 -0.12301242 -0.0076642027 0.13681887 0.07406472 -0.04821783 0.07697679 -0.06214752 0.0627943 -0.13622794 0.13832654 -0.077305034 0.041079953 0.04226847 -0.279701 -0.014600829 0.006631098 -0.011528326 -0.17833441 0.22251719 -0.037352107 -0.2482045 -0.048513398 0.078061536 -0.08553596 0.13065368 -0.14932433 0.14569148 0.027300412 -0.21753983 0.33347937 0.2534423 -0.11793469 -0.004691829 0.19325449 -0.17161137 -0.008944857 -0.032740936 -0.21798977 -0.017730027 0.0632794 -0.0436087 0.24496557 0.15908635 0.030223524 -0.05741106 -0.06363148 0.04846435 0.08664474 0.034634065 0.14701049 0.1572027 -0.012010561 -0.050227836 0.30444077 -0.14625204 -0.21618281 0.11863383 0.12691401 0.035186436 0.05147214 0.09731936 -0.22183977 0.060364347
37 -0.1565107 -0.02523796 0.24737649 -0.09492183 0.06379617 -0.051554017 0.17537184 0.08377219 0.003414311 -0.050580863 0.058444954 -0.0033815827 -0.00059980026 0.24001083 0.008528647 0.17461076 -0.048823345 -0.01181407 0.28142694 0.18809238 0.0010988843 -0.021620939 0.11830171 0.14186718 -0.13085732 0.011440822 -0.0042748265 0.08336768 0.0611593 0.18542969 0.13139853 -0.004102082 -0.14403589 -0.14233714 -0.05701828 0.11023888 0.03422108 0.01712483 0.03184739 0.009919689 -0.019361632 0.11108082 -0.061659697 -0.05715927 -0.07572454 0.096048556 -0.06702228 -0.24309844 -0.064355135 0.22973487 -0.0033302903 -0.07043655 0.15761422 -0.01882015 0.16467153 0.18723409 -0.082142726 0.0017515622 0.23337658 -0.035977144 0.18589912 0.014144957 -0.32293963 0.011876334 -0.21504004 -0.05426519 0.026657276 0.09826843 0.089322336 -0.05069873 0.07486429 -0.11237733 0.031082522 -0.07021995 0.12410153 -0.062038 0.026668502 0.07203589 -0.23407918 -0.04035409 0.036633402 -0.010595651 -0.21262726 0.15423374 -0.016657406 -0.17658919 -0.053126242 0.05063147 -0.09350455 0.09269932 -0.11745972 0.13341388 0.025969177 -0.15867294 0.30852705 0.21732378 -0.13378228 -0.06527053 0.16593908 -0.13938092 -0.012756226 -0.0636011 -0.2227201 0.004754215 0.06746684 -0.0018990331 0.22394647 0.12778097 0.06016169 -0.009220207 -0.08600945 0.080591194 0.10423042 0.01961857 0.12617396 0.15513474 -0.02005093 -0.08376826 0.2861594 -0.123118676 -0.24328493 0.1133212 0.097238466 0.036762245 0.025918838 0.118572205 -0.20211984 0.017753044
7 -0.016558062 0.024026092 0.08963682 0.0065755085 0.04061369 -0.15110539 0.1611996 0.10928992 0.11609393 -0.006311432 0.036680575 0.050481383 0.0819002 0.10547188 -0.024109297 0.12785025 -0.056875028 -0.15908012 0.1730464 0.13834767 0.06922604 -0.06464832 -0.07681799 0.25512844 -0.10316692 0.12601706 -0.04223185 0.1589452 0.06892235 0.1634942 0.0021415476 -0.015046954 -0.11921415 -0.10302116 -0.10799047 -0.042917676 -0.02365171 -0.105293214 0.054322988 -0.06333144 -0.12096858 0.10884246 -0.11473095 -0.14258735 -0.048381537 0.036887433 -0.19698748 -0.063857116 -0.06928478 0.2510892 0.0981 -0.08191347 0.026200376 0.02369597 0.105946295 0.19472434 0.06438805 -0.020495627 0.15160334 -0.019476268 0.09829635 -0.08032171 -0.19224907 -0.096949264 -0.16883089 0.019541793 0.04629841 -0.041922975 0.06633786 0.14262842 -0.0689533 -0.23429032 0.045969848 0.053672638 0.0670446 -0.105000444 0.02074104 0.17903608 -0.017433343 -0.13157336 0.1513243 -0.01646324 -0.15509696 0.009366229 0.087836474 -0.14886545 0.0074758898 -0.06175465 -0.03749543 0.14064756 0.009700332 0.06189603 -0.07135086 -0.11494733 0.31606793 0.25603226 -0.1809644 -0.15491824 0.19830589 -0.23763067 0.09067941 -0.30455852 -0.09891477 -0.06097905 0.034993775 -0.0679803 0.2670508 -0.0019532081 0.15914994 0.05801923 -0.053092465 0.16389896 0.081537664 0.0023631288 0.093009196 -0.0022488926 -0.027970683 -0.097848 0.28359732 -0.10058876 -0.22450323 -0.06870553 0.13162361 -0.036915198 -0.077532664 0.28410506 -0.018810494 -0.03541531
27 0.07622983 0.013278624 0.1050552 -0.17891744 0.030376246 -0.07292196 0.34471098 0.14356786 0.013213435 -0.07226333 0.035442904 -0.11387352 0.1912178 0.10220574 -0.07595749 0.15206286 -0.049081523 -0.16013461 0.18947339 0.19181377 0.13300876 -0.06766758 -0.15077376 0.2636952 -0.026679263 0.18212281 0.05589435 0.32793492 0.23017773 0.26631957 0.04464186 0.021360772 -0.14531662 -0.19879797 -0.17479683 -0.007533253 -0.13033485 -0.0005340395 0.06883203 -0.16814116 0.16048852 0.045015853 0.04237749 -0.25872102 0.18750453 0.06147447 -0.10189657 -0.040417522 0.17805305 0.21893938 0.109797016 -0.25057703 0.2029473 -0.0039694067 0.12948065 0.065266326 -0.013551484 0.12255467 0.01858483 -0.029473022 0.048185416 -0.08438871 -0.2604583 -0.12690333 -0.1017923 0.09197051 0.16558105 0.03781075 -0.011592517 0.13054676 -0.011702354 -0.01692226 0.067756146 -0.029634172 0.17292984 -0.030340161 0.018384768 0.06282956 0.053134322 -0.2191725 0.11210643 0.09056978 0.05122197 -0.05517108 0.0042559924 -0.1434242 -0.170883 -0.052739624 -0.10719483 0.09251219 0.0051925117 -0.071256936 -0.029157346 -0.21457325 0.12629819 0.153939 -0.21838598 -0.1274172 0.25076014 -0.062589 -0.082412526 -0.19178763 -0.12776329 0.07546609 0.09711103 -0.04187563 0.15835242 -0.03335614 0.2055718 0.004741496 -0.03364434 0.03468465 -0.00466962 0.110967085 0.11563883 -0.08563872 0.02088882 -0.14871906 0.058064315 -0.18325602 -0.42336145 0.017746208 -0.03837258 -0.07872428 -0.09217637 0.21571419 0.06471559 -0.071726814
13 -0.09410494 0.07054412 0.042867724 -0.4331369 -0.10057087 -0.22658215 0.1343362 0.0013342223 0.077044375 -0.052393656 -0.12577921 -0.18128514 0.079791695 0.12232741 -0.024970917 -0.080845095 0.06317583 -0.23740669 0.021215066 0.0972915 0.28841266 -0.03746317 -0.05365305 0.17503639 -0.11270386 0.30064484 0.009896597 0.19874 0.030932765 0.22599731 0.28752133 -0.030942842 -0.257909 -0.16223612 0.03418022 -0.055484157 -0.20517409 0.07285214 -0.01929068 -0.19640607 0.00061324064 0.08191642 -0.08021631 -0.05601474 0.12619394 0.057678264 -0.08465264 -0.09055777 0.16234347 0.1367584 -0.012357943 0.054969616 0.15374684 0.04908967 0.025184892 0.03580054 -0.108126685 -0.07494993 0.03956507 0.0434655 -0.03637408 0.05559091 -0.28561312 -0.057186056 -0.09476423 0.16544421 -0.025572317 0.13465421 -0.15859634 0.0690836 -0.020406168 0.13783711 0.072236605 0.05321671 0.11475863 -0.026782414 0.019583773 0.046744592 0.055157933 -0.087986864 0.17606473 -0.011276213 -0.022094956 -0.06312222 -0.16963537 -0.20020649 0.07812278 0.14691305 -0.3081491 0.030649897 0.051031936 -0.2513333 -0.20898151 -0.13878518 0.29869565 0.1872497 -0.13890152 -0.18421508 0.23705709 0.06879926 0.09709809 -0.19504121 -0.09632653 -0.033748165 -0.029807007 0.07333407 -0.08240677 0.014312791 0.33252415 -0.015715145 -0.018145517 0.118471846 0.012497773 0.30114314 0.087908156 -0.071371265 -0.01314307 -0.04655941 0.10813371 -0.10291095 -0.19956112 -0.04340834 -0.024192547 -0.08753749 0.111000866 0.06044553 0.101028554 -0.1748151
26 0.006624929 -0.13040245 0.28340203 -0.45879295 -0.06857101 -0.07727571 0.39343134 0.06936542 -0.098666735 -0.08051041 -0.053815447 -0.15296572 0.12118925 0.23997459 0.07302865 0.08728068 -0.1504898 -0.26807508 0.15031269 0.11293179 0.23838854 0.057545774 0.05518632 0.033752587 -0.12743282 0.1463535 0.16860484 0.13096705 0.11956368 0.15895925 0.06650542 0.023852471 -0.24361603 -0.1406501 0.03054975 0.15631372 -0.03306585 0.15233068 0.01136344 -0.07780305 0.21949935 -0.020901853 0.14002459 -0.042614866 0.15173513 0.001934343 -0.069309264 -0.27479255 0.09470438 0.028683314 -0.11207894 -0.18337178 0.22867662 -0.059583068 0.21618636 -0.07831091 -0.13951626 0.07078873 0.0915552 0.019809436 0.08826087 -0.035308383 -0.329014 -0.014336508 -0.15524977 0.2655224 0.20761473 0.11835039 -0.02431645 -0.052858766 0.118342884 -0.036065657 -0.007946942 0.046075296 0.22507077 0.042246778 -0.05988882 0.04502302 -0.14012596 -0.16720192 0.09194031 0.028697932 -0.15661441 -0.12118313 -0.06828902 -0.055884797 -0.15582807 0.13095148 -0.30528364 -0.068447195 -0.040150564 -0.052132066 -0.02114686 -0.14294362 0.19080101 0.012399698 -0.21227807 -0.2467672 0.18032542 0.049914487 -0.13067001 -0.009400342 -0.34165004 0.1431168 0.16773328 0.107586354 -0.033790603 0.08818372 0.28492346 0.07439612 -0.06540477 0.09068442 0.16953017 0.17966303 0.10667325 0.15719151 0.03603897 -0.24295454 0.121725515 -0.13438928 -0.52861744 0.16037473 -0.14162508 -0.018372724 0.07073663 0.09730587 -0.046257112 -0.18493053
17 -0.0039958404 0.03644806 0.033398107 -0.0804886 -0.04712948 -0.27769282 0.120427065 0.080611475 0.27027917 0.09447897 -0.054414567 0.06426568 -0.0048008724 0.08833679 0.043528214 -0.07803393 -0.10314562 -0.35502836 -0.04662779 0.0777101 0.21290325 0.024393704 -0.051294394 0.23064244 -0.28409535 0.24961904 -0.018808387 0.016082967 -0.051727206 0.0019876992 -0.031211754 -0.019620411 -0.110007286 0.044397533 -0.0038651694 -0.10689175 0.009101774 -0.123215206 0.0485517 -0.061988346 -0.24620044 0.07710362 -0.15923454 -0.061454527 -0.06296118 -0.0055517675 -0.28267777 -0.10119442 -0.1880871 0.21950068 -0.038047682 0.032353494 -0.13437073 0.037016883 0.17954291 0.20673808 0.1691914 -0.08874311 0.16157544 0.005370284 0.032917548 -0.039286774 -0.1639068 -0.047960885 -0.17140877 0.15903598 -0.008715903 -0.11623245 0.08281934 0.122899234 -0.10963305 -0.3322218 -0.025234763 0.2652903 -0.007350253 -0.12477126 0.026875077 0.3240351 0.077524066 -0.13568921 0.3137773 -0.078086615 -0.34338108 -0.09023582 0.09152722 -0.039034627 0.20167072 -0.05878183 -0.12665272 0.09860366 0.09749286 -0.029430538 -0.1919915 0.06273917 0.4094359 0.2680583 -0.1820394 -0.31587884 0.15068577 -0.14071003 0.23530814 -0.44913545 -0.08402785 -0.11298334 -0.060279 0.09490697 0.18850274 -0.059676748 0.26290706 0.1550409 -0.1170982 0.32135543 0.16300136 -0.016773291 0.07103295 -0.022250336 -0.057064563 -0.086342484 0.35498694 -0.055306796 -0.17642052 -0.123656705 0.13899754 -0.033431213 -0.08050233 0.31095806 0.0033053176 -0.18109548
31 -0.13728935 -0.03588637 0.2734303 -0.12668644 0.07506205 -0.030317789 0.2063654 0.08666933 -0.027997833 -0.066971675 0.06480329 -0.012370138 0.024148336 0.24540012 0.016929792 0.20044556 -0.075715035 -0.017991222 0.3116893 0.19140655 -0.0032960407 -0.019810632 0.11722344 0.14381623 -0.12994474 0.0031638215 0.013601193 0.09670848 0.09059379 0.19709788 0.12636355 -0.011956348 -0.17043072 -0.15968609 -0.06870948 0.14266427 0.040400323 0.019819109 0.022864409 0.0045389747 0.020045359 0.08931367 -0.033555042 -0.043742232 -0.05421309 0.08403685 -0.06317166 -0.25372508 -0.0489317 0.21992931 0.0019138237 -0.09780712 0.17317419 -0.017072761 0.18023837 0.16315053 -0.09456656 0.0051398817 0.22082664 -0.034206867 0.19744837 0.008420234 -0.32119405 0.007978513 -0.2191781 -0.036531072 0.06655395 0.12670775 0.09936239 -0.06297476 0.0887804 -0.10114261 0.019026464 -0.092160694 0.16523978 -0.05136314 0.005843126 0.06417624 -0.23466088 -0.04213429 0.034670744 0.008396438 -0.19777139 0.16057956 -0.018073395 -0.16146344 -0.07724216 0.040181667 -0.09990349 0.075051844 -0.1328875 0.14527784 0.056142252 -0.18115066 0.28629208 0.18979257 -0.14690974 -0.06608558 0.18064363 -0.14140981 -0.039717484 -0.041740328 -0.24677241 0.018167756 0.08741263 0.00069003063 0.21162155 0.13204776 0.041086216 -0.0064099506 -0.090183936 0.06285982 0.1145511 0.0129247615 0.13702112 0.15957165 0.004789971 -0.112153426 0.27335122 -0.12876073 -0.2706323 0.12757638 0.07283898 0.035088424 0.023117326 0.11673114 -0.19095357 0.005691031
19 0.11169998 -0.051369697 0.113826394 -0.13174118 0.022717603 -0.09389058 0.2632733 0.09799129 0.09080842 0.015244343 -0.011342268 -0.034681108 0.08800327 0.087240994 0.046533562 0.03312053 -0.15342547 -0.21988733 0.011239561 0.08337608 0.13625383 0.05334596 -0.054976046 0.12108128 -0.1494472 0.12855686 0.0852643 0.07208929 0.084123105 0.0069015855 -0.12516183 0.012756751 -0.11693261 -0.016078094 -0.083999306 0.019201126 0.008668562 -0.019846302 0.021190995 -0.06737995 0.024939701 -0.009098851 0.035508417 -0.12452143 0.07070058 0.0010777138 -0.19157737 -0.13500796 -0.056805503 0.14553238 -0.02086454 -0.18590738 0.031109704 -0.029456036 0.24203756 0.092155434 0.08788597 0.053403575 0.0859274 -0.013328882 0.0683137 -0.090292186 -0.19598278 -0.06219428 -0.13191083 0.20032732 0.15086472 -0.0070824046 0.10666653 0.06702441 0.002202988 -0.24846007 -0.02454088 0.13507423 0.13147111 -0.044110257 -0.018399918 0.20701297 0.027860193 -0.17767097 0.21080974 0.048012428 -0.20579001 -0.10894428 0.066058636 0.0030743233 -0.04775253 -0.080874756 -0.12479387 0.018984187 0.026768858 0.0031733161 -0.048845194 -0.037848372 0.22705743 0.1506792 -0.241423 -0.28453088 0.16640061 -0.07506763 0.011936047 -0.260864 -0.19133173 0.026003191 0.05502887 0.09065508 0.18426974 -0.0365121 0.20474023 0.13959171 -0.12296271 0.18475069 0.14395988 0.011277194 0.10236808 0.023586746 0.0138570815 -0.21575879 0.19883314 -0.13064454 -0.40348133 0.03006407 -0.0049946085 -0.009632807 -0.12876932 0.26984426 -0.0011742089 -0.15583594
10 -0.21352206 0.12344347 0.0053048832 -0.36351922 -0.12718183 -0.3342747 -0.0031896248 -0.024145285 0.21229482 0.032862347 -0.14621477 -0.08258362 -0.034176357 0.14547838 0.0026779433 -0.17647445 0.080999576 -0.27217877 -0.027053872 0.0763611 0.28146416 -0.028848922 0.025363965 0.19962677 -0.24645208 0.32777247 -0.06965093 0.073916346 -0.111706585 0.16487356 0.34448326 -0.058519457 -0.2518812 -0.09507683 0.10671346 -0.10609848 -0.15260832 -0.001026394 -0.009017782 -0.1431151 -0.22754359 0.13434148 -0.23124216 0.034046516 -0.019856315 0.06087889 -0.14824761 -0.11777268 -0.006982839 0.19411269 -0.05822255 0.23583946 0.018211612 0.08317063 0.02342112 0.15617485 -0.060463034 -0.19535767 0.14686623 0.044460244 -0.015472594 0.120317645 -0.28292233 -0.022163168 -0.14661321 0.10594092 -0.16399816 0.07772463 -0.12924716 0.04752485 -0.062091716 0.03574093 0.049010675 0.14677401 0.020023607 -0.09759853 0.051012725 0.14322287 0.029346325 -0.015855225 0.23811692 -0.11978547 -0.19233486 -0.0013251025 -0.1395748 -0.22134002 0.28591073 0.17081998 -0.29509974 0.07945714 0.06702047 -0.21602857 -0.2873538 -0.042370312 0.46138522 0.28001156 -0.08313888 -0.19487032 0.21042874 0.015023631 0.27478963 -0.30652985 -0.049114265 -0.14468315 -0.12811019 0.10768781 -0.041530177 0.029602591 0.31904295 0.00032614093 -0.042170204 0.23104753 0.06956684 0.23769757 0.076982066 -0.03251852 -0.058615472 0.05324329 0.28222793 -0.06334236 -0.024248121 -0.11416397 0.107310034 -0.066332564 0.14636509 0.07241364 0.03307038 -0.1885135
18 -0.03018311 0.039729014 0.050182603 -0.040735852 -0.044995982 -0.2704736 0.095199786 0.078283675 0.27670383 0.09034406 -0.046345364 0.08696314 -0.023978291 0.0984281 0.04051582 -0.07458509 -0.10247325 -0.33134204 -0.02588404 0.08669215 0.19481054 0.022552904 -0.023716759 0.2275721 -0.29133806 0.22894491 -0.027328758 -0.008291166 -0.07169636 -0.0041256584 -0.020019215 -0.01868269 -0.08679146 0.04519802 -0.00046017356 -0.09890555 0.032266434 -0.13870296 0.04689079 -0.039977405 -0.27189294 0.09660028 -0.18002793 -0.04723007 -0.09417723 0.008746709 -0.2705124 -0.114862345 -0.21017468 0.22875367 -0.041109987 0.059896752 -0.1438361 0.038343538 0.17538854 0.23221888 0.1669497 -0.097136326 0.18056053 -0.0005702252 0.053310197 -0.018534286 -0.15750672 -0.035022367 -0.16736372 0.11153437 -0.02970705 -0.11924792 0.098949954 0.09637271 -0.09703194 -0.33523312 -0.023683751 0.24971314 -0.024056965 -0.12334367 0.027326562 0.3123453 0.047786884 -0.104367375 0.290634 -0.08947991 -0.36036003 -0.050550148 0.09452324 -0.031663176 0.20895565 -0.058460176 -0.09363496 0.10711725 0.08024876 0.005509906 -0.1760585 0.08114342 0.40287364 0.26333463 -0.16156906 -0.2852085 0.13359223 -0.14388056 0.23821302 -0.4217962 -0.07229191 -0.11150085 -0.0693601 0.09154505 0.19878608 -0.044244915 0.22616613 0.13759302 -0.12055204 0.31378254 0.16688028 -0.040589176 0.06340543 -0.005171811 -0.07112869 -0.05989615 0.36836484 -0.04537874 -0.12248369 -0.11803852 0.15873398 -0.027742714 -0.06771472 0.28365916 -0.030071886 -0.1646502
34 -0.18357487 0.0067532305 0.2095234 -0.09487962 0.049245372 -0.09558465 0.13081421 0.07173355 0.035395917 -0.030677779 0.040282387 0.023898842 -0.017794251 0.22891667 0.01474989 0.13242966 -0.033174913 -0.03393244 0.26981407 0.17537898 0.009473644 -0.041008353 0.11972658 0.1650336 -0.15928255 0.041447863 -0.03746403 0.07269803 0.028763607 0.18269327 0.16922067 -0.02421684 -0.16140266 -0.13815509 -0.042472284 0.08987802 0.025606772 -0.011948087 0.034921803 -0.00027329513 -0.079043955 0.12227753 -0.11243729 -0.029841034 -0.09437455 0.08751319 -0.09452512 -0.22692803 -0.08099418 0.2378886 0.0040349136 -0.005310206 0.11225669 0.004834257 0.14281017 0.20435834 -0.073837966 -0.039318494 0.24134253 -0.03501497 0.17020926 0.035765782 -0.30639565 0.0019413373 -0.22458719 -0.061230402 -0.01118609 0.08445403 0.07071412 -0.035229094 0.04647025 -0.10279893 0.028935231 -0.048938032 0.10814214 -0.07920167 0.026423203 0.094414644 -0.21011026 -0.025086904 0.06356088 -0.035208322 -0.21923071 0.15872853 -0.01316826 -0.17509635 0.01455435 0.05543082 -0.097217485 0.10534572 -0.09967113 0.106622845 -0.010440848 -0.14036179 0.32538426 0.22573021 -0.10808434 -0.053527243 0.16489239 -0.14435863 0.041205693 -0.09653243 -0.18328382 -0.036845565 0.031896245 -0.0038360078 0.20231491 0.114360966 0.05970286 -0.01685019 -0.0731497 0.094943814 0.101459034 0.013933479 0.1144749 0.129255 -0.014014781 -0.043656442 0.29913622 -0.11043618 -0.16860977 0.07121717 0.1198534 0.023294434 0.04021581 0.112950735 -0.17134207 0.0045575714
38 -0.25237843 0.018580854 0.20874608 -0.043777466 0.053533267 -0.10060597 0.06553375 0.058127947 0.053207405 -0.028972276 0.05277411 0.04254628 -0.054872077 0.24977617 0.009341202 0.1433172 0.0035374842 0.0046425443 0.28995907 0.18621086 -0.021753855 -0.05124524 0.15896736 0.16902547 -0.16627292 0.01328155 -0.07028029 0.04422035 -0.010226992 0.20031449 0.22075838 -0.028060842 -0.16191995 -0.1546196 -0.024932014 0.080508016 0.031733193 -0.021927312 0.038390446 0.016654512 -0.1464544 0.17834829 -0.1779732 -0.018817652 -0.16122065 0.113935195 -0.088043734 -0.23985592 -0.11682165 0.2955868 0.009713229 0.053497292 0.11627453 0.009327863 0.12239054 0.27177963 -0.08532296 -0.0824139 0.2969428 -0.039771464 0.20307912 0.060920086 -0.34509692 0.013784448 -0.25323036 -0.12572098 -0.06887964 0.090062074 0.07558299 -0.042129323 0.03419 -0.11534223 0.05009241 -0.06380384 0.07849843 -0.10632936 0.055987857 0.09181282 -0.25254238 0.0017526092 0.046766657 -0.06786701 -0.26176506 0.22319591 -0.024484998 -0.24401923 0.055890977 0.082188666 -0.08171147 0.15071197 -0.12232348 0.14049815 -0.031629138 -0.15099217 0.41230217 0.2965137 -0.09335665 -0.03009897 0.17433158 -0.1924239 0.09532553 -0.11418606 -0.18204078 -0.0677583 0.012329124 -0.017761217 0.24428606 0.15850845 0.05267073 -0.033603407 -0.07680332 0.11475489 0.098430865 0.013888411 0.12608188 0.15454872 -0.039293025 -3.0449242e-05 0.36893332 -0.10351102 -0.11246161 0.061381176 0.18263423 0.03549842 0.066695355 0.09927429 -0.22592632 0.034806956
11 -0.2105394 0.14352588 -0.006015555 -0.317918 -0.11777061 -0.36162925 0.00048055773 -0.0057900576 0.25222504 0.04396111 -0.1391694 -0.05677359 -0.03249585 0.13799222 -0.0056941803 -0.16950059 0.08060949 -0.30027592 -0.017781371 0.10138722 0.28497535 -0.049060237 0.0031628837 0.26005757 -0.26586252 0.3464582 -0.08870446 0.089830026 -0.10533782 0.17093773 0.33031842 -0.06553725 -0.2400303 -0.08991017 0.08541648 -0.13536923 -0.14822555 -0.04239948 0.0042919884 -0.14278074 -0.27542105 0.15214054 -0.2658229 0.01205193 -0.048105404 0.066433765 -0.18413554 -0.09704031 -0.032504678 0.23555668 -0.040090702 0.23900549 -0.016276529 0.09447528 0.030239116 0.19811875 -0.021788837 -0.19697571 0.1604635 0.040207464 -0.013991177 0.109447815 -0.28427765 -0.031000286 -0.15659821 0.085852854 -0.17381974 0.044933796 -0.11509597 0.0764374 -0.095370345 -0.013455381 0.05042441 0.16659853 -0.00018875385 -0.12205506 0.06906248 0.18060447 0.054533776 -0.036240682 0.26739553 -0.13167708 -0.21989056 0.0023048648 -0.110211976 -0.23345149 0.3100824 0.14225282 -0.267435 0.11658548 0.08317582 -0.19732104 -0.30827925 -0.03563755 0.49758855 0.3188212 -0.09591504 -0.20601098 0.21963176 -0.02170857 0.3050905 -0.36313668 -0.027800562 -0.1743464 -0.14460824 0.09246203 0.0031052679 0.010338532 0.3268626 0.012348407 -0.047832537 0.26076877 0.063418746 0.2155243 0.07005379 -0.056403067 -0.068060435 0.06635799 0.3183179 -0.062220912 -0.0071056164 -0.1492756 0.14644621 -0.07312017 0.118063316 0.120010555 0.039380915 -0.18465228
25 -6.865208e-05 -0.16169715 0.31828552 -0.48942772 -0.07395291 -0.04337732 0.44087875 0.079745434 -0.15283127 -0.10183221 -0.041685253 -0.17447495 0.13113607 0.2640136 0.070591345 0.10539677 -0.16231316 -0.2548855 0.19925 0.116222836 0.23054986 0.061322637 0.074988306 0.0029181112 -0.11931868 0.124308884 0.19627008 0.14370282 0.15370783 0.18827179 0.0768253 0.045274444 -0.26055938 -0.1654658 0.02850784 0.20956893 -0.029380174 0.19470096 0.018605914 -0.065888844 0.2922345 -0.028882535 0.1809978 -0.04070676 0.18474092 0.011920101 -0.041139677 -0.31194827 0.123882964 0.01790728 -0.12631029 -0.21879698 0.28640103 -0.06762645 0.23179603 -0.10801886 -0.18503772 0.107389055 0.09553364 0.021408625 0.09825883 -0.030623335 -0.35515916 -0.003333108 -0.17222138 0.27499852 0.2384909 0.14147894 -0.029014613 -0.07842676 0.15513414 -7.075351e-05 -0.012974958 0.019623186 0.2574117 0.06030695 -0.08068634 0.006339499 -0.18704282 -0.18803443 0.057031672 0.043794323 -0.14369832 -0.124191135 -0.08274064 -0.057663444 -0.20453057 0.15441369 -0.3222808 -0.0847323 -0.07686329 -0.0408579 0.00354194 -0.1803478 0.15561032 -0.021204544 -0.21333423 -0.22801891 0.17663185 0.06852491 -0.19141503 0.059248656 -0.38977918 0.1926545 0.20576172 0.09781242 -0.050887063 0.11545129 0.27999005 0.054521803 -0.062220898 0.062320847 0.18054432 0.18476838 0.11286223 0.19141547 0.04893516 -0.26358157 0.089696094 -0.14709973 -0.5919606 0.22041132 -0.18710732 -0.009906336 0.087828785 0.073261 -0.06609615 -0.18238954
28 0.009900366 -0.04241481 0.17286445 -0.35796276 -0.04539569 -0.11957885 0.2799094 0.057870295 0.010652397 -0.046989977 -0.06365132 -0.12975737 0.08912156 0.15956244 0.040980045 0.019582631 -0.095835 -0.23389986 0.068634145 0.09754455 0.22096333 0.04255085 -0.0060852026 0.091079965 -0.13530222 0.17490056 0.10049903 0.12586549 0.080720834 0.12775712 0.07102424 0.0041075703 -0.18588468 -0.09278759 0.00024498373 0.050141077 -0.05390751 0.08205087 -0.0038614767 -0.098901875 0.10866279 0.00016263302 0.054647826 -0.061138876 0.11479889 0.021979876 -0.09064778 -0.18092261 0.057045963 0.08114612 -0.06599572 -0.11860233 0.13786559 -0.024370782 0.16275214 -0.002296648 -0.04819944 0.025063606 0.05674803 0.017804926 0.038323924 -0.023318075 -0.24930704 -0.024587678 -0.10639244 0.20230557 0.12439088 0.089468904 -0.016772758 -0.0063110674 0.05087351 -0.03510021 0.008837097 0.06264739 0.1498899 0.014422549 -0.02666413 0.0816236 -0.030500568 -0.12713835 0.13149223 0.03645265 -0.10664652 -0.09374885 -0.062790066 -0.044687223 -0.059815265 0.06041567 -0.22884348 -0.034312055 0.0063929185 -0.083973035 -0.06382426 -0.08451467 0.1809025 0.07368077 -0.1735637 -0.21549934 0.15701652 0.04042882 -0.03987951 -0.102710344 -0.19779271 0.06173179 0.06603883 0.09784988 0.006736872 0.015593031 0.23171957 0.0707662 -0.06506694 0.11343351 0.10846761 0.14297076 0.091603555 0.04789159 0.010346796 -0.17675091 0.11817845 -0.107821375 -0.36314705 0.07195323 -0.06791432 -0.02549478 0.014822581 0.12436508 0.0015177693 -0.16996503
8 0.02210239 0.036886714 0.06902103 -0.05985315 0.031411715 -0.14374422 0.19499145 0.11005962 0.11655169 -0.014166713 0.022238493 -0.009356511 0.10806649 0.08970543 -0.036533732 0.09263499 -0.04898068 -0.17188899 0.12859784 0.14226852 0.10488741 -0.055681955 -0.110241055 0.2573934 -0.09870242 0.16495591 -0.021567918 0.19710857 0.09847569 0.16861553 0.024934074 -0.011339821 -0.1251648 -0.11198307 -0.11690829 -0.057782143 -0.068148166 -0.084986396 0.050632402 -0.107314326 -0.05998596 0.08919872 -0.07870774 -0.16780251 0.018474052 0.044923764 -0.1730986 -0.04859148 -0.0034216926 0.24273853 0.0849258 -0.10377773 0.052804586 0.025632976 0.12142979 0.16074984 0.06339329 0.005024357 0.097305104 -0.018000396 0.061408218 -0.066000566 -0.20127198 -0.101233 -0.13682863 0.049862217 0.057709042 -0.021189835 0.0399665 0.1418107 -0.066299655 -0.15897633 0.04917162 0.057685208 0.0854514 -0.08535699 0.030527601 0.16185199 0.038975414 -0.13943925 0.16706216 0.009404267 -0.10524779 -0.019412968 0.050251864 -0.1383184 0.00023137592 -0.063075595 -0.066796474 0.11666578 0.025618574 -0.0048035844 -0.08197027 -0.11549532 0.26444483 0.2351329 -0.19001265 -0.15953758 0.20907849 -0.16431548 0.07142662 -0.30364484 -0.08482527 -0.038359303 0.019519439 -0.029827073 0.21837118 -0.026171241 0.17078291 0.046440955 -0.056698874 0.14270872 0.051661383 0.040288843 0.09143015 -0.05678389 -0.011855248 -0.090722494 0.20769243 -0.11555075 -0.23619829 -0.0650615 0.08295198 -0.044969298 -0.09033709 0.24943356 0.023369163 -0.065995716
29 0.044714093 -0.0465935 0.19482544 -0.30018228 -0.00902776 -0.07835212 0.33467805 0.09528078 -0.011522281 -0.07300089 -0.017761761 -0.12485595 0.12806273 0.15903607 0.009107075 0.10342671 -0.114112325 -0.20071363 0.14534988 0.14430416 0.1860244 0.015140335 -0.04262363 0.14437924 -0.10311275 0.16193926 0.10593934 0.19382842 0.15058033 0.17138693 0.035308484 0.011802884 -0.17721058 -0.13141927 -0.072532445 0.06362434 -0.049234103 0.05571528 0.008679942 -0.10521544 0.1482022 0.0041255374 0.073635526 -0.12554817 0.13421373 0.032760497 -0.10162775 -0.16929539 0.08404072 0.12904121 -0.012774536 -0.2011445 0.1762076 -0.028142324 0.18350728 0.020958088 -0.038720544 0.06535255 0.059647318 -0.0045688907 0.07140465 -0.05762402 -0.27420673 -0.053643316 -0.12181769 0.17166445 0.16278146 0.090882346 0.007080656 0.020822588 0.054485336 -0.06046878 0.016092988 0.025910918 0.18670893 0.0013654247 -0.026271136 0.08391808 -0.032295715 -0.16139565 0.11935572 0.064622164 -0.08366443 -0.07599949 -0.03152874 -0.07097208 -0.12745519 0.017551279 -0.1907488 -0.00840658 -0.012635951 -0.04825427 -0.019429903 -0.13870354 0.16918446 0.09651325 -0.21498701 -0.20326725 0.19320266 -0.0065792846 -0.07903776 -0.12273696 -0.21621284 0.0794991 0.10137202 0.057400413 0.08704096 0.015299318 0.21536902 0.05961146 -0.073806755 0.091201015 0.0887719 0.12471303 0.11418981 0.03482554 0.020968797 -0.20164542 0.11428712 -0.14350545 -0.4185217 0.07988913 -0.06351083 -0.030155651 -0.029083788 0.16790552 0.003885087 -0.13704471
40 -0.006588923 -0.05575446 0.20505463 -0.3757893 -0.0325319 -0.08186252 0.3144432 0.06839049 -0.04143589 -0.083637044 -0.042726863 -0.15732975 0.10654831 0.18149117 0.028991349 0.07256609 -0.08378021 -0.1901599 0.13338299 0.12632367 0.19871646 0.025225261 0.0060642236 0.0925968 -0.1109589 0.15396556 0.11234319 0.1599149 0.1222507 0.1723509 0.09388437 0.009652837 -0.20968224 -0.15032795 -0.024795849 0.08663939 -0.06408784 0.1064424 -0.007111068 -0.105079025 0.1667711 0.0063193687 0.08064005 -0.08394501 0.13198666 0.04022586 -0.06537837 -0.20153221 0.102675214 0.09587681 -0.047792263 -0.15991788 0.2118344 -0.0372715 0.17083125 -0.0050410014 -0.09400619 0.047817815 0.062167685 0.011002727 0.06543627 -0.021860423 -0.3030067 -0.031875566 -0.12977944 0.18488973 0.1475249 0.13169987 -0.019614005 -0.01838306 0.08393778 0.0016204717 0.023403957 0.009445142 0.19413981 0.02119612 -0.027957141 0.042352334 -0.06747871 -0.13457283 0.09759791 0.05920238 -0.08027834 -0.06476312 -0.08291972 -0.08138709 -0.12619717 0.080186985 -0.23681518 -0.03190269 -0.032177873 -0.07132361 -0.02972896 -0.14916402 0.17287575 0.077178836 -0.19180104 -0.19394381 0.18704672 0.04152649 -0.088258654 -0.052668527 -0.23738015 0.09562357 0.10349144 0.075823195 0.021466417 0.04348595 0.22647972 0.04143441 -0.07136617 0.074453816 0.09867711 0.1631628 0.11937603 0.06344036 0.018781802 -0.19437324 0.10082987 -0.14141959 -0.41674834 0.115207665 -0.09088818 -0.024559 0.025163006 0.104454435 -0.015478007 -0.14434871
