40 16
1 -0.26630637 0.3786302 0.14780329 0.29658917 -0.2977306 -0.31493202 -0.040955346 0.30359992 -0.5961589 -0.29611403 0.38626736 0.32338962 -0.30067608 -0.42149016 0.2869471 0.02411395
23 -0.28478616 -0.3134466 0.049166627 0.69230306 -0.15650612 -0.85987806 -0.5434931 0.2408587 -0.4736303 0.11838955 0.2800146 0.5865442 -0.13063335 -0.08342984 0.29339752 0.32903492
33 -0.11785333 -0.17318451 0.25728202 -0.57890916 0.15946704 -0.83087856 -0.54555714 0.49276 -0.36106575 -0.44003344 0.49097005 0.040117938 -0.16473848 -0.72642314 -0.26978093 -0.21669328
6 -0.05729571 -0.1411298 0.17670682 -0.30126917 0.34915295 -0.66654015 -0.59999245 0.3142122 -0.5646632 -0.27505538 0.46248695 0.109646216 -0.031010566 -0.5968867 -0.060830425 -0.1994543
32 -0.15476418 -0.22504795 0.19994405 -0.108954266 0.39602345 -0.7473307 -0.670057 0.24117492 -0.4833167 -0.37650332 0.504543 0.37130025 0.13115703 -0.5235768 0.04591516 -0.19357273
30 -0.3742635 0.2158419 0.38217074 0.66879934 -0.2826023 -0.38442403 -0.4335173 0.27338153 -0.6754417 -0.0001039668 0.2212439 0.4409885 -0.028276809 -0.22687544 0.18268967 0.025967596
22 -0.4851732 -0.3306359 0.24141559 0.7093137 -0.5910921 -0.91374326 -0.31758565 0.32715413 -0.34433556 -0.042721402 0.19738765 0.46306625 -0.2760719 0.14357834 0.38217467 0.3900949
9 -0.38754445 -0.35081008 0.18753776 -0.47637963 -0.99526453 -0.94588697 -0.30987337 0.7586492 0.046836253 -0.30809918 0.37585422 -0.3255595 -0.67199576 -0.447492 -0.629624 0.19027397
3 -0.65605253 0.57889783 0.3651795 0.72890615 -0.5926231 -0.1874603 -0.06694746 0.35533503 -0.6738727 -0.19535868 0.1303978 0.29303244 -0.2863017 -0.2616985 0.38947254 -0.026076864
15 -0.806241 0.40428627 -0.3827707 0.3205476 -0.9988436 0.115027554 -0.5119743 0.276792 -0.6625838 0.06744764 0.088807784 -0.30798808 -0.47746825 -0.89673305 -0.3177821 0.1024208
35 -0.24417321 0.31375885 0.399947 -0.56612 0.1961245 -0.5373992 -0.19329907 0.46466067 -0.519011 -0.5720623 0.51561373 0.18014541 -0.30097795 -0.78526855 0.059370805 -0.16195492
12 -0.32300845 -0.39216462 0.2133568 -0.11204226 -1.1560936 -0.96424514 -0.32184264 0.7943009 0.04096727 -0.22365563 0.20484298 -0.20272852 -0.62828654 -0.23947975 -0.60709465 0.33310688
5 -0.37802356 0.33188406 0.19000283 0.67863864 -0.40163553 -0.23487854 -0.3036268 0.2338931 -0.7977054 -0.07294365 0.31430286 0.46785 -0.16815363 -0.3153639 0.20461796 0.085824266
21 -0.5586523 0.5824884 0.23732468 0.66382265 -0.4895173 0.050834883 -0.22908784 0.26355976 -0.7680311 -0.27841395 0.28592068 0.6063366 -0.06595191 -0.3238942 0.1906135 -0.18544103
4 -0.33852023 0.08833466 0.2517086 0.40926662 -0.10526375 -0.6057447 -0.14443761 0.24664694 -0.57296133 -0.15232444 0.29254737 0.7291553 -0.13665621 -0.105571106 0.35659805 0.24207997
14 -0.38612705 0.7026382 0.24421953 -0.17418683 -0.00874956 -0.20861731 0.0631162 0.3791573 -0.77299 -0.2870198 0.41120535 0.18223904 -0.43438274 -0.7922077 0.25229463 0.038495522
24 -0.4453898 -0.29641083 0.30760002 0.45695385 -0.29877475 -0.89387786 -0.3539411 0.3058337 -0.36483565 -0.04170733 0.22628179 0.28264466 -0.20096879 -0.0069696684 0.4149669 0.2670884
2 -0.66934776 0.21131021 -0.38434234 0.5031335 -0.3917966 -0.057679377 -0.56944877 -0.12286303 -1.0302242 0.006881211 0.33147743 0.15565878 -0.18247059 -0.5840656 0.22934934 0.19804464
16 -0.72127014 0.21689259 -0.12345856 -0.12348536 -1.2651136 -0.28704244 -0.5650046 0.69236505 -0.2885166 -0.06825662 0.13624834 -0.63824147 -0.7000911 -1.097175 -0.7960494 0.09053359
39 -0.33756918 -0.16937013 0.08509071 -0.6281748 0.34190783 -0.7680139 -0.5743529 0.29006806 -0.29167676 -0.79840726 0.72091246 0.36939 0.099756375 -0.89543504 -0.11244485 -0.40491697
20 -0.4890051 -0.5318514 -0.52995795 0.3915177 -0.022363568 -0.62523264 -0.7883332 -0.18406397 -0.828223 -0.06421151 0.5090462 0.5500501 0.041255444 -0.23844013 0.18700561 0.43262583
36 -0.40084258 0.20771082 0.31187472 -0.73988116 0.264891 -0.48014912 -0.22914587 0.38561475 -0.32996732 -0.89733136 0.6218238 0.5084579 -0.18602772 -0.7498162 0.07547449 -0.2779585
37 -0.5245789 -0.3234117 0.053204846 -0.5269015 0.19353594 -0.74745446 -0.50138825 0.2723087 -0.089806795 -0.9373633 0.71707076 0.69972557 0.026060436 -0.5953142 0.04706229 -0.31817624
10 -0.28362787 -0.4210068 0.3600588 -0.33471456 -1.0606402 -1.0545456 -0.31274244 0.9045115 0.10341009 -0.22237647 0.33179912 -0.30839643 -0.68880016 -0.31528088 -0.75452375 0.2675285
7 -0.37730697 0.80375683 0.3507019 -0.09986414 -0.25913683 -0.2367329 0.25914496 0.54386085 -0.6079395 -0.22415827 0.23187993 0.17860109 -0.53957915 -0.66261923 0.17165595 0.15126894
34 -0.072807595 -0.04118242 0.119182535 -0.20425746 -0.02813159 -0.56666785 -0.6353607 0.3990422 -0.46776512 -0.05462448 0.26795277 -0.29678136 -0.12551215 -0.7107194 -0.32129788 -0.11813132
18 -0.8042368 0.2342865 -0.34026626 0.10109636 -1.0921258 -0.072631314 -0.63744533 0.35499015 -0.45621184 0.06880602 0.10237928 -0.5001807 -0.55959386 -0.9457657 -0.5285412 0.056624983
27 -0.38569635 0.65400106 0.59140664 0.8576314 -0.11403393 -0.10694987 -0.38737816 0.26385406 -0.86687124 -0.28603503 0.3609316 0.7573038 0.15321797 -0.25428087 0.3276469 -0.2685711
26 0.12823035 -0.31346756 -0.047016304 0.47018868 0.01300782 -0.8740552 -0.41815168 0.36097762 -0.68964565 -0.0035486817 0.52283764 1.2896141 0.023071107 -0.13288325 -0.20276402 0.5062492
13 -0.35288677 -0.33880317 0.3159056 0.2206469 -1.073418 -0.9473243 -0.09301209 0.6622014 -0.03627693 -0.1473782 0.2274446 0.09362584 -0.60417986 0.085996926 -0.21426061 0.41929048
17 -0.807747 0.31310293 -0.18956934 0.3494321 -1.237268 -0.11448916 -0.5217188 0.50261974 -0.48402837 0.07447076 0.069021285 -0.4393102 -0.641509 -0.75283074 -0.44317365 0.17487365
31 -0.07005093 -0.14081083 0.20401303 -0.2198703 0.32713577 -0.6374427 -0.6917678 0.36816093 -0.59005123 -0.32600537 0.5342792 0.19387603 0.043050975 -0.5437034 -0.12902178 -0.19219919
19 -0.70893735 -0.29196417 -0.85620975 0.42846555 -0.1582327 -0.1628249 -0.8786294 -0.42497152 -1.1107409 -0.01777545 0.5517968 0.21633552 -0.0910088 -0.5314204 0.3139878 0.3606038
38 -0.5531555 -0.26265293 -0.09390982 -0.71078116 0.25194702 -0.80930674 -0.55096895 0.35188133 -0.1574661 -1.0617708 0.82078236 0.5811246 0.06679873 -0.9628544 -0.10339401 -0.44141564
8 -0.657372 0.5095685 0.2732748 0.35934845 -0.28972 -0.12511985 -0.09171536 0.12543702 -0.6652443 -0.30467647 0.26156083 0.26869494 -0.20543118 -0.5399049 0.5560298 -0.18583544
11 -0.35243052 -0.27359456 0.22212148 -0.5518257 -0.7209412 -0.8578698 -0.4607934 0.7220223 -0.03398958 -0.35980058 0.37748846 -0.38205224 -0.6170435 -0.5357509 -0.5986943 0.123263076
25 0.5952076 0.11789145 0.082232915 0.67714155 -0.09165113 -0.74758714 -0.19473945 0.6555126 -0.972127 0.18631813 0.47829697 1.4599762 -0.09475866 -0.13449828 -0.5043066 0.6214402
40 -0.33047232 -0.18655382 0.1284356 0.6375561 -0.023809375 -0.8048345 -0.5353256 0.13512455 -0.73213077 0.0516566 0.3779053 0.68377864 -0.006230257 -0.12375153 0.36809164 0.3002496
29 -0.45913842 -0.34913492 0.19241993 0.6290952 -0.0038964455 -0.954794 -0.51123935 0.2302072 -0.5845112 -0.049497746 0.4089885 0.84420145 -0.014294454 -0.04917646 0.45338506 0.2741831
28 -0.24712084 -0.4329658 0.08499899 0.57955414 0.08448083 -0.9533665 -0.58403015 0.17594074 -0.6356221 -0.03855128 0.39815888 0.85447204 0.04219476 -0.050139748 0.36963373 0.3323101
